network unknown {
}
variable acceleration_mean {
    type discrete [ 10 ] { acceleration_mean_0, acceleration_mean_1, acceleration_mean_2, acceleration_mean_3, acceleration_mean_4, acceleration_mean_5, acceleration_mean_6, acceleration_mean_7, acceleration_mean_8, acceleration_mean_9 };
}
variable acceleration_stdev {
    type discrete [ 10 ] { acceleration_stdev_0, acceleration_stdev_1, acceleration_stdev_2, acceleration_stdev_3, acceleration_stdev_4, acceleration_stdev_5, acceleration_stdev_6, acceleration_stdev_7, acceleration_stdev_8, acceleration_stdev_9 };
}
variable classes {
    type discrete [ 5 ] { classes_0, classes_1, classes_2, classes_3, classes_4 };
}
variable pitch1 {
    type discrete [ 10 ] { pitch1_0, pitch1_1, pitch1_2, pitch1_3, pitch1_4, pitch1_5, pitch1_6, pitch1_7, pitch1_8, pitch1_9 };
}
variable pitch2 {
    type discrete [ 10 ] { pitch2_0, pitch2_1, pitch2_2, pitch2_3, pitch2_4, pitch2_5, pitch2_6, pitch2_7, pitch2_8, pitch2_9 };
}
variable pitch3 {
    type discrete [ 10 ] { pitch3_0, pitch3_1, pitch3_2, pitch3_3, pitch3_4, pitch3_5, pitch3_6, pitch3_7, pitch3_8, pitch3_9 };
}
variable roll1 {
    type discrete [ 10 ] { roll1_0, roll1_1, roll1_2, roll1_3, roll1_4, roll1_5, roll1_6, roll1_7, roll1_8, roll1_9 };
}
variable roll2 {
    type discrete [ 10 ] { roll2_0, roll2_1, roll2_2, roll2_3, roll2_4, roll2_5, roll2_6, roll2_7, roll2_8, roll2_9 };
}
variable roll3 {
    type discrete [ 10 ] { roll3_0, roll3_1, roll3_2, roll3_3, roll3_4, roll3_5, roll3_6, roll3_7, roll3_8, roll3_9 };
}
variable total_accel_sensor_1 {
    type discrete [ 10 ] { total_accel_sensor_1_0, total_accel_sensor_1_1, total_accel_sensor_1_2, total_accel_sensor_1_3, total_accel_sensor_1_4, total_accel_sensor_1_5, total_accel_sensor_1_6, total_accel_sensor_1_7, total_accel_sensor_1_8, total_accel_sensor_1_9 };
}
variable total_accel_sensor_2 {
    type discrete [ 10 ] { total_accel_sensor_2_0, total_accel_sensor_2_1, total_accel_sensor_2_2, total_accel_sensor_2_3, total_accel_sensor_2_4, total_accel_sensor_2_5, total_accel_sensor_2_6, total_accel_sensor_2_7, total_accel_sensor_2_8, total_accel_sensor_2_9 };
}
variable total_accel_sensor_4 {
    type discrete [ 10 ] { total_accel_sensor_4_0, total_accel_sensor_4_1, total_accel_sensor_4_2, total_accel_sensor_4_3, total_accel_sensor_4_4, total_accel_sensor_4_5, total_accel_sensor_4_6, total_accel_sensor_4_7, total_accel_sensor_4_8, total_accel_sensor_4_9 };
}
probability ( acceleration_mean | roll3 ) {
    table 0.9161857468796135, 0.2181571815718157, 0.31596091205211724, 0.45982142857142855, 0.6890756302521008, 0.4126984126984127, 0.24489795918367346, 0.2727272727272727, 0.40540540540540543, 0.5333333333333333, 0.014696013957858006, 0.02168021680216802, 0.02280130293159609, 0.07589285714285714, 0.05042016806722689, 0.047619047619047616, 0.061224489795918366, 0.01818181818181818, 0.02702702702702703, 0.06666666666666667, 0.008455240907260771, 0.032520325203252036, 0.016286644951140065, 0.05803571428571429, 0.008403361344537815, 0.07936507936507936, 0.02040816326530612, 0.01818181818181818, 0.02702702702702703, 0.016666666666666666, 0.009998657898268688, 0.08943089430894309, 0.0781758957654723, 0.07142857142857142, 0.03361344537815126, 0.031746031746031744, 0.14285714285714285, 0.09090909090909091, 0.08108108108108109, 0.0, 0.009931552811703126, 0.05013550135501355, 0.07166123778501629, 0.044642857142857144, 0.025210084033613446, 0.19047619047619047, 0.10204081632653061, 0.18181818181818182, 0.05405405405405406, 0.05, 0.00764997986847403, 0.09620596205962059, 0.08469055374592833, 0.0625, 0.008403361344537815, 0.047619047619047616, 0.22448979591836735, 0.21818181818181817, 0.05405405405405406, 0.03333333333333333, 0.011340759629579922, 0.1856368563685637, 0.16612377850162866, 0.10267857142857142, 0.03361344537815126, 0.047619047619047616, 0.10204081632653061, 0.12727272727272726, 0.13513513513513514, 0.03333333333333333, 0.00838813582069521, 0.15853658536585366, 0.13029315960912052, 0.044642857142857144, 0.07563025210084033, 0.06349206349206349, 0.04081632653061224, 0.05454545454545454, 0.10810810810810811, 0.06666666666666667, 0.010669708763924306, 0.13414634146341464, 0.10097719869706841, 0.0625, 0.06722689075630252, 0.06349206349206349, 0.061224489795918366, 0.0, 0.05405405405405406, 0.1, 0.002684203462622467, 0.013550135501355014, 0.013029315960912053, 0.017857142857142856, 0.008403361344537815, 0.015873015873015872, 0.0, 0.01818181818181818, 0.05405405405405406, 0.1 ;
}
probability ( acceleration_stdev | acceleration_mean ) {
    table 0.9981684981684982, 0.19494584837545126, 0.0, 0.0, 0.0, 0.0, 0.0, 0.0, 0.0, 0.0, 0.001267962806424345, 0.7075812274368231, 0.11797752808988764, 0.03260869565217391, 0.011904761904761904, 0.0, 0.0, 0.0, 0.0, 0.0, 0.00042265426880811494, 0.06859205776173286, 0.6348314606741573, 0.07246376811594203, 0.027777777777777776, 0.01953125, 0.0, 0.0, 0.0, 0.0, 0.00014088475626937165, 0.0036101083032490976, 0.20224719101123595, 0.6956521739130435, 0.14285714285714285, 0.00390625, 0.009852216748768473, 0.0, 0.0, 0.0, 0.0, 0.018050541516245487, 0.0449438202247191, 0.16666666666666666, 0.6031746031746031, 0.08984375, 0.0024630541871921183, 0.006289308176100629, 0.006134969325153374, 0.0, 0.0, 0.0036101083032490976, 0.0, 0.03260869565217391, 0.12698412698412698, 0.59375, 0.046798029556650245, 0.009433962264150943, 0.003067484662576687, 0.0, 0.0, 0.0036101083032490976, 0.0, 0.0, 0.0873015873015873, 0.19140625, 0.6650246305418719, 0.06918238993710692, 0.003067484662576687, 0.0, 0.0, 0.0, 0.0, 0.0, 0.0, 0.09375, 0.229064039408867, 0.6572327044025157, 0.04294478527607362, 0.014492753623188406, 0.0, 0.0, 0.0, 0.0, 0.0, 0.0078125, 0.014778325123152709, 0.24842767295597484, 0.7699386503067485, 0.11594202898550725, 0.0, 0.0, 0.0, 0.0, 0.0, 0.0, 0.03201970443349754, 0.009433962264150943, 0.17484662576687116, 0.8695652173913043 ;
}
probability ( classes | acceleration_mean, roll3, total_accel_sensor_2 ) {
    table 0.04796590468810539, 0.25732899022801303, 0.25925925925925924, 0.411214953271028, 0.34375, 0.3, 0.0, 0.0, 0.0, 0.0, 0.36075949367088606, 0.0, 0.0, 0.2, 0.2, 0.2, 0.2, 0.2, 0.0, 0.2, 0.14583333333333334, 0.0, 0.2, 0.2, 0.2, 0.2, 0.2, 0.2, 0.2, 0.2, 0.17, 0.0, 0.2, 0.2, 0.2, 0.2, 0.2, 0.2, 0.2, 0.2, 0.2222222222222222, 0.2, 0.2, 0.2, 0.0, 0.2, 0.2, 0.2, 0.2, 0.2, 0.15384615384615385, 0.2, 0.2, 0.2, 0.2, 0.2, 0.2, 0.2, 0.2, 0.2, 0.4166666666666667, 0.2, 0.2, 0.2, 0.2, 0.2, 0.2, 0.2, 0.2, 0.2, 0.5333333333333333, 0.2, 0.2, 0.2, 0.2, 0.2, 0.2, 0.2, 0.2, 0.2, 0.3333333333333333, 0.2, 0.2, 0.2, 0.2, 0.2, 0.2, 0.2, 0.2, 0.2, 0.1935483870967742, 0.0, 0.2, 0.2, 0.2, 0.2, 0.2, 0.2, 0.2, 0.2, 0.19047619047619047, 0.1686746987951807, 0.0, 1.0, 0.0, 0.7142857142857143, 0.9565217391304348, 0.9090909090909091, 0.7, 0.7272727272727273, 0.14285714285714285, 0.125, 0.2, 0.2, 0.0, 0.2, 0.2, 0.2, 0.2, 0.2, 0.0, 0.0, 0.2, 0.2, 0.2, 0.2, 0.2, 0.2, 0.2, 0.2, 0.0, 1.0, 0.2, 0.2, 0.2, 0.0, 0.2, 0.2, 0.2, 0.2, 0.2, 1.0, 0.2, 0.2, 0.2, 0.2, 0.2, 0.2, 0.2, 0.2, 0.2, 0.5, 0.2, 0.2, 0.0, 0.2, 0.2, 0.2, 0.2, 0.2, 0.0, 1.0, 0.2, 0.2, 0.2, 0.2, 0.2, 0.2, 0.2, 0.2, 0.2, 0.2, 0.0, 0.2, 0.2, 0.2, 0.2, 0.2, 0.2, 0.2, 0.0, 0.2, 0.2, 0.2, 0.2, 0.2, 0.2, 0.2, 0.2, 0.2, 0.0, 0.2, 0.2, 0.0, 0.2, 0.2, 0.2, 0.2, 0.2, 0.2, 0.5, 0.42857142857142855, 0.13157894736842105, 0.0, 0.0, 0.2, 0.2, 0.2, 0.2, 0.2, 1.0, 0.0, 0.05263157894736842, 0.0, 0.2, 0.2, 0.2, 0.2, 0.2, 0.2, 0.2, 0.0, 0.0, 0.2, 0.2, 0.2, 0.2, 0.2, 0.2, 0.2, 0.0, 0.2, 0.0, 0.0, 0.2, 0.2, 0.2, 0.2, 0.2, 0.2, 0.2, 0.2, 0.2, 0.0, 0.2, 0.2, 0.2, 0.2, 0.2, 0.2, 0.25, 0.2, 0.2, 0.0, 0.2, 0.2, 0.2, 0.2, 0.2, 0.2, 0.0, 0.2, 0.2, 0.2, 0.2, 0.2, 0.2, 0.2, 0.2, 0.2, 0.0, 0.2, 0.2, 0.2, 0.2, 0.2, 0.2, 0.2, 0.2, 0.2, 0.0, 0.2, 0.2, 0.2, 0.2, 0.2, 0.2, 0.2, 0.2, 0.2, 0.0, 0.2, 0.2, 0.2, 0.2, 0.2, 0.2, 0.2, 0.2, 0.2, 0.2631578947368421, 1.0, 0.7142857142857143, 0.15217391304347827, 0.0, 0.0, 0.2, 0.2, 0.2, 0.2, 1.0, 1.0, 0.0, 0.0, 0.0, 0.0, 0.2, 0.2, 0.2, 0.2, 0.2, 1.0, 0.2, 0.0, 0.0, 0.2, 0.2, 0.2, 0.2, 0.2, 0.5, 0.0, 0.0, 0.0, 0.0, 0.2, 0.2, 0.2, 0.2, 0.2, 0.2, 0.0, 0.2, 0.0, 0.2, 0.2, 0.2, 0.2, 0.2, 0.2, 0.0, 0.2, 0.2, 0.2, 0.2, 0.2, 0.2, 0.2, 0.2, 0.2, 0.0, 0.2, 0.2, 0.2, 0.2, 0.2, 0.2, 0.2, 0.0, 0.2, 0.0, 0.2, 0.2, 0.2, 0.2, 0.2, 0.2, 0.2, 0.2, 0.2, 0.0, 0.2, 0.0, 0.2, 0.0, 0.2, 0.2, 0.2, 0.2, 0.2, 0.2, 0.2, 0.2, 0.2, 0.2, 0.2, 0.2, 0.2, 0.2, 0.2, 0.4, 1.0, 1.0, 0.2631578947368421, 0.16279069767441862, 0.0, 0.0, 0.2, 0.2, 0.2, 0.2, 0.2, 0.2, 0.3333333333333333, 0.0, 0.0, 0.2, 0.2, 0.2, 0.2, 0.2, 0.2, 0.2, 0.0, 0.0, 0.0, 0.2, 0.2, 0.2, 0.2, 0.2, 0.0, 0.0, 0.0, 0.0, 0.2, 0.2, 0.2, 0.2, 0.2, 0.2, 0.2, 0.2, 0.0, 0.0, 0.2, 0.2, 0.2, 0.2, 0.2, 0.0, 0.0, 0.2, 0.2, 0.0, 0.2, 0.2, 0.2, 0.2, 0.0, 0.0, 0.0, 0.2, 0.2, 0.2, 0.2, 0.2, 0.2, 0.2, 0.2, 0.0, 0.2, 0.0, 0.0, 0.2, 0.2, 0.2, 0.2, 0.2, 0.2, 0.0, 0.0, 0.2, 0.2, 0.2, 0.2, 0.2, 0.2, 0.2, 0.2, 0.0, 0.2, 0.2, 1.0, 0.2, 0.0, 0.2, 0.2, 0.2, 0.2, 0.0, 0.2, 1.0, 1.0, 0.5555555555555556, 0.08620689655172414, 0.0, 0.0, 0.0, 0.2, 0.2, 0.2, 0.2, 0.2, 0.0, 0.0, 0.0, 0.2, 0.2, 0.2, 0.2, 0.2, 0.2, 0.2, 0.2, 0.0, 0.0, 0.0, 0.2, 0.2, 0.2, 0.2, 0.2, 0.2, 0.0, 0.0, 0.0, 0.2, 0.2, 0.2, 0.2, 0.2, 0.2, 0.2, 0.2, 0.0, 0.2, 0.2, 0.2, 0.2, 0.2, 0.0, 0.0, 0.0, 0.2, 0.2, 0.2, 0.2, 0.2, 0.2, 0.0, 0.0, 0.0, 0.0, 0.0, 0.2, 0.2, 0.2, 0.2, 0.2, 0.0, 0.0, 0.0, 0.2, 0.2, 0.2, 0.2, 0.2, 0.2, 0.2, 0.2, 0.2, 0.0, 0.0, 0.2, 0.2, 0.2, 0.2, 0.2, 0.2, 0.0, 0.2, 0.2, 0.2, 0.2, 0.2, 0.0, 0.2, 0.2, 0.2, 0.0, 0.2, 1.0, 1.0, 1.0, 0.6666666666666666, 0.11428571428571428, 0.0, 0.0, 0.0, 0.2, 0.2, 0.2, 0.2, 0.2, 0.0, 0.0, 0.0, 0.2, 0.2, 0.2, 0.2, 0.2, 0.2, 0.2, 0.0, 0.0, 0.0, 0.2, 0.2, 0.2, 0.2, 0.2, 0.2, 0.2, 0.0, 0.0, 0.0, 0.2, 0.2, 0.2, 0.2, 0.2, 0.2, 0.2, 0.2, 0.0, 0.0, 0.2, 0.2, 0.2, 0.2, 0.2, 0.0, 0.2, 0.0, 0.2, 0.2, 0.2, 0.2, 0.0, 0.2, 0.2, 0.2, 0.0, 0.2, 0.0, 0.2, 0.2, 0.2, 0.2, 0.0, 0.0, 0.2, 0.0, 0.2, 0.2, 0.2, 0.2, 0.2, 0.2, 0.2, 0.0, 0.0, 0.0, 0.2, 0.2, 0.2, 0.2, 0.2, 0.0, 1.0, 0.2, 0.2, 0.2, 0.2, 0.2, 0.2, 0.2, 0.2, 0.0, 0.2, 0.2, 0.2, 0.2, 1.0, 0.0, 0.06097560975609756, 0.0, 0.0, 0.0, 0.2, 0.2, 0.2, 0.2, 0.2, 0.0, 0.0, 0.0, 0.2, 0.2, 0.2, 0.2, 0.2, 0.2, 0.2, 0.0, 0.0, 0.0, 0.2, 0.2, 0.2, 0.2, 0.2, 0.2, 0.2, 0.2, 0.0, 0.0, 0.2, 0.2, 0.2, 0.2, 0.2, 0.2, 0.2, 0.2, 0.0, 0.0, 0.2, 0.2, 0.2, 0.2, 0.2, 0.0, 0.0, 0.2, 0.0, 0.2, 0.2, 0.2, 0.2, 0.2, 0.2, 0.2, 0.2, 0.0, 0.2, 0.2, 0.2, 0.2, 0.2, 0.2, 0.0, 0.0, 0.2, 0.2, 0.0, 0.2, 0.2, 0.2, 0.2, 0.0, 0.0, 0.2, 0.2, 0.0, 0.0, 0.2, 0.2, 1.0, 0.2, 0.2, 0.2, 1.0, 0.2, 0.2, 0.0, 0.2, 0.2, 0.0, 0.2, 0.2, 0.2, 1.0, 1.0, 0.2, 0.0, 0.08943089430894309, 0.0, 0.2, 0.2, 0.2, 0.2, 1.0, 0.2, 0.2, 0.0, 0.0, 0.0, 0.2, 0.2, 0.2, 0.2, 0.2, 0.2, 0.2, 0.0, 0.0, 0.0, 0.2, 0.2, 0.2, 0.2, 0.2, 0.2, 0.2, 0.2, 0.0, 0.0, 0.2, 0.2, 0.2, 0.2, 0.2, 0.2, 0.2, 0.0, 0.0, 0.0, 0.2, 0.2, 0.2, 0.2, 0.2, 0.0, 0.2, 0.0, 0.0, 0.2, 0.2, 0.2, 0.2, 0.2, 0.2, 0.2, 0.2, 0.0, 0.0, 0.2, 0.2, 0.2, 0.2, 0.2, 0.2, 0.2, 0.2, 0.2, 0.2, 0.2, 0.2, 0.2, 0.2, 0.2, 0.2, 0.2, 0.2, 0.0, 0.0, 0.2, 0.0, 0.2, 0.2, 0.2, 0.2, 0.2, 0.2, 0.2, 0.0, 0.0, 0.0, 0.2, 0.2, 0.2, 0.2, 0.0, 0.0, 0.2, 0.0, 0.058823529411764705, 0.2, 0.2, 0.2, 0.2, 0.2, 0.2, 0.2, 0.2, 0.0, 0.0, 0.2, 0.2, 0.2, 0.2, 0.2, 0.2, 0.2, 0.2, 0.0, 0.0, 0.2, 0.2, 0.2, 0.2, 0.2, 0.2, 0.2, 0.2, 0.2, 0.25, 0.0, 0.2, 0.2, 0.2, 0.2, 0.2, 0.2, 0.2, 0.2, 0.2, 0.2, 0.2, 0.2, 0.2, 0.2, 0.2, 0.2, 0.2, 0.2, 0.0, 0.2, 0.2, 0.2, 0.2, 0.2, 0.2, 0.2, 0.2, 0.2, 0.2, 0.2, 0.2, 0.2, 0.2, 0.2, 0.2, 0.0, 0.2, 0.2, 0.2, 0.0, 0.2, 0.2, 0.2, 0.2, 0.2, 0.2, 0.0, 0.2, 0.2, 0.0, 1.0, 0.2, 0.2, 0.2, 0.2, 0.2, 0.0, 0.2, 0.0, 0.041301820999612555, 0.4201954397394137, 0.5432098765432098, 0.4392523364485981, 0.546875, 0.575, 0.5, 0.9615384615384616, 0.8461538461538461, 0.8181818181818182, 0.0, 0.0, 0.0, 0.2, 0.2, 0.2, 0.2, 0.2, 0.0, 0.2, 0.0, 0.0, 0.2, 0.2, 0.2, 0.2, 0.2, 0.2, 0.2, 0.2, 0.03, 0.0, 0.2, 0.2, 0.2, 0.2, 0.2, 0.2, 0.2, 0.2, 0.0, 0.2, 0.2, 0.2, 0.0, 0.2, 0.2, 0.2, 0.2, 0.2, 0.038461538461538464, 0.2, 0.2, 0.2, 0.2, 0.2, 0.2, 0.2, 0.2, 0.2, 0.08333333333333333, 0.2, 0.2, 0.2, 0.2, 0.2, 0.2, 0.2, 0.2, 0.2, 0.0, 0.2, 0.2, 0.2, 0.2, 0.2, 0.2, 0.2, 0.2, 0.2, 0.0, 0.2, 0.2, 0.2, 0.2, 0.2, 0.2, 0.2, 0.2, 0.2, 0.03225806451612903, 1.0, 0.2, 0.2, 0.2, 0.2, 0.2, 0.2, 0.2, 0.2, 0.047619047619047616, 0.13253012048192772, 0.8888888888888888, 0.0, 0.0, 0.0, 0.0, 0.0, 0.0, 0.0, 0.0, 0.0, 0.2, 0.2, 0.0, 0.2, 0.2, 0.2, 0.2, 0.2, 0.0, 0.0, 0.2, 0.2, 0.2, 0.2, 0.2, 0.2, 0.2, 0.2, 0.5333333333333333, 0.0, 0.2, 0.2, 0.2, 0.0, 0.2, 0.2, 0.2, 0.2, 0.0, 0.0, 0.2, 0.2, 0.2, 0.2, 0.2, 0.2, 0.2, 0.2, 0.2, 0.0, 0.2, 0.2, 0.0, 0.2, 0.2, 0.2, 0.2, 0.2, 1.0, 0.0, 0.2, 0.2, 0.2, 0.2, 0.2, 0.2, 0.2, 0.2, 0.2, 0.2, 1.0, 0.2, 0.2, 0.2, 0.2, 0.2, 0.2, 0.2, 1.0, 0.2, 0.2, 0.2, 0.2, 0.2, 0.2, 0.2, 0.2, 0.2, 0.0, 0.2, 0.2, 0.0, 0.2, 0.2, 0.2, 0.2, 0.2, 0.2, 0.25, 0.14285714285714285, 0.14473684210526316, 0.8695652173913043, 1.0, 0.2, 0.2, 0.2, 0.2, 0.2, 0.0, 0.0, 0.0, 0.0, 0.2, 0.2, 0.2, 0.2, 0.2, 0.2, 0.2, 0.0, 0.0, 0.2, 0.2, 0.2, 0.2, 0.2, 0.2, 0.2, 0.16666666666666666, 0.2, 0.16666666666666666, 1.0, 0.2, 0.2, 0.2, 0.2, 0.2, 0.2, 0.2, 0.2, 0.2, 0.0, 0.2, 0.2, 0.2, 0.2, 0.2, 0.2, 0.25, 0.2, 0.2, 0.0, 0.2, 0.2, 0.2, 0.2, 0.2, 0.2, 1.0, 0.2, 0.2, 0.2, 0.2, 0.2, 0.2, 0.2, 0.2, 0.2, 1.0, 0.2, 0.2, 0.2, 0.2, 0.2, 0.2, 0.2, 0.2, 0.2, 1.0, 0.2, 0.2, 0.2, 0.2, 0.2, 0.2, 0.2, 0.2, 0.2, 1.0, 0.2, 0.2, 0.2, 0.2, 0.2, 0.2, 0.2, 0.2, 0.2, 0.631578947368421, 0.0, 0.0, 0.021739130434782608, 0.391304347826087, 1.0, 0.2, 0.2, 0.2, 0.2, 0.0, 0.0, 0.0, 0.0, 0.0, 0.0, 0.2, 0.2, 0.2, 0.2, 0.2, 0.0, 0.2, 0.0, 0.0, 0.2, 0.2, 0.2, 0.2, 0.2, 0.0, 1.0, 1.0, 0.0, 0.3333333333333333, 0.2, 0.2, 0.2, 0.2, 0.2, 0.2, 1.0, 0.2, 0.0, 0.2, 0.2, 0.2, 0.2, 0.2, 0.2, 0.5, 0.2, 0.2, 0.2, 0.2, 0.2, 0.2, 0.2, 0.2, 0.2, 0.5, 0.2, 0.2, 0.2, 0.2, 0.2, 0.2, 0.2, 0.0, 0.2, 0.8, 0.2, 0.2, 0.2, 0.2, 0.2, 0.2, 0.2, 0.2, 0.2, 1.0, 0.2, 1.0, 0.2, 1.0, 0.2, 0.2, 0.2, 0.2, 0.2, 0.2, 0.2, 0.2, 0.2, 0.2, 0.2, 0.2, 0.2, 0.2, 0.2, 0.0, 0.0, 0.0, 0.10526315789473684, 0.023255813953488372, 0.5, 1.0, 0.2, 0.2, 0.2, 0.2, 0.2, 0.2, 0.0, 0.0, 0.0, 0.2, 0.2, 0.2, 0.2, 0.2, 0.2, 0.2, 0.0, 0.0, 0.0, 0.2, 0.2, 0.2, 0.2, 0.2, 1.0, 1.0, 0.5, 0.0, 0.2, 0.2, 0.2, 0.2, 0.2, 0.2, 0.2, 0.2, 1.0, 0.0, 0.2, 0.2, 0.2, 0.2, 0.2, 0.6666666666666666, 1.0, 0.2, 0.2, 0.0, 0.2, 0.2, 0.2, 0.2, 0.0, 1.0, 1.0, 0.2, 0.2, 0.2, 0.2, 0.2, 0.2, 0.2, 0.2, 0.8571428571428571, 0.2, 1.0, 1.0, 0.2, 0.2, 0.2, 0.2, 0.2, 0.2, 0.0, 1.0, 0.2, 0.2, 0.2, 0.2, 0.2, 0.2, 0.2, 0.2, 1.0, 0.2, 0.2, 0.0, 0.2, 1.0, 0.2, 0.2, 0.2, 0.2, 1.0, 0.2, 0.0, 0.0, 0.0, 0.0, 0.0625, 0.75, 1.0, 0.2, 0.2, 0.2, 0.2, 0.2, 0.0, 0.0, 0.0, 0.2, 0.2, 0.2, 0.2, 0.2, 0.2, 0.2, 0.2, 0.0, 0.0, 1.0, 0.2, 0.2, 0.2, 0.2, 0.2, 0.2, 0.5, 0.0, 0.0, 0.2, 0.2, 0.2, 0.2, 0.2, 0.2, 0.2, 0.2, 0.0, 0.2, 0.2, 0.2, 0.2, 0.2, 1.0, 1.0, 1.0, 0.2, 0.2, 0.2, 0.2, 0.2, 0.2, 0.5, 1.0, 1.0, 1.0, 1.0, 0.2, 0.2, 0.2, 0.2, 0.2, 1.0, 1.0, 1.0, 0.2, 0.2, 0.2, 0.2, 0.2, 0.2, 0.2, 0.2, 0.2, 1.0, 1.0, 0.2, 0.2, 0.2, 0.2, 0.2, 0.2, 1.0, 0.2, 0.2, 0.2, 0.2, 0.2, 0.0, 0.2, 0.2, 0.2, 1.0, 0.2, 0.0, 0.0, 0.0, 0.0, 0.01904761904761905, 0.0625, 1.0, 0.9230769230769231, 0.2, 0.2, 0.2, 0.2, 0.2, 0.0, 0.0, 0.0, 0.2, 0.2, 0.2, 0.2, 0.2, 0.2, 0.2, 0.0, 0.0, 0.0, 0.2, 0.2, 0.2, 0.2, 0.2, 0.2, 0.2, 1.0, 0.0, 0.0, 0.2, 0.2, 0.2, 0.2, 0.2, 0.2, 0.2, 0.2, 0.0, 0.0, 0.2, 0.2, 0.2, 0.2, 0.2, 1.0, 0.2, 1.0, 0.2, 0.2, 0.2, 0.2, 0.0, 0.2, 0.2, 0.2, 1.0, 0.2, 0.0, 0.2, 0.2, 0.2, 0.2, 1.0, 1.0, 0.2, 0.0, 0.2, 0.2, 0.2, 0.2, 0.2, 0.2, 0.2, 1.0, 1.0, 1.0, 0.2, 0.2, 0.2, 0.2, 0.2, 1.0, 0.0, 0.2, 0.2, 0.2, 0.2, 0.2, 0.2, 0.2, 0.2, 1.0, 0.2, 0.2, 0.2, 0.2, 0.0, 0.0, 0.024390243902439025, 0.0, 0.5, 0.0, 0.2, 0.2, 0.2, 0.2, 0.2, 0.0, 0.0, 0.0, 0.2, 0.2, 0.2, 0.2, 0.2, 0.2, 0.2, 0.0, 0.0, 0.0, 0.2, 0.2, 0.2, 0.2, 0.2, 0.2, 0.2, 0.2, 0.0, 0.2, 0.2, 0.2, 0.2, 0.2, 0.2, 0.2, 0.2, 0.2, 0.0, 1.0, 0.2, 0.2, 0.2, 0.2, 0.2, 1.0, 1.0, 0.2, 0.0, 0.2, 0.2, 0.2, 0.2, 0.2, 0.2, 0.2, 0.2, 1.0, 0.2, 0.2, 0.2, 0.2, 0.2, 0.2, 1.0, 1.0, 0.2, 0.2, 1.0, 0.2, 0.2, 0.2, 0.2, 1.0, 1.0, 0.2, 0.2, 1.0, 0.0, 0.2, 0.2, 0.0, 0.2, 0.2, 0.2, 0.0, 0.2, 0.2, 0.0, 0.2, 0.2, 0.75, 0.2, 0.2, 0.2, 0.0, 0.0, 0.2, 0.0, 0.0, 0.06896551724137931, 0.2, 0.2, 0.2, 0.2, 0.0, 0.2, 0.2, 0.0, 0.0, 0.0, 0.2, 0.2, 0.2, 0.2, 0.2, 0.2, 0.2, 0.0, 0.0, 0.0, 0.2, 0.2, 0.2, 0.2, 0.2, 0.2, 0.2, 0.2, 0.0, 0.0, 0.2, 0.2, 0.2, 0.2, 0.2, 0.2, 0.2, 0.0, 0.0, 0.0, 0.2, 0.2, 0.2, 0.2, 0.2, 1.0, 0.2, 1.0, 0.0, 0.2, 0.2, 0.2, 0.2, 0.2, 0.2, 0.2, 0.2, 1.0, 0.0, 0.2, 0.2, 0.2, 0.2, 0.2, 0.2, 0.2, 0.2, 0.2, 0.2, 0.2, 0.2, 0.2, 0.2, 0.2, 0.2, 0.2, 0.2, 1.0, 0.0, 0.2, 0.0, 0.2, 0.2, 0.2, 0.2, 0.2, 0.2, 0.2, 0.0, 0.0, 0.0, 0.2, 0.2, 0.2, 0.2, 0.0, 1.0, 0.2, 0.0, 0.029411764705882353, 0.2, 0.2, 0.2, 0.2, 0.2, 0.2, 0.2, 0.2, 0.0, 0.0, 0.2, 0.2, 0.2, 0.2, 0.2, 0.2, 0.2, 0.2, 0.0, 0.0, 0.2, 0.2, 0.2, 0.2, 0.2, 0.2, 0.2, 0.2, 0.2, 0.0, 0.0, 0.2, 0.2, 0.2, 0.2, 0.2, 0.2, 0.2, 0.2, 0.2, 0.2, 0.2, 0.2, 0.2, 0.2, 0.2, 0.2, 0.2, 0.2, 0.0, 0.2, 0.2, 0.2, 0.2, 0.2, 0.2, 0.2, 0.2, 0.2, 0.2, 0.2, 0.2, 0.2, 0.2, 0.2, 0.2, 1.0, 0.2, 0.2, 0.2, 0.0, 0.2, 0.2, 0.2, 0.2, 0.2, 0.2, 1.0, 0.2, 0.2, 0.5, 0.0, 0.2, 0.2, 0.2, 0.2, 0.2, 1.0, 0.2, 0.0, 0.18341728012398295, 0.254071661237785, 0.12962962962962962, 0.07476635514018691, 0.03125, 0.05, 0.0, 0.0, 0.07692307692307693, 0.0, 0.46835443037974683, 0.0, 0.0, 0.2, 0.2, 0.2, 0.2, 0.2, 0.0, 0.2, 0.3854166666666667, 1.0, 0.2, 0.2, 0.2, 0.2, 0.2, 0.2, 0.2, 0.2, 0.12, 0.0, 0.2, 0.2, 0.2, 0.2, 0.2, 0.2, 0.2, 0.2, 0.04938271604938271, 0.2, 0.2, 0.2, 0.0, 0.2, 0.2, 0.2, 0.2, 0.2, 0.038461538461538464, 0.2, 0.2, 0.2, 0.2, 0.2, 0.2, 0.2, 0.2, 0.2, 0.0, 0.2, 0.2, 0.2, 0.2, 0.2, 0.2, 0.2, 0.2, 0.2, 0.13333333333333333, 0.2, 0.2, 0.2, 0.2, 0.2, 0.2, 0.2, 0.2, 0.2, 0.5333333333333333, 0.2, 0.2, 0.2, 0.2, 0.2, 0.2, 0.2, 0.2, 0.2, 0.6451612903225806, 0.0, 0.2, 0.2, 0.2, 0.2, 0.2, 0.2, 0.2, 0.2, 0.6507936507936508, 0.6506024096385542, 0.1111111111111111, 0.0, 1.0, 0.14285714285714285, 0.043478260869565216, 0.0, 0.1, 0.18181818181818182, 0.0, 0.875, 0.2, 0.2, 0.0, 0.2, 0.2, 0.2, 0.2, 0.2, 0.0, 0.75, 0.2, 0.2, 0.2, 0.2, 0.2, 0.2, 0.2, 0.2, 0.0, 0.0, 0.2, 0.2, 0.2, 0.0, 0.2, 0.2, 0.2, 0.2, 0.0, 0.0, 0.2, 0.2, 0.2, 0.2, 0.2, 0.2, 0.2, 0.2, 0.2, 0.0, 0.2, 0.2, 0.0, 0.2, 0.2, 0.2, 0.2, 0.2, 0.0, 0.0, 0.2, 0.2, 0.2, 0.2, 0.2, 0.2, 0.2, 0.2, 0.2, 0.2, 0.0, 0.2, 0.2, 0.2, 0.2, 0.2, 0.2, 0.2, 0.0, 0.2, 0.2, 0.2, 0.2, 0.2, 0.2, 0.2, 0.2, 0.2, 1.0, 0.2, 0.2, 1.0, 0.2, 0.2, 0.2, 0.2, 0.2, 0.2, 0.08333333333333333, 0.42857142857142855, 0.7236842105263158, 0.043478260869565216, 0.0, 0.2, 0.2, 0.2, 0.2, 0.2, 0.0, 1.0, 0.9473684210526315, 1.0, 0.2, 0.2, 0.2, 0.2, 0.2, 0.2, 0.2, 1.0, 1.0, 0.2, 0.2, 0.2, 0.2, 0.2, 0.2, 0.2, 0.0, 0.2, 0.8333333333333334, 0.0, 0.2, 0.2, 0.2, 0.2, 0.2, 0.2, 0.2, 0.2, 0.2, 1.0, 0.2, 0.2, 0.2, 0.2, 0.2, 0.2, 0.0, 0.2, 0.2, 0.0, 0.2, 0.2, 0.2, 0.2, 0.2, 0.2, 0.0, 0.2, 0.2, 0.2, 0.2, 0.2, 0.2, 0.2, 0.2, 0.2, 0.0, 0.2, 0.2, 0.2, 0.2, 0.2, 0.2, 0.2, 0.2, 0.2, 0.0, 0.2, 0.2, 0.2, 0.2, 0.2, 0.2, 0.2, 0.2, 0.2, 0.0, 0.2, 0.2, 0.2, 0.2, 0.2, 0.2, 0.2, 0.2, 0.2, 0.0, 0.0, 0.2857142857142857, 0.8260869565217391, 0.2608695652173913, 0.0, 0.2, 0.2, 0.2, 0.2, 0.0, 0.0, 1.0, 1.0, 1.0, 0.0, 0.2, 0.2, 0.2, 0.2, 0.2, 0.0, 0.2, 1.0, 1.0, 0.2, 0.2, 0.2, 0.2, 0.2, 0.0, 0.0, 0.0, 1.0, 0.6666666666666666, 0.2, 0.2, 0.2, 0.2, 0.2, 0.2, 0.0, 0.2, 1.0, 0.2, 0.2, 0.2, 0.2, 0.2, 0.2, 0.0, 0.2, 0.2, 0.2, 0.2, 0.2, 0.2, 0.2, 0.2, 0.2, 0.0, 0.2, 0.2, 0.2, 0.2, 0.2, 0.2, 0.2, 0.0, 0.2, 0.0, 0.2, 0.2, 0.2, 0.2, 0.2, 0.2, 0.2, 0.2, 0.2, 0.0, 0.2, 0.0, 0.2, 0.0, 0.2, 0.2, 0.2, 0.2, 0.2, 0.2, 0.2, 0.2, 0.2, 0.2, 0.2, 0.2, 0.2, 0.2, 0.2, 0.0, 0.0, 0.0, 0.631578947368421, 0.813953488372093, 0.4375, 0.0, 0.2, 0.2, 0.2, 0.2, 0.2, 0.2, 0.6666666666666666, 1.0, 1.0, 0.2, 0.2, 0.2, 0.2, 0.2, 0.2, 0.2, 1.0, 1.0, 1.0, 0.2, 0.2, 0.2, 0.2, 0.2, 0.0, 0.0, 0.5, 1.0, 0.2, 0.2, 0.2, 0.2, 0.2, 0.2, 0.2, 0.2, 0.0, 1.0, 0.2, 0.2, 0.2, 0.2, 0.2, 0.0, 0.0, 0.2, 0.2, 1.0, 0.2, 0.2, 0.2, 0.2, 0.0, 0.0, 0.0, 0.2, 0.2, 0.2, 0.2, 0.2, 0.2, 0.2, 0.2, 0.0, 0.2, 0.0, 0.0, 0.2, 0.2, 0.2, 0.2, 0.2, 0.2, 0.0, 0.0, 0.2, 0.2, 0.2, 0.2, 0.2, 0.2, 0.2, 0.2, 0.0, 0.2, 0.2, 0.0, 0.2, 0.0, 0.2, 0.2, 0.2, 0.2, 0.0, 0.2, 0.0, 0.0, 0.4444444444444444, 0.9137931034482759, 0.875, 0.0, 0.0, 0.2, 0.2, 0.2, 0.2, 0.2, 1.0, 1.0, 1.0, 0.2, 0.2, 0.2, 0.2, 0.2, 0.2, 0.2, 0.2, 1.0, 1.0, 0.0, 0.2, 0.2, 0.2, 0.2, 0.2, 0.2, 0.5, 1.0, 1.0, 0.2, 0.2, 0.2, 0.2, 0.2, 0.2, 0.2, 0.2, 1.0, 0.2, 0.2, 0.2, 0.2, 0.2, 0.0, 0.0, 0.0, 0.2, 0.2, 0.2, 0.2, 0.2, 0.2, 0.0, 0.0, 0.0, 0.0, 0.0, 0.2, 0.2, 0.2, 0.2, 0.2, 0.0, 0.0, 0.0, 0.2, 0.2, 0.2, 0.2, 0.2, 0.2, 0.2, 0.2, 0.2, 0.0, 0.0, 0.2, 0.2, 0.2, 0.2, 0.2, 0.2, 0.0, 0.2, 0.2, 0.2, 0.2, 0.2, 0.0, 0.2, 0.2, 0.2, 0.0, 0.2, 0.0, 0.0, 0.0, 0.3333333333333333, 0.8666666666666667, 0.9375, 0.0, 0.0, 0.2, 0.2, 0.2, 0.2, 0.2, 1.0, 1.0, 1.0, 0.2, 0.2, 0.2, 0.2, 0.2, 0.2, 0.2, 1.0, 1.0, 1.0, 0.2, 0.2, 0.2, 0.2, 0.2, 0.2, 0.2, 0.0, 1.0, 1.0, 0.2, 0.2, 0.2, 0.2, 0.2, 0.2, 0.2, 0.2, 1.0, 1.0, 0.2, 0.2, 0.2, 0.2, 0.2, 0.0, 0.2, 0.0, 0.2, 0.2, 0.2, 0.2, 0.0, 0.2, 0.2, 0.2, 0.0, 0.2, 1.0, 0.2, 0.2, 0.2, 0.2, 0.0, 0.0, 0.2, 0.0, 0.2, 0.2, 0.2, 0.2, 0.2, 0.2, 0.2, 0.0, 0.0, 0.0, 0.2, 0.2, 0.2, 0.2, 0.2, 0.0, 0.0, 0.2, 0.2, 0.2, 0.2, 0.2, 0.2, 0.2, 0.2, 0.0, 0.2, 0.2, 0.2, 0.2, 0.0, 1.0, 0.9146341463414634, 1.0, 0.0, 0.0, 0.2, 0.2, 0.2, 0.2, 0.2, 1.0, 1.0, 1.0, 0.2, 0.2, 0.2, 0.2, 0.2, 0.2, 0.2, 1.0, 1.0, 1.0, 0.2, 0.2, 0.2, 0.2, 0.2, 0.2, 0.2, 0.2, 1.0, 0.8, 0.2, 0.2, 0.2, 0.2, 0.2, 0.2, 0.2, 0.2, 1.0, 0.0, 0.2, 0.2, 0.2, 0.2, 0.2, 0.0, 0.0, 0.2, 1.0, 0.2, 0.2, 0.2, 0.2, 0.2, 0.2, 0.2, 0.2, 0.0, 0.2, 0.2, 0.2, 0.2, 0.2, 0.2, 0.0, 0.0, 0.2, 0.2, 0.0, 0.2, 0.2, 0.2, 0.2, 0.0, 0.0, 0.2, 0.2, 0.0, 0.0, 0.2, 0.2, 0.0, 0.2, 0.2, 0.2, 0.0, 0.2, 0.2, 1.0, 0.2, 0.2, 0.0, 0.2, 0.2, 0.2, 0.0, 0.0, 0.2, 1.0, 0.9105691056910569, 0.9310344827586207, 0.2, 0.2, 0.2, 0.2, 0.0, 0.2, 0.2, 1.0, 1.0, 1.0, 0.2, 0.2, 0.2, 0.2, 0.2, 0.2, 0.2, 1.0, 1.0, 1.0, 0.2, 0.2, 0.2, 0.2, 0.2, 0.2, 0.2, 0.2, 1.0, 0.6666666666666666, 0.2, 0.2, 0.2, 0.2, 0.2, 0.2, 0.2, 1.0, 1.0, 1.0, 0.2, 0.2, 0.2, 0.2, 0.2, 0.0, 0.2, 0.0, 1.0, 0.2, 0.2, 0.2, 0.2, 0.2, 0.2, 0.2, 0.2, 0.0, 1.0, 0.2, 0.2, 0.2, 0.2, 0.2, 0.2, 0.2, 0.2, 0.2, 0.2, 0.2, 0.2, 0.2, 0.2, 0.2, 0.2, 0.2, 0.2, 0.0, 1.0, 0.2, 0.0, 0.2, 0.2, 0.2, 0.2, 0.2, 0.2, 0.2, 1.0, 0.6666666666666666, 0.0, 0.2, 0.2, 0.2, 0.2, 1.0, 0.0, 0.2, 1.0, 0.8823529411764706, 0.2, 0.2, 0.2, 0.2, 0.2, 0.2, 0.2, 0.2, 1.0, 1.0, 0.2, 0.2, 0.2, 0.2, 0.2, 0.2, 0.2, 0.2, 1.0, 1.0, 0.2, 0.2, 0.2, 0.2, 0.2, 0.2, 0.2, 0.2, 0.2, 0.75, 0.0, 0.2, 0.2, 0.2, 0.2, 0.2, 0.2, 0.2, 0.2, 0.2, 0.2, 0.2, 0.2, 0.2, 0.2, 0.2, 0.2, 0.2, 0.2, 1.0, 0.2, 0.2, 0.2, 0.2, 0.2, 0.2, 0.2, 0.2, 0.2, 0.2, 0.2, 0.2, 0.2, 0.2, 0.2, 0.2, 0.0, 0.2, 0.2, 0.2, 0.0, 0.2, 0.2, 0.2, 0.2, 0.2, 0.2, 0.0, 0.2, 0.2, 0.0, 0.0, 0.2, 0.2, 0.2, 0.2, 0.2, 0.0, 0.2, 0.5, 0.34110809763657496, 0.04234527687296417, 0.030864197530864196, 0.037383177570093455, 0.046875, 0.075, 0.3888888888888889, 0.0, 0.0, 0.0, 0.13291139240506328, 1.0, 0.0, 0.2, 0.2, 0.2, 0.2, 0.2, 0.0, 0.2, 0.4479166666666667, 0.0, 0.2, 0.2, 0.2, 0.2, 0.2, 0.2, 0.2, 0.2, 0.67, 0.6666666666666666, 0.2, 0.2, 0.2, 0.2, 0.2, 0.2, 0.2, 0.2, 0.6790123456790124, 0.2, 0.2, 0.2, 0.0, 0.2, 0.2, 0.2, 0.2, 0.2, 0.7307692307692307, 0.2, 0.2, 0.2, 0.2, 0.2, 0.2, 0.2, 0.2, 0.2, 0.4166666666666667, 0.2, 0.2, 0.2, 0.2, 0.2, 0.2, 0.2, 0.2, 0.2, 0.26666666666666666, 0.2, 0.2, 0.2, 0.2, 0.2, 0.2, 0.2, 0.2, 0.2, 0.06666666666666667, 0.2, 0.2, 0.2, 0.2, 0.2, 0.2, 0.2, 0.2, 0.2, 0.03225806451612903, 0.0, 0.2, 0.2, 0.2, 0.2, 0.2, 0.2, 0.2, 0.2, 0.1111111111111111, 0.04819277108433735, 0.0, 0.0, 0.0, 0.14285714285714285, 0.0, 0.09090909090909091, 0.2, 0.09090909090909091, 0.0, 0.0, 0.2, 0.2, 1.0, 0.2, 0.2, 0.2, 0.2, 0.2, 0.3333333333333333, 0.25, 0.2, 0.2, 0.2, 0.2, 0.2, 0.2, 0.2, 0.2, 0.4666666666666667, 0.0, 0.2, 0.2, 0.2, 1.0, 0.2, 0.2, 0.2, 0.2, 0.8, 0.0, 0.2, 0.2, 0.2, 0.2, 0.2, 0.2, 0.2, 0.2, 0.2, 0.5, 0.2, 0.2, 1.0, 0.2, 0.2, 0.2, 0.2, 0.2, 0.0, 0.0, 0.2, 0.2, 0.2, 0.2, 0.2, 0.2, 0.2, 0.2, 0.2, 0.2, 0.0, 0.2, 0.2, 0.2, 0.2, 0.2, 0.2, 0.2, 0.0, 0.2, 0.2, 0.2, 0.2, 0.2, 0.2, 0.2, 0.2, 0.2, 0.0, 0.2, 0.2, 0.0, 0.2, 0.2, 0.2, 0.2, 0.2, 0.2, 0.16666666666666666, 0.0, 0.0, 0.043478260869565216, 0.0, 0.2, 0.2, 0.2, 0.2, 0.2, 0.0, 0.0, 0.0, 0.0, 0.2, 0.2, 0.2, 0.2, 0.2, 0.2, 0.2, 0.0, 0.0, 0.2, 0.2, 0.2, 0.2, 0.2, 0.2, 0.2, 0.6666666666666666, 0.2, 0.0, 0.0, 0.2, 0.2, 0.2, 0.2, 0.2, 0.2, 0.2, 0.2, 0.2, 0.0, 0.2, 0.2, 0.2, 0.2, 0.2, 0.2, 0.5, 0.2, 0.2, 1.0, 0.2, 0.2, 0.2, 0.2, 0.2, 0.2, 0.0, 0.2, 0.2, 0.2, 0.2, 0.2, 0.2, 0.2, 0.2, 0.2, 0.0, 0.2, 0.2, 0.2, 0.2, 0.2, 0.2, 0.2, 0.2, 0.2, 0.0, 0.2, 0.2, 0.2, 0.2, 0.2, 0.2, 0.2, 0.2, 0.2, 0.0, 0.2, 0.2, 0.2, 0.2, 0.2, 0.2, 0.2, 0.2, 0.2, 0.10526315789473684, 0.0, 0.0, 0.0, 0.17391304347826086, 0.0, 0.2, 0.2, 0.2, 0.2, 0.0, 0.0, 0.0, 0.0, 0.0, 1.0, 0.2, 0.2, 0.2, 0.2, 0.2, 0.0, 0.2, 0.0, 0.0, 0.2, 0.2, 0.2, 0.2, 0.2, 0.0, 0.0, 0.0, 0.0, 0.0, 0.2, 0.2, 0.2, 0.2, 0.2, 0.2, 0.0, 0.2, 0.0, 0.2, 0.2, 0.2, 0.2, 0.2, 0.2, 0.5, 0.2, 0.2, 0.2, 0.2, 0.2, 0.2, 0.2, 0.2, 0.2, 0.5, 0.2, 0.2, 0.2, 0.2, 0.2, 0.2, 0.2, 1.0, 0.2, 0.2, 0.2, 0.2, 0.2, 0.2, 0.2, 0.2, 0.2, 0.2, 0.2, 0.0, 0.2, 0.0, 0.2, 0.0, 0.2, 0.2, 0.2, 0.2, 0.2, 0.2, 0.2, 0.2, 0.2, 0.2, 0.2, 0.2, 0.2, 0.2, 0.2, 0.6, 0.0, 0.0, 0.0, 0.0, 0.0, 0.0, 0.2, 0.2, 0.2, 0.2, 0.2, 0.2, 0.0, 0.0, 0.0, 0.2, 0.2, 0.2, 0.2, 0.2, 0.2, 0.2, 0.0, 0.0, 0.0, 0.2, 0.2, 0.2, 0.2, 0.2, 0.0, 0.0, 0.0, 0.0, 0.2, 0.2, 0.2, 0.2, 0.2, 0.2, 0.2, 0.2, 0.0, 0.0, 0.2, 0.2, 0.2, 0.2, 0.2, 0.0, 0.0, 0.2, 0.2, 0.0, 0.2, 0.2, 0.2, 0.2, 1.0, 0.0, 0.0, 0.2, 0.2, 0.2, 0.2, 0.2, 0.2, 0.2, 0.2, 0.14285714285714285, 0.2, 0.0, 0.0, 0.2, 0.2, 0.2, 0.2, 0.2, 0.2, 1.0, 0.0, 0.2, 0.2, 0.2, 0.2, 0.2, 0.2, 0.2, 0.2, 0.0, 0.2, 0.2, 0.0, 0.2, 0.0, 0.2, 0.2, 0.2, 0.2, 0.0, 0.2, 0.0, 0.0, 0.0, 0.0, 0.0625, 0.20833333333333334, 0.0, 0.2, 0.2, 0.2, 0.2, 0.2, 0.0, 0.0, 0.0, 0.2, 0.2, 0.2, 0.2, 0.2, 0.2, 0.2, 0.2, 0.0, 0.0, 0.0, 0.2, 0.2, 0.2, 0.2, 0.2, 0.2, 0.0, 0.0, 0.0, 0.2, 0.2, 0.2, 0.2, 0.2, 0.2, 0.2, 0.2, 0.0, 0.2, 0.2, 0.2, 0.2, 0.2, 0.0, 0.0, 0.0, 0.2, 0.2, 0.2, 0.2, 0.2, 0.2, 0.5, 0.0, 0.0, 0.0, 0.0, 0.2, 0.2, 0.2, 0.2, 0.2, 0.0, 0.0, 0.0, 0.2, 0.2, 0.2, 0.2, 0.2, 0.2, 0.2, 0.2, 0.2, 0.0, 0.0, 0.2, 0.2, 0.2, 0.2, 0.2, 0.2, 0.0, 0.2, 0.2, 0.2, 0.2, 0.2, 1.0, 0.2, 0.2, 0.2, 0.0, 0.2, 0.0, 0.0, 0.0, 0.0, 0.0, 0.0, 0.0, 0.07692307692307693, 0.2, 0.2, 0.2, 0.2, 0.2, 0.0, 0.0, 0.0, 0.2, 0.2, 0.2, 0.2, 0.2, 0.2, 0.2, 0.0, 0.0, 0.0, 0.2, 0.2, 0.2, 0.2, 0.2, 0.2, 0.2, 0.0, 0.0, 0.0, 0.2, 0.2, 0.2, 0.2, 0.2, 0.2, 0.2, 0.2, 0.0, 0.0, 0.2, 0.2, 0.2, 0.2, 0.2, 0.0, 0.2, 0.0, 0.2, 0.2, 0.2, 0.2, 0.0, 0.2, 0.2, 0.2, 0.0, 0.2, 0.0, 0.2, 0.2, 0.2, 0.2, 0.0, 0.0, 0.2, 1.0, 0.2, 0.2, 0.2, 0.2, 0.2, 0.2, 0.2, 0.0, 0.0, 0.0, 0.2, 0.2, 0.2, 0.2, 0.2, 0.0, 0.0, 0.2, 0.2, 0.2, 0.2, 0.2, 0.2, 0.2, 0.2, 0.0, 0.2, 0.2, 0.2, 0.2, 0.0, 0.0, 0.0, 0.0, 0.5, 0.0, 0.2, 0.2, 0.2, 0.2, 0.2, 0.0, 0.0, 0.0, 0.2, 0.2, 0.2, 0.2, 0.2, 0.2, 0.2, 0.0, 0.0, 0.0, 0.2, 0.2, 0.2, 0.2, 0.2, 0.2, 0.2, 0.2, 0.0, 0.0, 0.2, 0.2, 0.2, 0.2, 0.2, 0.2, 0.2, 0.2, 0.0, 0.0, 0.2, 0.2, 0.2, 0.2, 0.2, 0.0, 0.0, 0.2, 0.0, 0.2, 0.2, 0.2, 0.2, 0.2, 0.2, 0.2, 0.2, 0.0, 0.2, 0.2, 0.2, 0.2, 0.2, 0.2, 0.0, 0.0, 0.2, 0.2, 0.0, 0.2, 0.2, 0.2, 0.2, 0.0, 0.0, 0.2, 0.2, 0.0, 1.0, 0.2, 0.2, 0.0, 0.2, 0.2, 0.2, 0.0, 0.2, 0.2, 0.0, 0.2, 0.2, 0.0, 0.2, 0.2, 0.2, 0.0, 0.0, 0.2, 0.0, 0.0, 0.0, 0.2, 0.2, 0.2, 0.2, 0.0, 0.2, 0.2, 0.0, 0.0, 0.0, 0.2, 0.2, 0.2, 0.2, 0.2, 0.2, 0.2, 0.0, 0.0, 0.0, 0.2, 0.2, 0.2, 0.2, 0.2, 0.2, 0.2, 0.2, 0.0, 0.3333333333333333, 0.2, 0.2, 0.2, 0.2, 0.2, 0.2, 0.2, 0.0, 0.0, 0.0, 0.2, 0.2, 0.2, 0.2, 0.2, 0.0, 0.2, 0.0, 0.0, 0.2, 0.2, 0.2, 0.2, 0.2, 0.2, 0.2, 0.2, 0.0, 0.0, 0.2, 0.2, 0.2, 0.2, 0.2, 0.2, 0.2, 0.2, 0.2, 0.2, 0.2, 0.2, 0.2, 0.2, 0.2, 0.2, 0.2, 0.2, 0.0, 0.0, 0.2, 0.0, 0.2, 0.2, 0.2, 0.2, 0.2, 0.2, 0.2, 0.0, 0.3333333333333333, 0.3333333333333333, 0.2, 0.2, 0.2, 0.2, 0.0, 0.0, 0.2, 0.0, 0.029411764705882353, 0.2, 0.2, 0.2, 0.2, 0.2, 0.2, 0.2, 0.2, 0.0, 0.0, 0.2, 0.2, 0.2, 0.2, 0.2, 0.2, 0.2, 0.2, 0.0, 0.0, 0.2, 0.2, 0.2, 0.2, 0.2, 0.2, 0.2, 0.2, 0.2, 0.0, 0.0, 0.2, 0.2, 0.2, 0.2, 0.2, 0.2, 0.2, 0.2, 0.2, 0.2, 0.2, 0.2, 0.2, 0.2, 0.2, 0.2, 0.2, 0.2, 0.0, 0.2, 0.2, 0.2, 0.2, 0.2, 0.2, 0.2, 0.2, 0.2, 0.2, 0.2, 0.2, 0.2, 0.2, 0.2, 0.2, 0.0, 0.2, 0.2, 0.2, 0.0, 0.2, 0.2, 0.2, 0.2, 0.2, 0.2, 0.0, 0.2, 0.2, 0.5, 0.0, 0.2, 0.2, 0.2, 0.2, 0.2, 0.0, 0.2, 0.0, 0.38620689655172413, 0.026058631921824105, 0.037037037037037035, 0.037383177570093455, 0.03125, 0.0, 0.1111111111111111, 0.038461538461538464, 0.07692307692307693, 0.18181818181818182, 0.0379746835443038, 0.0, 1.0, 0.2, 0.2, 0.2, 0.2, 0.2, 1.0, 0.2, 0.020833333333333332, 0.0, 0.2, 0.2, 0.2, 0.2, 0.2, 0.2, 0.2, 0.2, 0.01, 0.3333333333333333, 0.2, 0.2, 0.2, 0.2, 0.2, 0.2, 0.2, 0.2, 0.04938271604938271, 0.2, 0.2, 0.2, 1.0, 0.2, 0.2, 0.2, 0.2, 0.2, 0.038461538461538464, 0.2, 0.2, 0.2, 0.2, 0.2, 0.2, 0.2, 0.2, 0.2, 0.08333333333333333, 0.2, 0.2, 0.2, 0.2, 0.2, 0.2, 0.2, 0.2, 0.2, 0.06666666666666667, 0.2, 0.2, 0.2, 0.2, 0.2, 0.2, 0.2, 0.2, 0.2, 0.06666666666666667, 0.2, 0.2, 0.2, 0.2, 0.2, 0.2, 0.2, 0.2, 0.2, 0.0967741935483871, 0.0, 0.2, 0.2, 0.2, 0.2, 0.2, 0.2, 0.2, 0.2, 0.0, 0.0, 0.0, 0.0, 0.0, 0.0, 0.0, 0.0, 0.0, 0.0, 0.8571428571428571, 0.0, 0.2, 0.2, 0.0, 0.2, 0.2, 0.2, 0.2, 0.2, 0.6666666666666666, 0.0, 0.2, 0.2, 0.2, 0.2, 0.2, 0.2, 0.2, 0.2, 0.0, 0.0, 0.2, 0.2, 0.2, 0.0, 0.2, 0.2, 0.2, 0.2, 0.0, 0.0, 0.2, 0.2, 0.2, 0.2, 0.2, 0.2, 0.2, 0.2, 0.2, 0.0, 0.2, 0.2, 0.0, 0.2, 0.2, 0.2, 0.2, 0.2, 0.0, 0.0, 0.2, 0.2, 0.2, 0.2, 0.2, 0.2, 0.2, 0.2, 0.2, 0.2, 0.0, 0.2, 0.2, 0.2, 0.2, 0.2, 0.2, 0.2, 0.0, 0.2, 0.2, 0.2, 0.2, 0.2, 0.2, 0.2, 0.2, 0.2, 0.0, 0.2, 0.2, 0.0, 0.2, 0.2, 0.2, 0.2, 0.2, 0.2, 0.0, 0.0, 0.0, 0.043478260869565216, 0.0, 0.2, 0.2, 0.2, 0.2, 0.2, 0.0, 0.0, 0.0, 0.0, 0.2, 0.2, 0.2, 0.2, 0.2, 0.2, 0.2, 0.0, 0.0, 0.2, 0.2, 0.2, 0.2, 0.2, 0.2, 0.2, 0.16666666666666666, 0.2, 0.0, 0.0, 0.2, 0.2, 0.2, 0.2, 0.2, 0.2, 0.2, 0.2, 0.2, 0.0, 0.2, 0.2, 0.2, 0.2, 0.2, 0.2, 0.0, 0.2, 0.2, 0.0, 0.2, 0.2, 0.2, 0.2, 0.2, 0.2, 0.0, 0.2, 0.2, 0.2, 0.2, 0.2, 0.2, 0.2, 0.2, 0.2, 0.0, 0.2, 0.2, 0.2, 0.2, 0.2, 0.2, 0.2, 0.2, 0.2, 0.0, 0.2, 0.2, 0.2, 0.2, 0.2, 0.2, 0.2, 0.2, 0.2, 0.0, 0.2, 0.2, 0.2, 0.2, 0.2, 0.2, 0.2, 0.2, 0.2, 0.0, 0.0, 0.0, 0.0, 0.17391304347826086, 0.0, 0.2, 0.2, 0.2, 0.2, 0.0, 0.0, 0.0, 0.0, 0.0, 0.0, 0.2, 0.2, 0.2, 0.2, 0.2, 0.0, 0.2, 0.0, 0.0, 0.2, 0.2, 0.2, 0.2, 0.2, 0.5, 0.0, 0.0, 0.0, 0.0, 0.2, 0.2, 0.2, 0.2, 0.2, 0.2, 0.0, 0.2, 0.0, 0.2, 0.2, 0.2, 0.2, 0.2, 0.2, 0.0, 0.2, 0.2, 0.2, 0.2, 0.2, 0.2, 0.2, 0.2, 0.2, 0.0, 0.2, 0.2, 0.2, 0.2, 0.2, 0.2, 0.2, 0.0, 0.2, 0.0, 0.2, 0.2, 0.2, 0.2, 0.2, 0.2, 0.2, 0.2, 0.2, 0.0, 0.2, 0.0, 0.2, 0.0, 0.2, 0.2, 0.2, 0.2, 0.2, 0.2, 0.2, 0.2, 0.2, 0.2, 0.2, 0.2, 0.2, 0.2, 0.2, 0.0, 0.0, 0.0, 0.0, 0.0, 0.0625, 0.0, 0.2, 0.2, 0.2, 0.2, 0.2, 0.2, 0.0, 0.0, 0.0, 0.2, 0.2, 0.2, 0.2, 0.2, 0.2, 0.2, 0.0, 0.0, 0.0, 0.2, 0.2, 0.2, 0.2, 0.2, 0.0, 0.0, 0.0, 0.0, 0.2, 0.2, 0.2, 0.2, 0.2, 0.2, 0.2, 0.2, 0.0, 0.0, 0.2, 0.2, 0.2, 0.2, 0.2, 0.3333333333333333, 0.0, 0.2, 0.2, 0.0, 0.2, 0.2, 0.2, 0.2, 0.0, 0.0, 0.0, 0.2, 0.2, 0.2, 0.2, 0.2, 0.2, 0.2, 0.2, 0.0, 0.2, 0.0, 0.0, 0.2, 0.2, 0.2, 0.2, 0.2, 0.2, 0.0, 0.0, 0.2, 0.2, 0.2, 0.2, 0.2, 0.2, 0.2, 0.2, 0.0, 0.2, 0.2, 0.0, 0.2, 0.0, 0.2, 0.2, 0.2, 0.2, 0.0, 0.2, 0.0, 0.0, 0.0, 0.0, 0.0, 0.041666666666666664, 0.0, 0.2, 0.2, 0.2, 0.2, 0.2, 0.0, 0.0, 0.0, 0.2, 0.2, 0.2, 0.2, 0.2, 0.2, 0.2, 0.2, 0.0, 0.0, 0.0, 0.2, 0.2, 0.2, 0.2, 0.2, 0.2, 0.0, 0.0, 0.0, 0.2, 0.2, 0.2, 0.2, 0.2, 0.2, 0.2, 0.2, 0.0, 0.2, 0.2, 0.2, 0.2, 0.2, 0.0, 0.0, 0.0, 0.2, 0.2, 0.2, 0.2, 0.2, 0.2, 0.0, 0.0, 0.0, 0.0, 0.0, 0.2, 0.2, 0.2, 0.2, 0.2, 0.0, 0.0, 0.0, 0.2, 0.2, 0.2, 0.2, 0.2, 0.2, 0.2, 0.2, 0.2, 0.0, 0.0, 0.2, 0.2, 0.2, 0.2, 0.2, 0.2, 0.0, 0.2, 0.2, 0.2, 0.2, 0.2, 0.0, 0.2, 0.2, 0.2, 0.0, 0.2, 0.0, 0.0, 0.0, 0.0, 0.0, 0.0, 0.0, 0.0, 0.2, 0.2, 0.2, 0.2, 0.2, 0.0, 0.0, 0.0, 0.2, 0.2, 0.2, 0.2, 0.2, 0.2, 0.2, 0.0, 0.0, 0.0, 0.2, 0.2, 0.2, 0.2, 0.2, 0.2, 0.2, 0.0, 0.0, 0.0, 0.2, 0.2, 0.2, 0.2, 0.2, 0.2, 0.2, 0.2, 0.0, 0.0, 0.2, 0.2, 0.2, 0.2, 0.2, 0.0, 0.2, 0.0, 0.2, 0.2, 0.2, 0.2, 1.0, 0.2, 0.2, 0.2, 0.0, 0.2, 0.0, 0.2, 0.2, 0.2, 0.2, 0.0, 0.0, 0.2, 0.0, 0.2, 0.2, 0.2, 0.2, 0.2, 0.2, 0.2, 0.0, 0.0, 0.0, 0.2, 0.2, 0.2, 0.2, 0.2, 0.0, 0.0, 0.2, 0.2, 0.2, 0.2, 0.2, 0.2, 0.2, 0.2, 0.0, 0.2, 0.2, 0.2, 0.2, 0.0, 0.0, 0.0, 0.0, 0.0, 1.0, 0.2, 0.2, 0.2, 0.2, 0.2, 0.0, 0.0, 0.0, 0.2, 0.2, 0.2, 0.2, 0.2, 0.2, 0.2, 0.0, 0.0, 0.0, 0.2, 0.2, 0.2, 0.2, 0.2, 0.2, 0.2, 0.2, 0.0, 0.0, 0.2, 0.2, 0.2, 0.2, 0.2, 0.2, 0.2, 0.2, 0.0, 0.0, 0.2, 0.2, 0.2, 0.2, 0.2, 0.0, 0.0, 0.2, 0.0, 0.2, 0.2, 0.2, 0.2, 0.2, 0.2, 0.2, 0.2, 0.0, 0.2, 0.2, 0.2, 0.2, 0.2, 0.2, 0.0, 0.0, 0.2, 0.2, 0.0, 0.2, 0.2, 0.2, 0.2, 0.0, 0.0, 0.2, 0.2, 0.0, 0.0, 0.2, 0.2, 0.0, 0.2, 0.2, 0.2, 0.0, 0.2, 0.2, 0.0, 0.2, 0.2, 0.25, 0.2, 0.2, 0.2, 0.0, 0.0, 0.2, 0.0, 0.0, 0.0, 0.2, 0.2, 0.2, 0.2, 0.0, 0.2, 0.2, 0.0, 0.0, 0.0, 0.2, 0.2, 0.2, 0.2, 0.2, 0.2, 0.2, 0.0, 0.0, 0.0, 0.2, 0.2, 0.2, 0.2, 0.2, 0.2, 0.2, 0.2, 0.0, 0.0, 0.2, 0.2, 0.2, 0.2, 0.2, 0.2, 0.2, 0.0, 0.0, 0.0, 0.2, 0.2, 0.2, 0.2, 0.2, 0.0, 0.2, 0.0, 0.0, 0.2, 0.2, 0.2, 0.2, 0.2, 0.2, 0.2, 0.2, 0.0, 0.0, 0.2, 0.2, 0.2, 0.2, 0.2, 0.2, 0.2, 0.2, 0.2, 0.2, 0.2, 0.2, 0.2, 0.2, 0.2, 0.2, 0.2, 0.2, 0.0, 0.0, 0.2, 1.0, 0.2, 0.2, 0.2, 0.2, 0.2, 0.2, 0.2, 0.0, 0.0, 0.6666666666666666, 0.2, 0.2, 0.2, 0.2, 0.0, 0.0, 0.2, 0.0, 0.0, 0.2, 0.2, 0.2, 0.2, 0.2, 0.2, 0.2, 0.2, 0.0, 0.0, 0.2, 0.2, 0.2, 0.2, 0.2, 0.2, 0.2, 0.2, 0.0, 0.0, 0.2, 0.2, 0.2, 0.2, 0.2, 0.2, 0.2, 0.2, 0.2, 0.0, 1.0, 0.2, 0.2, 0.2, 0.2, 0.2, 0.2, 0.2, 0.2, 0.2, 0.2, 0.2, 0.2, 0.2, 0.2, 0.2, 0.2, 0.2, 0.2, 0.0, 0.2, 0.2, 0.2, 0.2, 0.2, 0.2, 0.2, 0.2, 0.2, 0.2, 0.2, 0.2, 0.2, 0.2, 0.2, 0.2, 0.0, 0.2, 0.2, 0.2, 1.0, 0.2, 0.2, 0.2, 0.2, 0.2, 0.2, 0.0, 0.2, 0.2, 0.0, 0.0, 0.2, 0.2, 0.2, 0.2, 0.2, 0.0, 0.2, 0.5 ;
}
probability ( pitch1 | classes, roll1 ) {
    table 0.8093883357041252, 0.40064102564102566, 0.39080459770114945, 0.3225806451612903, 0.3076923076923077, 0.14285714285714285, 0.16666666666666666, 0.0, 0.0, 0.4, 0.8882521489971347, 0.6397306397306397, 0.552, 0.6129032258064516, 0.3793103448275862, 0.35714285714285715, 0.42857142857142855, 0.3333333333333333, 1.0, 0.75, 0.4447983014861996, 0.31086142322097376, 0.2652582159624413, 0.1776416539050536, 0.1506172839506173, 0.1059322033898305, 0.10909090909090909, 0.06, 0.07142857142857142, 0.0, 0.9581307401404646, 0.779874213836478, 0.5808080808080808, 0.4470588235294118, 0.5, 0.46875, 0.5, 0.21428571428571427, 0.0, 0.0, 0.7314059797380776, 0.9166666666666666, 0.7130801687763713, 0.5510204081632653, 0.43137254901960786, 0.4090909090909091, 0.14285714285714285, 0.2, 0.0, 0.0, 0.10526315789473684, 0.24358974358974358, 0.21839080459770116, 0.12903225806451613, 0.15384615384615385, 0.5714285714285714, 0.6666666666666666, 0.7777777777777778, 1.0, 0.0, 0.07879656160458452, 0.15824915824915825, 0.2, 0.16129032258064516, 0.3793103448275862, 0.14285714285714285, 0.14285714285714285, 0.0, 0.0, 0.25, 0.3874734607218684, 0.448501872659176, 0.42370892018779344, 0.45176110260336905, 0.41728395061728396, 0.3347457627118644, 0.38181818181818183, 0.38, 0.0, 0.0, 0.031604538087520256, 0.16981132075471697, 0.31313131313131315, 0.3411764705882353, 0.3958333333333333, 0.375, 0.16666666666666666, 0.2857142857142857, 0.0, 0.2, 0.23054114158636027, 0.05442176870748299, 0.24050632911392406, 0.3163265306122449, 0.37254901960784315, 0.4090909090909091, 0.5714285714285714, 0.6, 0.0, 0.0, 0.051209103840682786, 0.16987179487179488, 0.14942528735632185, 0.22580645161290322, 0.15384615384615385, 0.21428571428571427, 0.0, 0.0, 0.0, 0.2, 0.02005730659025788, 0.12457912457912458, 0.136, 0.0967741935483871, 0.06896551724137931, 0.14285714285714285, 0.14285714285714285, 0.3333333333333333, 0.0, 0.0, 0.12951167728237792, 0.16666666666666666, 0.20774647887323944, 0.2434915773353752, 0.2814814814814815, 0.3008474576271186, 0.22727272727272727, 0.24, 0.35714285714285715, 0.3333333333333333, 0.006212857914640735, 0.031446540880503145, 0.07575757575757576, 0.1411764705882353, 0.10416666666666667, 0.15625, 0.25, 0.35714285714285715, 1.0, 0.4, 0.028910303928836176, 0.02040816326530612, 0.0379746835443038, 0.08163265306122448, 0.13725490196078433, 0.09090909090909091, 0.0, 0.2, 0.0, 0.2, 0.021337126600284494, 0.08333333333333333, 0.09195402298850575, 0.12903225806451613, 0.15384615384615385, 0.0, 0.0, 0.1111111111111111, 0.0, 0.0, 0.0057306590257879654, 0.037037037037037035, 0.048, 0.03225806451612903, 0.034482758620689655, 0.0, 0.0, 0.3333333333333333, 0.0, 0.0, 0.03184713375796178, 0.052434456928838954, 0.07394366197183098, 0.0903522205206738, 0.08395061728395062, 0.15254237288135594, 0.19090909090909092, 0.14, 0.2857142857142857, 0.0, 0.001350621285791464, 0.0110062893081761, 0.015151515151515152, 0.03529411764705882, 0.0, 0.0, 0.0, 0.14285714285714285, 0.0, 0.0, 0.005189028910303929, 0.003401360544217687, 0.008438818565400843, 0.04081632653061224, 0.0392156862745098, 0.045454545454545456, 0.2857142857142857, 0.0, 0.0, 0.2, 0.008534850640113799, 0.05448717948717949, 0.05747126436781609, 0.06451612903225806, 0.15384615384615385, 0.0, 0.0, 0.0, 0.0, 0.0, 0.0071633237822349575, 0.026936026936026935, 0.016, 0.03225806451612903, 0.0, 0.07142857142857142, 0.0, 0.0, 0.0, 0.0, 0.004246284501061571, 0.014044943820224719, 0.01995305164319249, 0.02450229709035222, 0.04938271604938271, 0.0423728813559322, 0.05454545454545454, 0.12, 0.14285714285714285, 0.3333333333333333, 0.0005402485143165856, 0.0047169811320754715, 0.010101010101010102, 0.0, 0.0, 0.0, 0.0, 0.0, 0.0, 0.2, 0.0019767729182110206, 0.0017006802721088435, 0.0, 0.01020408163265306, 0.0196078431372549, 0.045454545454545456, 0.0, 0.0, 0.0, 0.0, 0.004267425320056899, 0.02564102564102564, 0.034482758620689655, 0.03225806451612903, 0.0, 0.0, 0.0, 0.1111111111111111, 0.0, 0.0, 0.0, 0.010101010101010102, 0.04, 0.03225806451612903, 0.034482758620689655, 0.07142857142857142, 0.0, 0.0, 0.0, 0.0, 0.0, 0.0056179775280898875, 0.005868544600938967, 0.006125574272588055, 0.014814814814814815, 0.025423728813559324, 0.00909090909090909, 0.04, 0.14285714285714285, 0.0, 0.0008103727714748784, 0.0015723270440251573, 0.005050505050505051, 0.023529411764705882, 0.0, 0.0, 0.08333333333333333, 0.0, 0.0, 0.2, 0.0007412898443291327, 0.0017006802721088435, 0.0, 0.0, 0.0, 0.0, 0.0, 0.0, 1.0, 0.0, 0.0, 0.003205128205128205, 0.04597701149425287, 0.03225806451612903, 0.0, 0.0, 0.0, 0.0, 0.0, 0.0, 0.0, 0.0, 0.008, 0.0, 0.034482758620689655, 0.14285714285714285, 0.0, 0.0, 0.0, 0.0, 0.0021231422505307855, 0.0018726591760299626, 0.002347417840375587, 0.004594180704441042, 0.0024691358024691358, 0.01694915254237288, 0.01818181818181818, 0.0, 0.0, 0.0, 0.0008103727714748784, 0.0, 0.0, 0.0, 0.0, 0.0, 0.0, 0.0, 0.0, 0.0, 0.0007412898443291327, 0.0, 0.0, 0.0, 0.0, 0.0, 0.0, 0.0, 0.0, 0.0, 0.0, 0.009615384615384616, 0.011494252873563218, 0.03225806451612903, 0.0, 0.0, 0.0, 0.0, 0.0, 0.0, 0.0, 0.0, 0.0, 0.0, 0.0, 0.07142857142857142, 0.14285714285714285, 0.0, 0.0, 0.0, 0.0, 0.0, 0.0, 0.0, 0.0, 0.00847457627118644, 0.00909090909090909, 0.0, 0.0, 0.0, 0.0, 0.0, 0.0, 0.0, 0.0, 0.0, 0.0, 0.0, 0.0, 0.0, 0.0, 0.0, 0.0, 0.0, 0.0, 0.0, 0.0, 0.0, 0.0, 0.0, 0.0, 0.00641025641025641, 0.0, 0.0, 0.07692307692307693, 0.07142857142857142, 0.0, 0.0, 0.0, 0.0, 0.0, 0.0, 0.0, 0.016129032258064516, 0.034482758620689655, 0.0, 0.0, 0.0, 0.0, 0.0, 0.0, 0.0, 0.0011737089201877935, 0.0, 0.0, 0.00847457627118644, 0.0, 0.02, 0.0, 0.0, 0.0, 0.0, 0.0, 0.0, 0.0, 0.0, 0.0, 0.0, 0.0, 0.0, 0.00024709661477637757, 0.0, 0.0, 0.0, 0.0, 0.0, 0.0, 0.0, 0.0, 0.0, 0.0, 0.003205128205128205, 0.0, 0.03225806451612903, 0.0, 0.0, 0.16666666666666666, 0.0, 0.0, 0.4, 0.0, 0.003367003367003367, 0.0, 0.016129032258064516, 0.034482758620689655, 0.0, 0.14285714285714285, 0.0, 0.0, 0.0, 0.0, 0.0, 0.0, 0.0015313935681470138, 0.0, 0.00423728813559322, 0.0, 0.0, 0.0, 0.3333333333333333, 0.0005402485143165856, 0.0015723270440251573, 0.0, 0.011764705882352941, 0.0, 0.0, 0.0, 0.0, 0.0, 0.0, 0.00024709661477637757, 0.0017006802721088435, 0.0, 0.0, 0.0, 0.0, 0.0, 0.0, 0.0, 0.6 ;
}
probability ( pitch2 | classes, roll2 ) {
    table 0.8661844484629295, 0.7931034482758621, 0.5901639344262295, 0.29347826086956524, 0.22448979591836735, 0.15873015873015872, 0.10126582278481013, 0.0759493670886076, 0.06666666666666667, 0.06896551724137931, 0.7019064124783362, 0.1, 0.42857142857142855, 0.375, 0.2375, 0.19444444444444445, 0.18181818181818182, 0.14049586776859505, 0.11363636363636363, 0.2222222222222222, 0.6050420168067226, 0.1, 1.0, 0.05, 0.022388059701492536, 0.11827956989247312, 0.017595307917888565, 0.0043859649122807015, 0.017369727047146403, 0.02040816326530612, 0.9925536574682435, 0.9444444444444444, 0.9705882352941176, 1.0, 0.8666666666666667, 0.9583333333333334, 1.0, 0.4, 0.1, 0.1, 0.9224365482233503, 0.5151515151515151, 0.6666666666666666, 0.0, 0.8181818181818182, 0.0, 0.16666666666666666, 0.8888888888888888, 0.0, 0.8837209302325582, 0.054249547920433995, 0.0603448275862069, 0.16393442622950818, 0.42391304347826086, 0.14285714285714285, 0.1111111111111111, 0.12658227848101267, 0.17721518987341772, 0.23333333333333334, 0.41379310344827586, 0.1438474870017331, 0.1, 0.42857142857142855, 0.16071428571428573, 0.1375, 0.2222222222222222, 0.23140495867768596, 0.2231404958677686, 0.22727272727272727, 0.3148148148148148, 0.17952635599694422, 0.1, 0.0, 0.2125, 0.1791044776119403, 0.20430107526881722, 0.18181818181818182, 0.17105263157894737, 0.1662531017369727, 0.12244897959183673, 0.0032851511169513796, 0.05555555555555555, 0.029411764705882353, 0.0, 0.0, 0.041666666666666664, 0.0, 0.0, 0.1, 0.0, 0.02517766497461929, 0.06060606060606061, 0.0, 0.0, 0.045454545454545456, 0.0, 0.3333333333333333, 0.1111111111111111, 0.2, 0.023255813953488372, 0.03616636528028933, 0.08620689655172414, 0.06557377049180328, 0.13043478260869565, 0.2653061224489796, 0.31746031746031744, 0.189873417721519, 0.24050632911392406, 0.2833333333333333, 0.10344827586206896, 0.06932409012131716, 0.1, 0.0, 0.15178571428571427, 0.15, 0.1388888888888889, 0.11570247933884298, 0.10743801652892562, 0.15151515151515152, 0.12962962962962962, 0.11038961038961038, 0.1, 0.0, 0.3458333333333333, 0.3358208955223881, 0.20430107526881722, 0.34310850439882695, 0.3399122807017544, 0.2903225806451613, 0.20408163265306123, 0.0019710906701708277, 0.0, 0.0, 0.0, 0.044444444444444446, 0.0, 0.0, 0.0, 0.1, 0.0, 0.015228426395939087, 0.06060606060606061, 0.3333333333333333, 0.5, 0.045454545454545456, 0.0, 0.16666666666666666, 0.0, 0.0, 0.06976744186046512, 0.0216998191681736, 0.02586206896551724, 0.06557377049180328, 0.05434782608695652, 0.14285714285714285, 0.09523809523809523, 0.26582278481012656, 0.3037974683544304, 0.1, 0.1724137931034483, 0.036395147313691506, 0.1, 0.14285714285714285, 0.11607142857142858, 0.175, 0.16666666666666666, 0.1487603305785124, 0.2231404958677686, 0.11363636363636363, 0.14814814814814814, 0.05767761650114591, 0.1, 0.0, 0.22083333333333333, 0.1417910447761194, 0.23655913978494625, 0.2287390029325513, 0.21052631578947367, 0.2803970223325062, 0.30612244897959184, 0.000657030223390276, 0.0, 0.0, 0.0, 0.06666666666666667, 0.0, 0.0, 0.3, 0.1, 0.0, 0.01197969543147208, 0.09090909090909091, 0.0, 0.5, 0.045454545454545456, 1.0, 0.0, 0.0, 0.0, 0.0, 0.007233273056057866, 0.017241379310344827, 0.01639344262295082, 0.021739130434782608, 0.061224489795918366, 0.15873015873015872, 0.12658227848101267, 0.05063291139240506, 0.11666666666666667, 0.10344827586206896, 0.019064124783362217, 0.1, 0.0, 0.0625, 0.1375, 0.19444444444444445, 0.15702479338842976, 0.09917355371900827, 0.14393939393939395, 0.05555555555555555, 0.02750190985485103, 0.1, 0.0, 0.09583333333333334, 0.15671641791044777, 0.13978494623655913, 0.12316715542521994, 0.12719298245614036, 0.141439205955335, 0.22448979591836735, 0.0, 0.0, 0.0, 0.0, 0.022222222222222223, 0.0, 0.0, 0.1, 0.1, 0.0, 0.009137055837563452, 0.12121212121212122, 0.0, 0.0, 0.0, 0.0, 0.0, 0.0, 0.2, 0.023255813953488372, 0.007233273056057866, 0.008620689655172414, 0.04918032786885246, 0.06521739130434782, 0.02040816326530612, 0.031746031746031744, 0.05063291139240506, 0.06329113924050633, 0.03333333333333333, 0.06896551724137931, 0.019064124783362217, 0.1, 0.0, 0.07142857142857142, 0.0625, 0.0, 0.11570247933884298, 0.09917355371900827, 0.09848484848484848, 0.05555555555555555, 0.011077158135981665, 0.1, 0.0, 0.05, 0.08208955223880597, 0.06451612903225806, 0.06451612903225806, 0.06578947368421052, 0.04466501240694789, 0.04081632653061224, 0.000657030223390276, 0.0, 0.0, 0.0, 0.0, 0.0, 0.0, 0.2, 0.1, 0.5, 0.007512690355329949, 0.09090909090909091, 0.0, 0.0, 0.0, 0.0, 0.0, 0.0, 0.2, 0.0, 0.0018083182640144665, 0.0, 0.03278688524590164, 0.010869565217391304, 0.08163265306122448, 0.015873015873015872, 0.0759493670886076, 0.02531645569620253, 0.06666666666666667, 0.0, 0.0034662045060658577, 0.1, 0.0, 0.05357142857142857, 0.05, 0.05555555555555555, 0.03305785123966942, 0.06611570247933884, 0.08333333333333333, 0.018518518518518517, 0.0053475935828877, 0.1, 0.0, 0.016666666666666666, 0.04477611940298507, 0.03225806451612903, 0.02932551319648094, 0.05263157894736842, 0.03722084367245657, 0.061224489795918366, 0.0004380201489268506, 0.0, 0.0, 0.0, 0.0, 0.0, 0.0, 0.0, 0.1, 0.0, 0.004873096446700508, 0.06060606060606061, 0.0, 0.0, 0.0, 0.0, 0.0, 0.0, 0.2, 0.0, 0.0018083182640144665, 0.0, 0.01639344262295082, 0.0, 0.02040816326530612, 0.015873015873015872, 0.012658227848101266, 0.0379746835443038, 0.06666666666666667, 0.034482758620689655, 0.0034662045060658577, 0.1, 0.0, 0.0, 0.0375, 0.0, 0.008264462809917356, 0.024793388429752067, 0.030303030303030304, 0.05555555555555555, 0.00267379679144385, 0.1, 0.0, 0.004166666666666667, 0.022388059701492536, 0.0, 0.002932551319648094, 0.013157894736842105, 0.009925558312655087, 0.02040816326530612, 0.0002190100744634253, 0.0, 0.0, 0.0, 0.0, 0.0, 0.0, 0.0, 0.1, 0.2, 0.0018274111675126903, 0.0, 0.0, 0.0, 0.0, 0.0, 0.0, 0.0, 0.2, 0.0, 0.0018083182640144665, 0.008620689655172414, 0.0, 0.0, 0.04081632653061224, 0.047619047619047616, 0.0379746835443038, 0.02531645569620253, 0.016666666666666666, 0.0, 0.0017331022530329288, 0.1, 0.0, 0.0, 0.0125, 0.0, 0.0, 0.01652892561983471, 0.015151515151515152, 0.0, 0.0003819709702062643, 0.1, 0.0, 0.004166666666666667, 0.014925373134328358, 0.0, 0.002932551319648094, 0.006578947368421052, 0.009925558312655087, 0.0, 0.0, 0.0, 0.0, 0.0, 0.0, 0.0, 0.0, 0.0, 0.1, 0.0, 0.0016243654822335025, 0.0, 0.0, 0.0, 0.0, 0.0, 0.0, 0.0, 0.0, 0.0, 0.0018083182640144665, 0.0, 0.0, 0.0, 0.0, 0.047619047619047616, 0.012658227848101266, 0.0, 0.016666666666666666, 0.034482758620689655, 0.0017331022530329288, 0.1, 0.0, 0.008928571428571428, 0.0, 0.027777777777777776, 0.008264462809917356, 0.0, 0.022727272727272728, 0.0, 0.0003819709702062643, 0.1, 0.0, 0.0, 0.0, 0.0, 0.005865102639296188, 0.008771929824561403, 0.0024813895781637717, 0.0, 0.0002190100744634253, 0.0, 0.0, 0.0, 0.0, 0.0, 0.0, 0.0, 0.1, 0.2, 0.0002030456852791878, 0.0, 0.0, 0.0, 0.045454545454545456, 0.0, 0.3333333333333333, 0.0, 0.0, 0.0 ;
}
probability ( pitch3 | classes, roll3 ) {
    table 0.7102439024390244, 0.46153846153846156, 0.26666666666666666, 0.3, 0.2, 0.0, 0.3333333333333333, 0.0, 0.2, 0.0, 0.7255260750228728, 0.1, 0.0, 0.034482758620689655, 1.0, 0.0, 0.037037037037037035, 0.0, 0.0, 0.1111111111111111, 0.2737226277372263, 0.3943217665615142, 0.17768595041322313, 0.24719101123595505, 0.22580645161290322, 0.6666666666666666, 0.5, 0.0, 0.1111111111111111, 0.12903225806451613, 0.983467381590706, 0.25, 0.044444444444444446, 0.012195121951219513, 0.0, 0.0, 0.0, 0.0, 0.0, 0.0, 0.9918326693227092, 0.26666666666666666, 0.25, 0.25, 0.5, 0.0, 0.0, 1.0, 0.0, 0.4, 0.17073170731707318, 0.4, 0.4666666666666667, 0.25, 0.2, 0.5, 0.16666666666666666, 0.375, 0.0, 0.18181818181818182, 0.08600182982616651, 0.1, 1.0, 0.13793103448275862, 0.0, 0.0, 0.07407407407407407, 0.02702702702702703, 0.1111111111111111, 0.2222222222222222, 0.21958637469586376, 0.2697160883280757, 0.33884297520661155, 0.24719101123595505, 0.2903225806451613, 0.0, 0.25, 0.5, 0.1111111111111111, 0.25806451612903225, 0.012511170688114389, 0.20833333333333334, 0.17777777777777778, 0.012195121951219513, 0.03389830508474576, 0.07692307692307693, 0.1, 0.0, 0.3333333333333333, 0.0, 0.0035856573705179283, 0.13333333333333333, 0.0, 0.0, 0.3333333333333333, 0.5, 0.5, 0.0, 0.0, 0.0, 0.07512195121951219, 0.09230769230769231, 0.06666666666666667, 0.25, 0.3, 0.3333333333333333, 0.16666666666666666, 0.5, 0.4, 0.09090909090909091, 0.04940530649588289, 0.1, 0.0, 0.4482758620689655, 0.0, 0.0, 0.2222222222222222, 0.08108108108108109, 0.2222222222222222, 0.3333333333333333, 0.20225060827250607, 0.14826498422712933, 0.2190082644628099, 0.2247191011235955, 0.1935483870967742, 0.16666666666666666, 0.0, 0.0, 0.1111111111111111, 0.0967741935483871, 0.002680965147453083, 0.20833333333333334, 0.4666666666666667, 0.13414634146341464, 0.05084745762711865, 0.0, 0.1, 0.0, 0.0, 0.25, 0.0015936254980079682, 0.4, 0.5, 0.25, 0.0, 0.0, 0.0, 0.0, 0.0, 0.0, 0.027317073170731707, 0.015384615384615385, 0.06666666666666667, 0.1, 0.1, 0.16666666666666666, 0.16666666666666666, 0.125, 0.2, 0.18181818181818182, 0.05123513266239707, 0.1, 0.0, 0.2413793103448276, 0.0, 0.13043478260869565, 0.14814814814814814, 0.05405405405405406, 0.1111111111111111, 0.1111111111111111, 0.1599756690997567, 0.08517350157728706, 0.1322314049586777, 0.15730337078651685, 0.12903225806451613, 0.0, 0.25, 0.0, 0.1111111111111111, 0.1935483870967742, 0.0008936550491510277, 0.125, 0.28888888888888886, 0.5121951219512195, 0.1864406779661017, 0.07692307692307693, 0.0, 0.0, 0.0, 0.0, 0.00039840637450199205, 0.06666666666666667, 0.0, 0.25, 0.16666666666666666, 0.5, 0.5, 0.0, 0.0, 0.0, 0.00975609756097561, 0.015384615384615385, 0.13333333333333333, 0.1, 0.1, 0.0, 0.0, 0.0, 0.2, 0.09090909090909091, 0.04483074107959744, 0.1, 0.0, 0.06896551724137931, 0.0, 0.5217391304347826, 0.1111111111111111, 0.2972972972972973, 0.2777777777777778, 0.0, 0.08819951338199514, 0.06466876971608833, 0.10330578512396695, 0.06741573033707865, 0.12903225806451613, 0.16666666666666666, 0.0, 0.0, 0.3333333333333333, 0.1935483870967742, 0.0, 0.125, 0.022222222222222223, 0.25609756097560976, 0.4067796610169492, 0.23076923076923078, 0.2, 0.0, 0.0, 0.25, 0.00019920318725099602, 0.0, 0.25, 0.25, 0.0, 0.0, 0.0, 0.0, 0.0, 0.0, 0.003902439024390244, 0.0, 0.0, 0.0, 0.1, 0.0, 0.0, 0.0, 0.0, 0.09090909090909091, 0.022872827081427266, 0.1, 0.0, 0.034482758620689655, 0.0, 0.2608695652173913, 0.18518518518518517, 0.2702702702702703, 0.16666666666666666, 0.1111111111111111, 0.03527980535279805, 0.02996845425867508, 0.012396694214876033, 0.02247191011235955, 0.0, 0.0, 0.0, 0.0, 0.2222222222222222, 0.06451612903225806, 0.0, 0.0, 0.0, 0.04878048780487805, 0.2542372881355932, 0.2692307692307692, 0.3, 0.2857142857142857, 0.3333333333333333, 0.0, 0.00039840637450199205, 0.06666666666666667, 0.0, 0.0, 0.0, 0.0, 0.0, 0.0, 0.0, 0.0, 0.0, 0.015384615384615385, 0.0, 0.0, 0.0, 0.0, 0.16666666666666666, 0.0, 0.0, 0.0, 0.013723696248856358, 0.1, 0.0, 0.0, 0.0, 0.08695652173913043, 0.07407407407407407, 0.21621621621621623, 0.0, 0.0, 0.013990267639902677, 0.007886435331230283, 0.012396694214876033, 0.033707865168539325, 0.0, 0.0, 0.0, 0.5, 0.0, 0.03225806451612903, 0.00022341376228775692, 0.08333333333333333, 0.0, 0.024390243902439025, 0.06779661016949153, 0.19230769230769232, 0.2, 0.42857142857142855, 0.3333333333333333, 0.0, 0.00039840637450199205, 0.0, 0.0, 0.0, 0.0, 0.0, 0.0, 0.0, 0.0, 0.4, 0.0, 0.0, 0.0, 0.0, 0.0, 0.0, 0.0, 0.0, 0.0, 0.0, 0.0036596523330283625, 0.1, 0.0, 0.0, 0.0, 0.0, 0.07407407407407407, 0.0, 0.05555555555555555, 0.0, 0.003953771289537713, 0.0, 0.0, 0.0, 0.03225806451612903, 0.0, 0.0, 0.0, 0.0, 0.0, 0.00022341376228775692, 0.0, 0.0, 0.0, 0.0, 0.11538461538461539, 0.0, 0.14285714285714285, 0.0, 0.0, 0.00019920318725099602, 0.06666666666666667, 0.0, 0.0, 0.0, 0.0, 0.0, 0.0, 0.0, 0.2, 0.000975609756097561, 0.0, 0.0, 0.0, 0.0, 0.0, 0.0, 0.0, 0.0, 0.09090909090909091, 0.0009149130832570906, 0.1, 0.0, 0.0, 0.0, 0.0, 0.0, 0.05405405405405406, 0.05555555555555555, 0.0, 0.0015206812652068127, 0.0, 0.0, 0.0, 0.0, 0.0, 0.0, 0.0, 0.0, 0.03225806451612903, 0.0, 0.0, 0.0, 0.0, 0.0, 0.0, 0.0, 0.0, 0.0, 0.0, 0.0007968127490039841, 0.0, 0.0, 0.0, 0.0, 0.0, 0.0, 0.0, 0.0, 0.0, 0.001951219512195122, 0.0, 0.0, 0.0, 0.0, 0.0, 0.0, 0.0, 0.0, 0.2727272727272727, 0.0018298261665141812, 0.1, 0.0, 0.034482758620689655, 0.0, 0.0, 0.07407407407407407, 0.0, 0.0, 0.1111111111111111, 0.0015206812652068127, 0.0, 0.004132231404958678, 0.0, 0.0, 0.0, 0.0, 0.0, 0.0, 0.0, 0.0, 0.0, 0.0, 0.0, 0.0, 0.038461538461538464, 0.1, 0.14285714285714285, 0.0, 0.5, 0.000597609561752988, 0.0, 0.0, 0.0, 0.0, 0.0, 0.0, 0.0, 1.0, 0.0 ;
}
probability ( roll1 | classes, total_accel_sensor_1 ) {
    table 0.6609257265877287, 0.627906976744186, 0.5, 0.2926829268292683, 0.045454545454545456, 0.0, 0.0, 0.0, 0.0, 0.0, 0.7578659370725034, 0.4779116465863454, 0.06557377049180328, 0.12903225806451613, 0.16279069767441862, 0.13333333333333333, 0.0, 0.0, 0.0, 0.0, 0.2149431510557661, 0.2146341463414634, 0.21929824561403508, 0.27734375, 0.216, 0.17647058823529413, 0.03571428571428571, 0.07142857142857142, 0.3333333333333333, 0.2857142857142857, 0.7958874458874459, 0.24675324675324675, 0.21739130434782608, 0.0, 0.25, 0.1, 0.0, 0.0, 0.0, 0.0, 0.8014705882352942, 0.6666666666666666, 1.0, 0.25, 0.5, 0.0, 0.0, 0.1, 0.5, 0.2, 0.26157158234660927, 0.26744186046511625, 0.38636363636363635, 0.36585365853658536, 0.4090909090909091, 0.08, 0.14285714285714285, 0.0, 0.25, 0.0, 0.16689466484268126, 0.3172690763052209, 0.4918032786885246, 0.25806451612903225, 0.32558139534883723, 0.26666666666666666, 0.2, 0.0, 0.0, 0.0, 0.2046561992420141, 0.2710801393728223, 0.2719298245614035, 0.2734375, 0.304, 0.45098039215686275, 0.32142857142857145, 0.35714285714285715, 0.3333333333333333, 0.0, 0.12943722943722943, 0.35064935064935066, 0.2608695652173913, 0.0, 0.5, 0.1, 1.0, 0.0, 0.0, 0.3333333333333333, 0.11506359300476948, 0.25, 0.0, 0.25, 0.0, 1.0, 1.0, 0.1, 0.5, 0.4, 0.060279870828848225, 0.05813953488372093, 0.06818181818181818, 0.14634146341463414, 0.18181818181818182, 0.2, 0.07142857142857142, 0.3, 0.25, 0.5, 0.047879616963064295, 0.1285140562248996, 0.22950819672131148, 0.27419354838709675, 0.18604651162790697, 0.13333333333333333, 0.3, 0.0, 0.0, 0.0, 0.18678938819707633, 0.2048780487804878, 0.20350877192982456, 0.1953125, 0.224, 0.1568627450980392, 0.25, 0.14285714285714285, 0.3333333333333333, 0.14285714285714285, 0.03852813852813853, 0.19480519480519481, 0.17391304347826086, 0.0, 0.25, 0.1, 0.0, 0.0, 0.0, 0.0, 0.04689984101748808, 0.08333333333333333, 0.0, 0.0, 0.0, 0.0, 0.0, 0.1, 0.0, 0.0, 0.013993541442411194, 0.03488372093023256, 0.045454545454545456, 0.07317073170731707, 0.13636363636363635, 0.16, 0.14285714285714285, 0.1, 0.0, 0.0, 0.013679890560875513, 0.04819277108433735, 0.13114754098360656, 0.1935483870967742, 0.16279069767441862, 0.2, 0.1, 0.0, 0.0, 0.3333333333333333, 0.17920952896589062, 0.13031358885017422, 0.1368421052631579, 0.12109375, 0.12, 0.09803921568627451, 0.10714285714285714, 0.14285714285714285, 0.0, 0.14285714285714285, 0.013852813852813853, 0.16883116883116883, 0.17391304347826086, 0.4, 0.0, 0.1, 0.0, 0.0, 0.0, 0.6666666666666666, 0.019276629570747217, 0.0, 0.0, 0.25, 0.0, 0.0, 0.0, 0.1, 0.0, 0.0, 0.002152852529601722, 0.0, 0.0, 0.04878048780487805, 0.045454545454545456, 0.16, 0.21428571428571427, 0.1, 0.0, 0.0, 0.008207934336525308, 0.012048192771084338, 0.05737704918032787, 0.06451612903225806, 0.046511627906976744, 0.2, 0.2, 0.0, 0.5, 0.0, 0.09853817000541419, 0.09407665505226481, 0.09649122807017543, 0.05859375, 0.072, 0.0392156862745098, 0.14285714285714285, 0.14285714285714285, 0.0, 0.14285714285714285, 0.009307359307359308, 0.025974025974025976, 0.08695652173913043, 0.2, 0.0, 0.1, 0.0, 0.0, 0.0, 0.0, 0.010135135135135136, 0.0, 0.0, 0.0, 0.0, 0.0, 0.0, 0.1, 0.0, 0.0, 0.001076426264800861, 0.0, 0.0, 0.024390243902439025, 0.09090909090909091, 0.28, 0.0, 0.2, 0.0, 0.16666666666666666, 0.004103967168262654, 0.008032128514056224, 0.01639344262295082, 0.016129032258064516, 0.023255813953488372, 0.06666666666666667, 0.2, 1.0, 0.0, 0.3333333333333333, 0.06713589604764483, 0.04878048780487805, 0.03684210526315789, 0.05078125, 0.032, 0.0392156862745098, 0.03571428571428571, 0.07142857142857142, 0.0, 0.0, 0.006277056277056277, 0.012987012987012988, 0.0, 0.4, 0.0, 0.1, 0.0, 0.0, 0.0, 0.0, 0.0043720190779014305, 0.0, 0.0, 0.0, 0.0, 0.0, 0.0, 0.1, 0.0, 0.0, 0.0, 0.0, 0.0, 0.04878048780487805, 0.0, 0.08, 0.14285714285714285, 0.0, 0.0, 0.0, 0.0, 0.008032128514056224, 0.0, 0.04838709677419355, 0.046511627906976744, 0.0, 0.0, 0.0, 0.0, 0.0, 0.03410936654033568, 0.016724738675958188, 0.02280701754385965, 0.015625, 0.008, 0.0392156862745098, 0.07142857142857142, 0.07142857142857142, 0.0, 0.0, 0.0021645021645021645, 0.0, 0.08695652173913043, 0.0, 0.0, 0.1, 0.0, 0.0, 0.0, 0.0, 0.0013910969793322733, 0.0, 0.0, 0.0, 0.0, 0.0, 0.0, 0.1, 0.0, 0.0, 0.0, 0.0, 0.0, 0.0, 0.09090909090909091, 0.04, 0.2857142857142857, 0.0, 0.5, 0.0, 0.0013679890560875513, 0.0, 0.0, 0.016129032258064516, 0.023255813953488372, 0.0, 0.0, 0.0, 0.0, 0.0, 0.010828370330265295, 0.0132404181184669, 0.010526315789473684, 0.00390625, 0.024, 0.0, 0.03571428571428571, 0.0, 0.0, 0.0, 0.0030303030303030303, 0.0, 0.0, 0.0, 0.0, 0.1, 0.0, 0.0, 0.0, 0.0, 0.0009936406995230524, 0.0, 0.0, 0.0, 0.0, 0.0, 0.0, 0.1, 0.0, 0.0, 0.0, 0.0, 0.0, 0.0, 0.0, 0.0, 0.0, 0.1, 0.0, 0.0, 0.0, 0.0, 0.0, 0.0, 0.0, 0.0, 0.0, 0.0, 0.25, 0.0, 0.0027070925825663237, 0.005574912891986063, 0.0017543859649122807, 0.0, 0.0, 0.0, 0.0, 0.0, 0.0, 0.0, 0.0008658008658008658, 0.0, 0.0, 0.0, 0.0, 0.1, 0.0, 0.0, 0.0, 0.0, 0.0001987281399046105, 0.0, 0.0, 0.0, 0.0, 0.0, 0.0, 0.1, 0.0, 0.0, 0.0, 0.011627906976744186, 0.0, 0.0, 0.0, 0.0, 0.0, 0.2, 0.0, 0.3333333333333333, 0.0, 0.0, 0.00819672131147541, 0.0, 0.023255813953488372, 0.0, 0.0, 0.0, 0.25, 0.3333333333333333, 0.0010828370330265296, 0.0006968641114982578, 0.0, 0.00390625, 0.0, 0.0, 0.0, 0.0, 0.0, 0.2857142857142857, 0.0006493506493506494, 0.0, 0.0, 0.0, 0.0, 0.1, 0.0, 1.0, 1.0, 0.0, 0.0001987281399046105, 0.0, 0.0, 0.25, 0.5, 0.0, 0.0, 0.1, 0.0, 0.4 ;
}
probability ( roll2 | acceleration_mean, classes ) {
    table 0.5472689075630253, 0.5436681222707423, 0.966262319939348, 0.9688573883161512, 0.9741756058800158, 0.18604651162790697, 0.5294117647058824, 0.5172413793103449, 0.9090909090909091, 1.0, 0.045454545454545456, 0.29411764705882354, 0.053763440860215055, 0.8, 0.5, 0.12903225806451613, 0.2916666666666667, 0.00558659217877095, 0.6923076923076923, 0.2, 0.13793103448275862, 0.1016949152542373, 0.01282051282051282, 0.8333333333333334, 1.0, 0.14285714285714285, 0.23076923076923078, 0.0, 0.25, 1.0, 0.05, 0.2, 0.0, 0.0, 1.0, 0.1111111111111111, 0.10526315789473684, 0.0, 0.0, 1.0, 0.07142857142857142, 0.1, 0.0, 0.0, 1.0, 0.5, 0.3333333333333333, 0.0196078431372549, 0.3333333333333333, 0.8, 0.10294117647058823, 0.0, 0.0, 0.0032216494845360823, 0.006158124751688518, 0.19767441860465115, 0.0, 0.0, 0.06060606060606061, 0.0, 0.0, 0.0, 0.0, 0.0, 0.0, 0.0, 0.0, 0.0, 0.0, 0.4, 0.0, 0.0, 0.0, 0.0, 0.0, 0.0, 0.0, 0.0, 0.0, 0.0, 0.0, 0.0, 0.0, 0.0, 0.0, 0.1111111111111111, 0.0, 0.0, 0.0, 0.0, 0.0, 0.0, 0.0, 0.0, 0.0, 0.0, 0.0, 0.0, 0.3333333333333333, 0.0, 0.052521008403361345, 0.001091703056768559, 0.0, 0.007087628865979381, 0.0003972983710766786, 0.11627906976744186, 0.0, 0.0, 0.0, 0.0, 0.0, 0.0196078431372549, 0.0, 0.0, 0.0, 0.0, 0.020833333333333332, 0.00558659217877095, 0.0, 0.2, 0.034482758620689655, 0.01694915254237288, 0.00641025641025641, 0.16666666666666666, 0.0, 0.0, 0.0, 0.0, 0.0, 0.0, 0.0, 0.044444444444444446, 0.0, 0.0, 0.0, 0.0, 0.05263157894736842, 0.0, 0.0, 0.0, 0.0, 0.0, 0.0, 0.0, 0.0, 0.0, 0.0, 0.0, 0.0, 0.0, 0.03991596638655462, 0.060043668122270744, 0.002274450341167551, 0.004725085910652921, 0.0007945967421533572, 0.20930232558139536, 0.058823529411764705, 0.1724137931034483, 0.0, 0.0, 0.36363636363636365, 0.3333333333333333, 0.5806451612903226, 0.0, 0.0, 0.41935483870967744, 0.20833333333333334, 0.6424581005586593, 0.0, 0.0, 0.27586206896551724, 0.1864406779661017, 0.28205128205128205, 0.0, 0.0, 0.2857142857142857, 0.15384615384615385, 0.0055248618784530384, 0.0, 0.0, 0.1, 0.1111111111111111, 0.0, 0.0, 0.0, 0.1111111111111111, 0.10526315789473684, 0.0, 0.0, 0.0, 0.0, 0.2, 0.0, 0.0, 0.0, 0.0, 0.0, 0.0, 0.0, 0.0, 0.038865546218487396, 0.06222707423580786, 0.026535253980288095, 0.008376288659793814, 0.003972983710766786, 0.08139534883720931, 0.08823529411764706, 0.1810344827586207, 0.0, 0.0, 0.045454545454545456, 0.058823529411764705, 0.11827956989247312, 0.2, 0.0, 0.03225806451612903, 0.020833333333333332, 0.061452513966480445, 0.23076923076923078, 0.2, 0.034482758620689655, 0.0847457627118644, 0.08333333333333333, 0.0, 0.0, 0.07142857142857142, 0.057692307692307696, 0.027624309392265192, 0.0, 0.0, 0.0, 0.08888888888888889, 0.008875739644970414, 0.5, 0.0, 0.0, 0.10526315789473684, 0.0, 0.0, 0.0, 0.0, 0.2, 0.0, 0.0, 0.0, 0.25, 0.0, 0.0, 0.0, 0.2, 0.046218487394957986, 0.015283842794759825, 0.002274450341167551, 0.005154639175257732, 0.0003972983710766786, 0.011627906976744186, 0.11764705882352941, 0.0, 0.0, 0.0, 0.0, 0.0, 0.0, 0.0, 0.0, 0.0967741935483871, 0.020833333333333332, 0.00558659217877095, 0.0, 0.0, 0.06896551724137931, 0.0847457627118644, 0.0641025641025641, 0.0, 0.0, 0.21428571428571427, 0.038461538461538464, 0.049723756906077346, 0.0, 0.0, 0.5, 0.17777777777777778, 0.15088757396449703, 0.0, 0.0, 0.0, 0.10526315789473684, 0.045454545454545456, 0.0, 0.0, 0.0, 0.0, 0.010067114093959731, 0.0, 0.0, 0.0, 0.0, 0.0, 0.0, 0.0, 0.06302521008403361, 0.08624454148471616, 0.0, 0.0015034364261168386, 0.0009932459276916965, 0.08139534883720931, 0.08823529411764706, 0.04310344827586207, 0.0, 0.0, 0.09090909090909091, 0.1568627450980392, 0.15053763440860216, 0.0, 0.5, 0.0, 0.14583333333333334, 0.20670391061452514, 0.0, 0.0, 0.06896551724137931, 0.15254237288135594, 0.28205128205128205, 0.0, 0.0, 0.07142857142857142, 0.09615384615384616, 0.4861878453038674, 0.0, 0.0, 0.05, 0.13333333333333333, 0.3165680473372781, 0.0, 0.0, 0.2222222222222222, 0.05263157894736842, 0.08741258741258741, 0.0, 0.0, 0.2857142857142857, 0.2, 0.06040268456375839, 0.0, 0.0, 0.0, 0.16666666666666666, 0.058823529411764705, 0.0, 0.0, 0.0430672268907563, 0.08733624454148471, 0.0018953752843062926, 0.000859106529209622, 0.003575685339690107, 0.023255813953488372, 0.058823529411764705, 0.06896551724137931, 0.0, 0.0, 0.18181818181818182, 0.09803921568627451, 0.053763440860215055, 0.0, 0.0, 0.12903225806451613, 0.16666666666666666, 0.0446927374301676, 0.07692307692307693, 0.0, 0.3103448275862069, 0.1694915254237288, 0.0641025641025641, 0.0, 0.0, 0.21428571428571427, 0.15384615384615385, 0.19337016574585636, 0.5, 0.0, 0.25, 0.06666666666666667, 0.23668639053254437, 0.0, 0.0, 0.4444444444444444, 0.10526315789473684, 0.46153846153846156, 0.3333333333333333, 0.0, 0.5, 0.3, 0.5302013422818792, 0.0, 0.0, 0.0, 0.0, 0.29411764705882354, 0.0, 0.0, 0.045168067226890755, 0.10152838427947598, 0.0, 0.0, 0.0009932459276916965, 0.05813953488372093, 0.058823529411764705, 0.008620689655172414, 0.0, 0.0, 0.18181818181818182, 0.0196078431372549, 0.03225806451612903, 0.0, 0.0, 0.12903225806451613, 0.0625, 0.0223463687150838, 0.0, 0.0, 0.034482758620689655, 0.1016949152542373, 0.1794871794871795, 0.0, 0.0, 0.0, 0.21153846153846154, 0.19889502762430938, 0.0, 0.0, 0.05, 0.13333333333333333, 0.2603550295857988, 0.0, 0.0, 0.0, 0.3684210526315789, 0.3776223776223776, 0.0, 0.0, 0.07142857142857142, 0.0, 0.348993288590604, 0.0, 0.0, 0.25, 0.5, 0.6078431372549019, 0.0, 0.0, 0.02100840336134454, 0.0425764192139738, 0.000758150113722517, 0.0002147766323024055, 0.00854191497814859, 0.03488372093023256, 0.0, 0.008620689655172414, 0.030303030303030304, 0.0, 0.09090909090909091, 0.0196078431372549, 0.010752688172043012, 0.0, 0.0, 0.06451612903225806, 0.0625, 0.00558659217877095, 0.0, 0.0, 0.034482758620689655, 0.1016949152542373, 0.02564102564102564, 0.0, 0.0, 0.0, 0.057692307692307696, 0.03867403314917127, 0.25, 0.0, 0.0, 0.044444444444444446, 0.026627218934911243, 0.5, 0.0, 0.0, 0.0, 0.027972027972027972, 0.6666666666666666, 0.0, 0.07142857142857142, 0.0, 0.050335570469798654, 1.0, 0.0, 0.0, 0.0, 0.0196078431372549, 0.3333333333333333, 0.0 ;
}
probability ( roll3 ) {
    table 0.9002053884257581, 0.044581370061616526, 0.01854536667874834, 0.013531472755829407, 0.007188594901534373, 0.0038057267125770206, 0.002960009665337683, 0.0033224598284402563, 0.0022351093391325357, 0.003624501631025734 ;
}
probability ( total_accel_sensor_1 | acceleration_mean, classes ) {
    table 0.875, 0.6299126637554585, 0.36770280515542075, 0.9804553264604811, 0.9956297179181566, 0.20930232558139536, 0.5, 0.4051724137931034, 0.8484848484848485, 1.0, 0.4090909090909091, 0.47058823529411764, 0.5483870967741935, 0.6, 0.5, 0.4838709677419355, 0.5833333333333334, 0.5139664804469274, 0.6153846153846154, 0.8, 0.5517241379310345, 0.4576271186440678, 0.532051282051282, 0.8333333333333334, 0.5, 0.35714285714285715, 0.46153846153846156, 0.5027624309392266, 0.5, 1.0, 0.7, 0.5333333333333333, 0.6183431952662722, 0.5, 1.0, 0.5555555555555556, 0.3684210526315789, 0.5559440559440559, 0.3333333333333333, 0.0, 0.7857142857142857, 0.2, 0.412751677852349, 0.5, 0.5, 0.75, 0.16666666666666666, 0.43137254901960786, 0.3333333333333333, 0.6, 0.058823529411764705, 0.16375545851528384, 0.31880212282031845, 0.014390034364261168, 0.0021851410409217324, 0.20930232558139536, 0.17647058823529413, 0.3275862068965517, 0.030303030303030304, 0.0, 0.18181818181818182, 0.43137254901960786, 0.25806451612903225, 0.0, 0.0, 0.06451612903225806, 0.14583333333333334, 0.3687150837988827, 0.23076923076923078, 0.0, 0.06896551724137931, 0.3050847457627119, 0.34615384615384615, 0.0, 0.0, 0.14285714285714285, 0.38461538461538464, 0.425414364640884, 0.25, 0.0, 0.0, 0.35555555555555557, 0.3254437869822485, 0.5, 0.0, 0.2222222222222222, 0.3157894736842105, 0.33916083916083917, 0.3333333333333333, 0.0, 0.0, 0.4, 0.3825503355704698, 0.5, 0.5, 0.0, 0.0, 0.27450980392156865, 0.3333333333333333, 0.0, 0.028361344537815126, 0.09170305676855896, 0.17323730098559514, 0.003865979381443299, 0.0001986491855383393, 0.1744186046511628, 0.17647058823529413, 0.09482758620689655, 0.030303030303030304, 0.0, 0.0, 0.058823529411764705, 0.15053763440860216, 0.1, 0.0, 0.03225806451612903, 0.10416666666666667, 0.0446927374301676, 0.15384615384615385, 0.0, 0.0, 0.11864406779661017, 0.07051282051282051, 0.16666666666666666, 0.5, 0.07142857142857142, 0.15384615384615385, 0.049723756906077346, 0.0, 0.0, 0.0, 0.044444444444444446, 0.038461538461538464, 0.0, 0.0, 0.0, 0.10526315789473684, 0.06293706293706294, 0.0, 0.0, 0.0, 0.3, 0.08053691275167785, 0.0, 0.0, 0.0, 0.3333333333333333, 0.09803921568627451, 0.0, 0.0, 0.017857142857142856, 0.05240174672489083, 0.08188021228203184, 0.000429553264604811, 0.0005959475566150178, 0.1744186046511628, 0.058823529411764705, 0.07758620689655173, 0.030303030303030304, 0.0, 0.09090909090909091, 0.0, 0.021505376344086023, 0.0, 0.0, 0.0, 0.041666666666666664, 0.027932960893854747, 0.0, 0.0, 0.0, 0.0847457627118644, 0.04487179487179487, 0.0, 0.0, 0.07142857142857142, 0.0, 0.011049723756906077, 0.125, 0.0, 0.1, 0.022222222222222223, 0.008875739644970414, 0.0, 0.0, 0.2222222222222222, 0.10526315789473684, 0.013986013986013986, 0.3333333333333333, 0.0, 0.07142857142857142, 0.1, 0.016778523489932886, 0.0, 0.0, 0.25, 0.16666666666666666, 0.058823529411764705, 0.0, 0.2, 0.005252100840336135, 0.036026200873362446, 0.03677028051554208, 0.0002147766323024055, 0.0003972983710766786, 0.10465116279069768, 0.029411764705882353, 0.02586206896551724, 0.06060606060606061, 0.0, 0.0, 0.0196078431372549, 0.010752688172043012, 0.1, 0.0, 0.03225806451612903, 0.08333333333333333, 0.01675977653631285, 0.0, 0.0, 0.13793103448275862, 0.0, 0.0, 0.0, 0.0, 0.14285714285714285, 0.0, 0.011049723756906077, 0.0, 0.0, 0.05, 0.044444444444444446, 0.0, 0.0, 0.0, 0.0, 0.05263157894736842, 0.006993006993006993, 0.0, 0.0, 0.0, 0.0, 0.040268456375838924, 0.0, 0.0, 0.0, 0.16666666666666666, 0.09803921568627451, 0.0, 0.0, 0.005252100840336135, 0.012008733624454149, 0.012509476876421531, 0.0, 0.0, 0.06976744186046512, 0.0, 0.017241379310344827, 0.0, 0.0, 0.09090909090909091, 0.0196078431372549, 0.0, 0.0, 0.0, 0.16129032258064516, 0.041666666666666664, 0.0111731843575419, 0.0, 0.2, 0.13793103448275862, 0.01694915254237288, 0.00641025641025641, 0.0, 0.0, 0.14285714285714285, 0.0, 0.0, 0.0, 0.0, 0.0, 0.0, 0.0029585798816568047, 0.0, 0.0, 0.0, 0.0, 0.006993006993006993, 0.0, 0.0, 0.07142857142857142, 0.0, 0.030201342281879196, 0.0, 0.0, 0.0, 0.0, 0.0196078431372549, 0.0, 0.0, 0.0021008403361344537, 0.009825327510917031, 0.00530705079605762, 0.0002147766323024055, 0.0001986491855383393, 0.03488372093023256, 0.029411764705882353, 0.008620689655172414, 0.0, 0.0, 0.045454545454545456, 0.0, 0.010752688172043012, 0.1, 0.0, 0.0967741935483871, 0.0, 0.0111731843575419, 0.0, 0.0, 0.10344827586206896, 0.0, 0.0, 0.0, 0.0, 0.0, 0.0, 0.0, 0.0, 0.0, 0.1, 0.0, 0.0029585798816568047, 0.0, 0.0, 0.0, 0.0, 0.006993006993006993, 0.0, 0.0, 0.0, 0.0, 0.020134228187919462, 0.0, 0.0, 0.0, 0.0, 0.0196078431372549, 0.0, 0.0, 0.0031512605042016808, 0.001091703056768559, 0.00265352539802881, 0.0, 0.0, 0.011627906976744186, 0.0, 0.017241379310344827, 0.0, 0.0, 0.13636363636363635, 0.0, 0.0, 0.0, 0.0, 0.03225806451612903, 0.0, 0.00558659217877095, 0.0, 0.0, 0.0, 0.0, 0.0, 0.0, 0.0, 0.07142857142857142, 0.0, 0.0, 0.0, 0.0, 0.05, 0.0, 0.0, 0.0, 0.0, 0.0, 0.0, 0.0034965034965034965, 0.0, 0.0, 0.0, 0.0, 0.010067114093959731, 0.0, 0.0, 0.0, 0.0, 0.0, 0.3333333333333333, 0.0, 0.0010504201680672268, 0.0032751091703056767, 0.0003790750568612585, 0.0, 0.0001986491855383393, 0.011627906976744186, 0.029411764705882353, 0.0, 0.0, 0.0, 0.0, 0.0, 0.0, 0.1, 0.0, 0.03225806451612903, 0.0, 0.0, 0.0, 0.0, 0.0, 0.0, 0.0, 0.0, 0.0, 0.0, 0.0, 0.0, 0.0, 0.0, 0.0, 0.0, 0.0, 0.0, 0.0, 0.0, 0.0, 0.0034965034965034965, 0.0, 1.0, 0.07142857142857142, 0.0, 0.003355704697986577, 0.0, 0.0, 0.0, 0.0, 0.0, 0.0, 0.0, 0.0031512605042016808, 0.0, 0.000758150113722517, 0.000429553264604811, 0.0005959475566150178, 0.0, 0.0, 0.02586206896551724, 0.0, 0.0, 0.045454545454545456, 0.0, 0.0, 0.0, 0.5, 0.06451612903225806, 0.0, 0.0, 0.0, 0.0, 0.0, 0.01694915254237288, 0.0, 0.0, 0.0, 0.0, 0.0, 0.0, 0.125, 0.0, 0.0, 0.0, 0.0029585798816568047, 0.0, 0.0, 0.0, 0.05263157894736842, 0.0, 0.0, 0.0, 0.0, 0.0, 0.003355704697986577, 0.0, 0.0, 0.0, 0.16666666666666666, 0.0, 0.0, 0.2 ;
}
probability ( total_accel_sensor_2 | acceleration_stdev ) {
    table 0.9457255343082115, 0.2834008097165992, 0.19411764705882353, 0.09558823529411764, 0.08786610878661087, 0.06451612903225806, 0.04657534246575343, 0.011730205278592375, 0.017341040462427744, 0.045112781954887216, 0.02235658042744657, 0.44129554655870445, 0.029411764705882353, 0.025735294117647058, 0.03765690376569038, 0.03225806451612903, 0.0136986301369863, 0.002932551319648094, 0.0, 0.007518796992481203, 0.011529808773903262, 0.032388663967611336, 0.7176470588235294, 0.025735294117647058, 0.02092050209205021, 0.03225806451612903, 0.021917808219178082, 0.0, 0.0, 0.0, 0.00766310461192351, 0.0, 0.041176470588235294, 0.8088235294117647, 0.029288702928870293, 0.013824884792626729, 0.005479452054794521, 0.0, 0.0, 0.0, 0.004640044994375703, 0.008097165991902834, 0.0, 0.04411764705882353, 0.8075313807531381, 0.04608294930875576, 0.0027397260273972603, 0.0, 0.0, 0.0, 0.0031636670416197977, 0.012145748987854251, 0.0058823529411764705, 0.0, 0.016736401673640166, 0.7926267281105991, 0.019178082191780823, 0.0, 0.0, 0.007518796992481203, 0.0011951631046119235, 0.09716599190283401, 0.0058823529411764705, 0.0, 0.0, 0.013824884792626729, 0.873972602739726, 0.06158357771260997, 0.0, 0.007518796992481203, 0.001827896512935883, 0.044534412955465584, 0.0, 0.0, 0.0, 0.004608294930875576, 0.01643835616438356, 0.906158357771261, 0.04335260115606936, 0.007518796992481203, 0.0010545556805399326, 0.04048582995951417, 0.0, 0.0, 0.0, 0.0, 0.0, 0.017595307917888565, 0.9277456647398844, 0.08270676691729323, 0.000843644544431946, 0.04048582995951417, 0.0058823529411764705, 0.0, 0.0, 0.0, 0.0, 0.0, 0.011560693641618497, 0.8421052631578947 ;
}
probability ( total_accel_sensor_4 | acceleration_stdev, classes ) {
    table 0.5612770339855818, 0.5317286652078774, 0.9221804511278195, 0.7595616673828964, 0.9920398009950249, 0.6551724137931034, 0.5185185185185185, 0.8333333333333334, 0.5666666666666667, 0.0, 0.375, 0.43333333333333335, 0.7176470588235294, 0.5333333333333333, 0.25, 0.64, 0.25862068965517243, 0.6, 0.16666666666666666, 0.5, 0.6086956521739131, 0.38636363636363635, 0.5751633986928104, 0.3333333333333333, 0.14285714285714285, 0.6666666666666666, 0.2653061224489796, 0.42207792207792205, 0.0, 0.5, 0.8461538461538461, 0.2962962962962963, 0.35494880546075086, 0.6666666666666666, 0.5, 0.8333333333333334, 0.375, 0.45454545454545453, 0.6, 0.0, 1.0, 0.46153846153846156, 0.4670846394984326, 0.0, 0.5, 0.5, 0.47368421052631576, 0.5306122448979592, 0.42857142857142855, 0.4, 0.21833161688980432, 0.1673960612691466, 0.05150375939849624, 0.16759776536312848, 0.005373134328358209, 0.12643678160919541, 0.18518518518518517, 0.10784313725490197, 0.36666666666666664, 1.0, 0.1875, 0.26666666666666666, 0.21176470588235294, 0.26666666666666666, 0.0, 0.12, 0.2413793103448276, 0.2742857142857143, 0.16666666666666666, 0.0, 0.0, 0.1590909090909091, 0.27450980392156865, 0.4166666666666667, 0.0, 0.0, 0.2653061224489796, 0.45454545454545453, 0.0, 0.0, 0.15384615384615385, 0.25925925925925924, 0.4129692832764505, 0.3333333333333333, 0.0, 0.0, 0.34375, 0.36363636363636365, 0.2, 0.0, 0.0, 0.23076923076923078, 0.3542319749216301, 0.0, 0.0, 0.25, 0.42105263157894735, 0.2653061224489796, 0.42857142857142855, 0.0, 0.10916580844490216, 0.13129102844638948, 0.019172932330827067, 0.05027932960893855, 0.0009950248756218905, 0.05747126436781609, 0.14814814814814814, 0.049019607843137254, 0.03333333333333333, 0.0, 0.09375, 0.13333333333333333, 0.047058823529411764, 0.2, 0.125, 0.04, 0.1206896551724138, 0.09714285714285714, 0.0, 0.0, 0.08695652173913043, 0.20454545454545456, 0.11764705882352941, 0.0, 0.0, 0.1111111111111111, 0.22448979591836735, 0.11038961038961038, 0.6666666666666666, 0.0, 0.0, 0.16666666666666666, 0.19112627986348124, 0.0, 0.0, 0.16666666666666666, 0.125, 0.13131313131313133, 0.2, 0.0, 0.0, 0.0, 0.13479623824451412, 0.0, 0.0, 0.0, 0.10526315789473684, 0.11224489795918367, 0.0, 0.0, 0.04840370751802266, 0.087527352297593, 0.0033834586466165413, 0.017404383326171037, 0.0007960199004975124, 0.12643678160919541, 0.07407407407407407, 0.0, 0.03333333333333333, 0.0, 0.0625, 0.03333333333333333, 0.011764705882352941, 0.0, 0.5, 0.0, 0.10344827586206896, 0.02857142857142857, 0.5, 0.0, 0.08695652173913043, 0.18181818181818182, 0.026143790849673203, 0.0, 0.0, 0.1111111111111111, 0.12244897959183673, 0.006493506493506494, 0.0, 0.0, 0.0, 0.07407407407407407, 0.030716723549488054, 0.0, 0.0, 0.0, 0.0625, 0.037037037037037035, 0.0, 0.0, 0.0, 0.07692307692307693, 0.04075235109717868, 0.0, 0.0, 0.0, 0.0, 0.07142857142857142, 0.0, 0.0, 0.03398558187435633, 0.04266958424507659, 0.0018796992481203006, 0.002578427159432746, 0.0001990049751243781, 0.034482758620689655, 0.037037037037037035, 0.0, 0.0, 0.0, 0.125, 0.03333333333333333, 0.0, 0.0, 0.125, 0.08, 0.1724137931034483, 0.0, 0.16666666666666666, 0.25, 0.08695652173913043, 0.06818181818181818, 0.006535947712418301, 0.16666666666666666, 0.14285714285714285, 0.0, 0.08163265306122448, 0.0, 0.0, 0.0, 0.0, 0.018518518518518517, 0.006825938566552901, 0.0, 0.0, 0.0, 0.03125, 0.010101010101010102, 0.0, 0.0, 0.0, 0.0, 0.003134796238244514, 0.0, 0.0, 0.0, 0.0, 0.02040816326530612, 0.0, 0.0, 0.01132852729145211, 0.02188183807439825, 0.00037593984962406017, 0.0008594757198109154, 0.0, 0.0, 0.037037037037037035, 0.00980392156862745, 0.0, 0.0, 0.125, 0.0, 0.0, 0.0, 0.0, 0.0, 0.034482758620689655, 0.0, 0.0, 0.25, 0.0, 0.0, 0.0, 0.0, 0.0, 0.1111111111111111, 0.0, 0.0, 0.0, 0.0, 0.0, 0.018518518518518517, 0.0034129692832764505, 0.0, 0.0, 0.0, 0.0, 0.0, 0.0, 0.0, 0.0, 0.0, 0.0, 0.0, 0.0, 0.0, 0.0, 0.0, 0.0, 0.0, 0.007209062821833162, 0.01312910284463895, 0.00037593984962406017, 0.0006446067898581865, 0.0001990049751243781, 0.0, 0.0, 0.0, 0.0, 0.0, 0.03125, 0.06666666666666667, 0.0, 0.0, 0.0, 0.04, 0.0, 0.0, 0.0, 0.0, 0.0, 0.0, 0.0, 0.0, 0.2857142857142857, 0.0, 0.04081632653061224, 0.0, 0.0, 0.0, 0.0, 0.037037037037037035, 0.0, 0.0, 0.0, 0.0, 0.0, 0.003367003367003367, 0.0, 0.0, 0.0, 0.0, 0.0, 0.0, 0.0, 0.25, 0.0, 0.0, 0.0, 0.0, 0.004119464469618949, 0.0010940919037199124, 0.0, 0.0006446067898581865, 0.0, 0.0, 0.0, 0.0, 0.0, 0.0, 0.0, 0.03333333333333333, 0.0, 0.0, 0.0, 0.04, 0.034482758620689655, 0.0, 0.0, 0.0, 0.08695652173913043, 0.0, 0.0, 0.0, 0.42857142857142855, 0.0, 0.0, 0.0, 0.3333333333333333, 0.0, 0.0, 0.12962962962962962, 0.0, 0.0, 0.0, 0.0, 0.0, 0.0, 0.0, 1.0, 0.0, 0.0, 0.0, 0.0, 0.0, 0.0, 0.0, 0.0, 0.0, 0.0, 0.0010298661174047373, 0.0, 0.00037593984962406017, 0.00021486892995272884, 0.0, 0.0, 0.0, 0.0, 0.0, 0.0, 0.0, 0.0, 0.0, 0.0, 0.0, 0.04, 0.034482758620689655, 0.0, 0.0, 0.0, 0.0, 0.0, 0.0, 0.0, 0.0, 0.0, 0.0, 0.006493506493506494, 0.0, 0.5, 0.0, 0.0, 0.0, 0.0, 0.0, 0.0, 0.0625, 0.0, 0.0, 0.0, 0.0, 0.0, 0.0, 1.0, 0.5, 0.0, 0.0, 0.0, 0.0, 0.0, 0.005149330587023687, 0.0032822757111597373, 0.0007518796992481203, 0.00021486892995272884, 0.0003980099502487562, 0.0, 0.0, 0.0, 0.0, 0.0, 0.0, 0.0, 0.011764705882352941, 0.0, 0.0, 0.0, 0.0, 0.0, 0.0, 0.0, 0.043478260869565216, 0.0, 0.0, 0.08333333333333333, 0.0, 0.0, 0.0, 0.0, 0.0, 0.0, 0.0, 0.0, 0.0, 0.0, 0.5, 0.0, 0.0, 0.0, 0.0, 0.0, 0.0, 0.23076923076923078, 0.0, 0.0, 0.0, 0.0, 0.0, 0.0, 0.14285714285714285, 0.6 ;
}
