network unknown {
}
variable acceleration_mean {
    type discrete [ 10 ] { acceleration_mean_0, acceleration_mean_1, acceleration_mean_2, acceleration_mean_3, acceleration_mean_4, acceleration_mean_5, acceleration_mean_6, acceleration_mean_7, acceleration_mean_8, acceleration_mean_9 };
}
variable acceleration_stdev {
    type discrete [ 10 ] { acceleration_stdev_0, acceleration_stdev_1, acceleration_stdev_2, acceleration_stdev_3, acceleration_stdev_4, acceleration_stdev_5, acceleration_stdev_6, acceleration_stdev_7, acceleration_stdev_8, acceleration_stdev_9 };
}
variable classes {
    type discrete [ 5 ] { classes_0, classes_1, classes_2, classes_3, classes_4 };
}
variable pitch1 {
    type discrete [ 10 ] { pitch1_0, pitch1_1, pitch1_2, pitch1_3, pitch1_4, pitch1_5, pitch1_6, pitch1_7, pitch1_8, pitch1_9 };
}
variable pitch2 {
    type discrete [ 10 ] { pitch2_0, pitch2_1, pitch2_2, pitch2_3, pitch2_4, pitch2_5, pitch2_6, pitch2_7, pitch2_8, pitch2_9 };
}
variable pitch3 {
    type discrete [ 10 ] { pitch3_0, pitch3_1, pitch3_2, pitch3_3, pitch3_4, pitch3_5, pitch3_6, pitch3_7, pitch3_8, pitch3_9 };
}
variable roll1 {
    type discrete [ 10 ] { roll1_0, roll1_1, roll1_2, roll1_3, roll1_4, roll1_5, roll1_6, roll1_7, roll1_8, roll1_9 };
}
variable roll2 {
    type discrete [ 10 ] { roll2_0, roll2_1, roll2_2, roll2_3, roll2_4, roll2_5, roll2_6, roll2_7, roll2_8, roll2_9 };
}
variable roll3 {
    type discrete [ 10 ] { roll3_0, roll3_1, roll3_2, roll3_3, roll3_4, roll3_5, roll3_6, roll3_7, roll3_8, roll3_9 };
}
variable total_accel_sensor_1 {
    type discrete [ 10 ] { total_accel_sensor_1_0, total_accel_sensor_1_1, total_accel_sensor_1_2, total_accel_sensor_1_3, total_accel_sensor_1_4, total_accel_sensor_1_5, total_accel_sensor_1_6, total_accel_sensor_1_7, total_accel_sensor_1_8, total_accel_sensor_1_9 };
}
variable total_accel_sensor_2 {
    type discrete [ 10 ] { total_accel_sensor_2_0, total_accel_sensor_2_1, total_accel_sensor_2_2, total_accel_sensor_2_3, total_accel_sensor_2_4, total_accel_sensor_2_5, total_accel_sensor_2_6, total_accel_sensor_2_7, total_accel_sensor_2_8, total_accel_sensor_2_9 };
}
variable total_accel_sensor_4 {
    type discrete [ 10 ] { total_accel_sensor_4_0, total_accel_sensor_4_1, total_accel_sensor_4_2, total_accel_sensor_4_3, total_accel_sensor_4_4, total_accel_sensor_4_5, total_accel_sensor_4_6, total_accel_sensor_4_7, total_accel_sensor_4_8, total_accel_sensor_4_9 };
}
probability ( acceleration_mean | acceleration_stdev, classes, total_accel_sensor_2 ) {
    table 0.4666666666666667, 0.02564102564102564, 0.0, 0.1, 0.1, 0.1, 0.1, 0.1, 0.0, 0.0, 0.34234234234234234, 0.0, 0.0, 0.0, 0.875, 0.8333333333333334, 0.7272727272727273, 0.5454545454545454, 0.42857142857142855, 0.0, 0.55625, 0.005988023952095809, 0.0, 0.0, 0.0, 0.1, 0.1, 0.1, 0.1, 0.0, 0.9914015477214101, 0.21621621621621623, 0.005076142131979695, 0.1, 0.5, 0.6666666666666666, 0.0, 1.0, 0.1, 0.1, 0.1, 0.1, 0.0, 0.1, 0.1, 0.1, 0.0, 0.0, 0.5, 0.0, 0.07653061224489796, 0.0, 0.1, 0.1, 0.1, 0.1, 0.0, 0.0, 0.0, 0.0, 0.6666666666666666, 0.8888888888888888, 0.6875, 0.08695652173913043, 0.0, 0.1, 0.1, 0.1, 0.1, 0.1, 0.1319796954314721, 0.012269938650306749, 0.0, 0.0, 0.0, 0.0, 0.1, 0.1, 0.1, 0.1, 0.6, 0.021212121212121213, 0.0012406947890818859, 0.25, 0.14285714285714285, 0.0, 0.0, 0.1, 0.0, 0.1, 0.9282700421940928, 0.0, 0.5, 0.0, 0.0, 0.1, 0.0, 0.0, 0.1, 0.1, 0.2692307692307692, 0.1, 0.1, 0.0, 0.0, 0.0, 0.0, 0.0, 0.0, 0.0, 0.0, 0.0, 0.0, 0.0, 0.0, 0.0, 0.1, 0.0, 0.0, 0.0, 0.26394052044609667, 0.0, 0.08333333333333333, 0.0, 0.0, 0.0, 0.0, 0.0, 0.1, 0.0, 0.25, 0.0, 0.0, 0.5, 0.09090909090909091, 0.0, 0.0, 0.0, 0.0, 0.0, 0.25, 0.17073170731707318, 0.1278538812785388, 0.0, 0.0, 0.0, 0.0, 0.1, 0.1, 0.1, 0.1, 0.1, 0.1, 0.1, 0.0, 0.0, 0.0, 0.0, 0.0, 0.1, 0.0, 0.0, 0.0, 0.0, 0.0, 0.0, 0.0, 0.0, 0.0, 0.0, 0.0, 0.0, 0.1, 0.0, 0.0, 0.0, 0.0, 0.1, 0.0, 0.0, 0.1, 0.0, 0.2857142857142857, 0.0, 0.046511627906976744, 0.0, 0.0, 0.0, 0.0, 0.0, 0.009433962264150943, 0.013513513513513514, 0.0, 0.0, 0.0, 0.0, 0.0, 0.1, 0.0, 0.1, 0.1, 0.1, 0.1, 0.0, 0.0, 0.0, 0.0, 0.0, 0.1, 0.1, 0.0, 0.1, 0.0, 0.0, 0.0, 0.0, 0.0, 0.0, 0.0, 0.0, 0.1, 0.1, 0.14285714285714285, 0.05263157894736842, 0.0, 0.0, 0.0, 0.0, 0.0, 0.1, 0.1, 0.1, 0.2222222222222222, 0.0, 0.05128205128205128, 0.0, 0.0, 0.0, 0.0, 0.0, 0.0, 0.0, 0.0, 0.0, 0.0, 0.0, 0.0, 0.0, 0.1, 0.1, 0.1, 0.5, 0.0, 0.0, 0.0, 0.0, 0.0, 0.1, 0.1, 0.1, 0.0, 0.0, 0.0, 0.0, 0.0, 0.0, 0.0, 0.0, 0.1, 0.0, 0.1, 0.5, 0.0, 0.0, 0.0, 0.0, 0.0, 0.1, 0.1, 0.1, 0.1, 0.5, 0.0, 0.0, 0.0, 0.0, 0.0, 0.0, 0.0, 0.0, 0.05405405405405406, 0.1111111111111111, 0.0, 0.0053475935828877, 0.0, 0.005649717514124294, 0.0, 0.0, 0.0, 0.1, 0.1, 0.0, 0.0, 0.0, 0.0, 0.0, 0.0, 0.0, 0.1, 0.1, 0.0, 0.0, 0.0, 0.0, 0.0, 0.0, 0.0, 0.0, 0.1, 0.1, 0.0, 0.0, 0.0, 0.0, 0.0, 0.0, 0.0, 0.0, 0.0, 0.1, 0.0, 0.1, 0.0, 0.0, 0.0, 0.0, 0.0, 0.0, 0.1, 0.1, 0.0, 0.0, 0.0, 0.0641025641025641, 0.0625, 0.0, 0.1, 0.1, 0.0, 0.1, 0.0, 0.0, 0.0, 0.0, 0.0, 0.0, 0.1, 0.0, 0.0, 0.1, 0.4444444444444444, 0.14285714285714285, 0.0, 0.0, 0.0, 0.0, 0.1, 0.0, 0.0, 0.1, 0.5, 0.1, 0.0, 0.1, 0.1, 0.0, 0.1, 0.0, 0.0, 0.1, 0.0, 0.0, 0.0, 0.0, 0.0, 0.1, 0.0, 0.0, 0.0, 0.1, 0.0, 0.0, 0.0, 0.008130081300813009, 0.30952380952380953, 1.0, 0.0, 0.1, 0.0, 0.0, 0.058823529411764705, 0.0625, 0.0, 0.0, 0.0, 0.0, 0.1, 0.1, 0.0, 0.0, 0.1, 0.0, 0.0, 0.0, 0.1, 0.1, 0.1, 0.1, 0.0, 0.0, 0.0, 0.1, 0.1, 0.1, 0.1, 0.1, 0.1, 0.1, 0.0, 0.0, 0.0, 0.0, 0.0, 0.0, 0.0, 0.1, 0.1, 0.1, 0.1, 0.1, 0.0, 0.0, 0.0, 0.0, 0.0, 0.0, 0.1, 0.1, 0.1, 0.0, 0.2, 0.0, 0.0, 0.0, 0.1, 0.1, 0.1, 0.1, 0.1, 0.0, 0.0, 0.0, 0.0, 0.1, 0.1, 0.1, 0.1, 0.1, 0.1, 0.0, 0.1, 0.1, 0.0, 0.1, 0.1, 0.1, 0.1, 0.1, 0.1, 0.0, 0.0, 0.0, 0.0, 0.0, 0.0, 0.1, 0.1, 0.1, 0.1, 0.0, 0.0, 0.0, 0.0, 0.0, 0.0, 0.0, 0.0, 0.1, 0.1, 0.1, 0.5333333333333333, 0.7435897435897436, 0.0, 0.1, 0.1, 0.1, 0.1, 0.1, 0.0, 0.0, 0.6576576576576577, 0.5555555555555556, 0.125, 0.0, 0.125, 0.16666666666666666, 0.2727272727272727, 0.45454545454545453, 0.42857142857142855, 1.0, 0.44375, 0.5568862275449101, 0.029411764705882353, 0.0, 1.0, 0.1, 0.1, 0.1, 0.1, 0.0, 0.008598452278589854, 0.7702702702702703, 0.4517766497461929, 0.1, 0.0, 0.0, 0.0, 0.0, 0.1, 0.1, 0.1, 0.1, 0.0, 0.1, 0.1, 0.1, 0.0, 0.0, 0.0, 0.5, 0.826530612244898, 0.3076923076923077, 0.1, 0.1, 0.1, 0.1, 0.0, 0.0, 0.0, 0.0, 0.3333333333333333, 0.0, 0.0625, 0.043478260869565216, 0.0, 0.1, 0.1, 0.1, 0.1, 0.1, 0.6421319796954315, 0.39263803680981596, 0.006472491909385114, 0.0, 0.0, 0.0, 0.1, 0.1, 0.1, 0.1, 0.4, 0.9121212121212121, 0.22456575682382135, 0.0, 0.2857142857142857, 0.0, 0.0, 0.1, 0.0, 0.1, 0.07172995780590717, 1.0, 0.3333333333333333, 0.3333333333333333, 0.0, 0.1, 0.5714285714285714, 0.2, 0.1, 0.1, 0.7307692307692307, 0.1, 0.1, 0.0, 0.0, 0.0, 0.0, 0.0, 0.0, 0.0, 0.25, 0.0, 0.0, 0.0, 0.0, 0.0, 0.1, 0.0, 0.0, 0.0, 0.6486988847583643, 0.7586206896551724, 0.08333333333333333, 0.0, 0.0, 0.0, 0.0, 0.0, 0.1, 0.0, 0.5, 0.3333333333333333, 0.0, 0.0, 0.22727272727272727, 0.03333333333333333, 0.0, 0.0, 0.0, 0.0, 0.5, 0.5121951219512195, 0.45662100456621, 0.1111111111111111, 1.0, 0.0, 0.85, 0.1, 0.1, 0.1, 0.1, 0.1, 0.1, 0.1, 0.0, 0.0, 0.0, 0.0, 0.0, 0.1, 0.0, 0.0, 0.0, 0.0, 0.0, 0.0, 0.0, 0.0, 0.0, 0.0, 0.0, 0.0, 0.1, 0.0, 0.009950248756218905, 0.01818181818181818, 0.0, 0.1, 0.0, 0.0, 0.1, 0.0, 0.0, 0.0, 0.06976744186046512, 0.008403361344537815, 0.0, 0.0, 0.0, 0.0, 0.04716981132075472, 0.06756756756756757, 0.08064516129032258, 0.0, 1.0, 0.9375, 0.25, 0.1, 0.0, 0.1, 0.1, 0.1, 0.1, 0.0, 0.0, 0.0, 0.0, 0.0, 0.1, 0.1, 0.0, 0.1, 0.0, 0.0, 0.0, 0.038461538461538464, 0.017241379310344827, 0.0, 0.0, 0.0, 0.1, 0.1, 0.14285714285714285, 0.05263157894736842, 0.05405405405405406, 0.0, 0.0, 0.0, 0.0, 0.1, 0.1, 0.1, 0.1111111111111111, 0.2727272727272727, 0.28205128205128205, 0.0, 0.0, 0.0, 0.0, 0.0, 0.0, 0.0, 0.0, 0.7722222222222223, 0.33516483516483514, 0.5833333333333334, 0.0, 0.0, 0.1, 0.1, 0.1, 0.3333333333333333, 0.0, 0.18181818181818182, 0.0, 0.0, 0.0, 0.1, 0.1, 0.1, 0.0, 0.0, 0.0, 0.0, 0.0625, 0.04, 0.0, 0.0, 0.1, 0.0, 0.1, 0.0, 0.2727272727272727, 0.09090909090909091, 0.0, 0.0, 0.0, 0.1, 0.1, 0.1, 0.1, 0.0, 0.0, 0.0, 0.010638297872340425, 0.0, 0.0, 0.0, 0.0, 0.0, 0.0, 0.1111111111111111, 0.26666666666666666, 0.12834224598930483, 0.463855421686747, 0.12994350282485875, 0.0, 0.0, 0.0, 0.1, 0.1, 0.25, 0.2, 0.0, 0.0, 0.0, 0.0, 0.0, 0.1, 0.1, 0.0, 0.0, 0.6666666666666666, 0.0, 0.05555555555555555, 0.03333333333333333, 0.0, 0.0, 0.1, 0.1, 0.0, 0.0, 0.08333333333333333, 0.0, 0.0, 0.0, 0.0, 0.0, 0.0, 0.1, 0.0, 0.1, 0.0, 0.0, 0.0, 0.0, 0.0, 0.0, 0.1, 0.1, 0.7806691449814126, 0.09090909090909091, 0.0, 0.12179487179487179, 0.75, 0.0, 0.1, 0.1, 0.0, 0.1, 0.0, 0.15384615384615385, 0.20833333333333334, 0.0, 0.0, 0.0, 0.1, 0.0, 0.0, 0.1, 0.0, 0.0, 0.1, 0.0, 0.0, 0.0, 0.1, 0.0, 0.0, 0.1, 0.0, 0.1, 0.0, 0.1, 0.1, 0.0, 0.1, 0.0, 0.0, 0.1, 0.0, 0.0, 0.0, 0.0, 0.0, 0.1, 0.0, 0.0, 0.0, 0.1, 0.15178571428571427, 0.0, 0.0, 0.7479674796747967, 0.30952380952380953, 0.0, 0.0, 0.1, 0.0, 0.0, 0.23529411764705882, 0.3125, 0.0, 0.0, 0.0, 0.0, 0.1, 0.1, 0.0, 0.0, 0.3, 0.1111111111111111, 0.0, 0.0, 0.1, 0.1, 0.1, 0.1, 0.0, 0.0, 0.0, 0.1, 0.1, 0.1, 0.1, 0.1, 0.1, 0.1, 0.0, 0.0, 0.0, 0.0, 0.0, 0.0, 0.0, 0.1, 0.1, 0.1, 0.1, 0.1, 0.08695652173913043, 0.0, 0.0, 0.012987012987012988, 0.0, 0.0, 0.1, 0.1, 0.1, 0.0, 0.2, 0.2, 0.0, 0.0, 0.1, 0.1, 0.1, 0.1, 0.1, 0.0, 0.0, 0.0, 0.0, 0.1, 0.1, 0.1, 0.1, 0.1, 0.1, 0.0, 0.1, 0.1, 0.0, 0.1, 0.1, 0.1, 0.1, 0.1, 0.1, 0.0, 0.0, 0.0, 0.0, 0.0, 0.0, 0.1, 0.1, 0.1, 0.1, 0.0, 0.0, 0.0, 0.0, 0.0, 0.0, 0.0, 0.0, 0.1, 0.1, 0.1, 0.0, 0.23076923076923078, 1.0, 0.1, 0.1, 0.1, 0.1, 0.1, 0.0, 0.0, 0.0, 0.42857142857142855, 0.375, 0.16666666666666666, 0.0, 0.0, 0.0, 0.0, 0.0, 0.0, 0.0, 0.41317365269461076, 0.5588235294117647, 0.0, 0.0, 0.1, 0.1, 0.1, 0.1, 0.0, 0.0, 0.013513513513513514, 0.5431472081218274, 0.1, 0.5, 0.0, 0.0, 0.0, 0.1, 0.1, 0.1, 0.1, 1.0, 0.1, 0.1, 0.1, 0.0, 0.0, 0.0, 0.0, 0.09693877551020408, 0.6923076923076923, 0.1, 0.1, 0.1, 0.1, 0.0, 0.0, 0.0, 0.0, 0.0, 0.0, 0.0625, 0.30434782608695654, 0.0, 0.1, 0.1, 0.1, 0.1, 0.1, 0.22081218274111675, 0.5276073619631901, 0.459546925566343, 0.03333333333333333, 0.0, 0.5, 0.1, 0.1, 0.1, 0.1, 0.0, 0.06666666666666667, 0.7741935483870968, 0.75, 0.0, 0.25, 0.06060606060606061, 0.1, 1.0, 0.1, 0.0, 0.0, 0.16666666666666666, 0.6666666666666666, 0.0, 0.1, 0.42857142857142855, 0.8, 0.1, 0.1, 0.0, 0.1, 0.1, 0.0, 0.0, 0.0, 0.0, 0.0, 0.0, 0.0, 0.5, 0.0, 0.0, 0.0, 0.0, 0.0, 0.1, 0.0, 0.0, 0.0, 0.07063197026022305, 0.06896551724137931, 0.8333333333333334, 0.02727272727272727, 0.012987012987012988, 0.3333333333333333, 0.3333333333333333, 0.0, 0.1, 0.0, 0.08333333333333333, 0.47619047619047616, 1.0, 0.5, 0.5909090909090909, 0.1, 0.0, 0.0, 0.0, 0.0, 0.25, 0.21951219512195122, 0.1232876712328767, 0.16666666666666666, 0.0, 0.0, 0.15, 0.1, 0.1, 0.1, 0.1, 0.1, 0.1, 0.1, 0.16666666666666666, 0.0, 0.0, 0.0, 0.0, 0.1, 0.25, 0.0, 0.0, 0.0, 0.0, 0.0, 0.0, 0.0, 0.0, 0.0, 0.0, 0.0, 0.1, 0.0, 0.009950248756218905, 0.03636363636363636, 0.0, 0.1, 0.0, 0.0, 0.1, 0.5, 0.14285714285714285, 1.0, 0.46511627906976744, 0.04201680672268908, 0.006756756756756757, 0.0, 0.0, 0.0, 0.8867924528301887, 0.13513513513513514, 0.16129032258064516, 0.2, 0.0, 0.0, 0.0, 0.1, 0.0, 0.1, 0.1, 0.1, 0.1, 0.8333333333333334, 0.7272727272727273, 0.0, 0.0, 0.0, 0.1, 0.1, 0.0, 0.1, 0.0, 0.0, 0.08333333333333333, 0.0, 0.06896551724137931, 0.08, 0.0, 0.0, 0.1, 0.1, 0.5714285714285714, 0.5263157894736842, 0.16216216216216217, 0.0, 0.0, 0.0, 0.0, 0.1, 0.1, 0.1, 0.0, 0.2727272727272727, 0.1794871794871795, 0.061224489795918366, 0.0, 0.0, 0.0, 0.0, 0.7857142857142857, 0.0, 0.3333333333333333, 0.2222222222222222, 0.6593406593406593, 0.2, 0.0, 0.0, 0.1, 0.1, 0.1, 0.16666666666666666, 0.5, 0.45454545454545453, 0.2222222222222222, 0.0, 0.0, 0.1, 0.1, 0.1, 0.0, 0.0, 0.25, 0.4, 0.25, 0.12, 0.023255813953488372, 0.0, 0.1, 0.0, 0.1, 0.0, 0.09090909090909091, 0.2727272727272727, 0.2222222222222222, 0.0, 0.0, 0.1, 0.1, 0.1, 0.1, 0.0, 0.09090909090909091, 0.1388888888888889, 0.010638297872340425, 0.0, 0.014084507042253521, 0.0, 0.0, 0.0, 0.05405405405405406, 0.0, 0.6666666666666666, 0.8609625668449198, 0.536144578313253, 0.01694915254237288, 0.0, 0.0, 0.0, 0.1, 0.1, 0.5, 0.4, 0.1111111111111111, 0.0, 0.0, 0.0, 0.0, 0.1, 0.1, 0.0, 0.0, 0.16666666666666666, 0.0625, 0.0, 0.0, 0.0, 0.0, 0.1, 0.1, 1.0, 0.0, 0.16666666666666666, 0.3333333333333333, 0.0, 0.0, 0.0, 0.0, 0.0, 0.1, 0.0, 0.1, 0.0, 0.0, 0.0, 0.0, 0.0, 0.0, 0.1, 0.1, 0.0, 0.0, 0.006711409395973154, 0.10256410256410256, 0.0, 0.0, 0.1, 0.1, 0.0, 0.1, 1.0, 0.3076923076923077, 0.4166666666666667, 0.0, 0.0, 0.0, 0.1, 0.0, 0.0, 0.1, 0.0, 0.2857142857142857, 0.0, 0.08333333333333333, 0.1, 0.0, 0.1, 0.0, 0.0, 0.1, 0.5, 0.1, 0.0, 0.1, 0.1, 0.0, 0.1, 0.0, 0.0, 0.1, 0.0, 0.058823529411764705, 0.0, 0.0, 0.0, 0.1, 0.0, 0.0, 0.0, 0.1, 0.14285714285714285, 0.0, 0.0, 0.1951219512195122, 0.38095238095238093, 0.0, 0.0, 0.1, 0.0, 0.0, 0.35294117647058826, 0.21875, 0.3125, 0.0, 0.0, 0.0, 0.1, 0.1, 0.0, 0.0, 0.1, 0.1111111111111111, 0.0, 0.0, 0.1, 0.1, 0.1, 0.1, 0.0, 0.0, 1.0, 0.1, 0.1, 0.1, 0.1, 0.1, 0.1, 0.1, 0.0, 0.0, 0.0, 0.0, 0.0, 0.0, 0.0, 0.1, 0.1, 0.1, 0.1, 0.1, 0.0, 0.0, 0.0, 0.935064935064935, 0.45161290322580644, 0.0, 0.1, 0.1, 0.1, 0.0, 0.2, 0.3, 0.2, 0.0, 0.1, 0.1, 0.1, 0.1, 0.1, 0.0, 0.0, 0.0, 0.0, 0.1, 0.1, 0.1, 0.1, 0.1, 0.1, 0.0, 0.1, 0.1, 0.0, 0.1, 0.1, 0.1, 0.1, 0.1, 0.1, 0.0, 0.0, 0.0, 0.0, 0.0, 0.0, 0.1, 0.1, 0.1, 0.1, 0.0, 0.0, 0.0, 0.0, 0.0, 0.0, 0.0, 0.0, 0.1, 0.1, 0.1, 0.0, 0.0, 0.0, 0.1, 0.1, 0.1, 0.1, 0.1, 0.0, 0.0, 0.0, 0.015873015873015872, 0.25, 0.5, 0.0, 0.0, 0.0, 0.0, 0.0, 0.0, 0.0, 0.023952095808383235, 0.4117647058823529, 0.0, 0.0, 0.1, 0.1, 0.1, 0.1, 0.0, 0.0, 0.0, 0.0, 0.1, 0.0, 0.0, 0.3333333333333333, 0.0, 0.1, 0.1, 0.1, 0.1, 0.0, 0.1, 0.1, 0.1, 0.6666666666666666, 0.42857142857142855, 0.0, 0.0, 0.0, 0.0, 0.1, 0.1, 0.1, 0.1, 0.25, 0.0, 0.0, 0.0, 0.0, 0.1111111111111111, 0.125, 0.2608695652173913, 0.0, 0.1, 0.1, 0.1, 0.1, 0.1, 0.005076142131979695, 0.06748466257668712, 0.5339805825242718, 0.7444444444444445, 0.0, 0.5, 0.1, 0.1, 0.1, 0.1, 0.0, 0.0, 0.0, 0.0, 0.5714285714285714, 0.25, 0.09090909090909091, 0.1, 0.0, 0.1, 0.0, 0.0, 0.0, 0.0, 0.0, 0.1, 0.0, 0.0, 0.1, 0.1, 0.0, 0.1, 0.1, 1.0, 1.0, 1.0, 0.1, 0.0, 0.0, 0.0, 0.25, 0.5, 0.0, 0.0, 0.3333333333333333, 0.0, 0.1, 0.0, 0.0, 0.0, 0.016728624535315983, 0.13793103448275862, 0.0, 0.503030303030303, 0.1038961038961039, 0.3333333333333333, 0.3333333333333333, 0.0, 0.1, 0.0, 0.16666666666666666, 0.19047619047619047, 0.0, 0.0, 0.09090909090909091, 0.23333333333333334, 0.052980132450331126, 0.01098901098901099, 0.0, 1.0, 0.0, 0.0975609756097561, 0.2922374429223744, 0.6666666666666666, 0.0, 0.0, 0.0, 0.1, 0.1, 0.1, 0.1, 0.1, 0.1, 0.1, 0.3333333333333333, 0.4375, 0.0, 0.0, 0.0, 0.1, 0.75, 0.0, 0.0, 0.0, 0.4, 0.16666666666666666, 0.0, 0.0, 0.0, 0.0, 1.0, 0.0, 0.1, 0.75, 0.04975124378109453, 0.05454545454545454, 0.0, 0.1, 0.3333333333333333, 0.0, 0.1, 0.5, 0.5714285714285714, 0.0, 0.3953488372093023, 0.2605042016806723, 0.14189189189189189, 0.020833333333333332, 0.2, 0.0, 0.05660377358490566, 0.7702702702702703, 0.6129032258064516, 0.0, 0.0, 0.0, 0.0, 0.1, 1.0, 0.1, 0.1, 0.1, 0.1, 0.0, 0.09090909090909091, 0.008, 0.0, 0.0, 0.1, 0.1, 0.25, 0.1, 0.0, 0.0, 0.5833333333333334, 0.0, 0.10344827586206896, 0.08, 0.0, 0.0, 0.1, 0.1, 0.0, 0.21052631578947367, 0.35135135135135137, 0.026041666666666668, 0.0, 0.0, 0.0, 0.1, 0.1, 0.1, 0.4444444444444444, 0.3181818181818182, 0.1794871794871795, 0.19727891156462585, 0.20114942528735633, 0.008, 0.0, 0.0, 0.21428571428571427, 0.5, 0.3333333333333333, 0.0, 0.005494505494505495, 0.21666666666666667, 0.0037313432835820895, 0.0, 0.1, 0.1, 0.1, 0.0, 0.0, 0.18181818181818182, 0.3333333333333333, 0.0, 0.0, 0.1, 0.1, 0.1, 0.0, 0.0, 0.0, 0.4, 0.375, 0.12, 0.05813953488372093, 0.0625, 0.1, 0.0, 0.1, 0.5, 0.45454545454545453, 0.2727272727272727, 0.3333333333333333, 0.0, 0.009009009009009009, 0.1, 0.1, 0.1, 0.1, 0.5, 0.18181818181818182, 0.1111111111111111, 0.06382978723404255, 0.05555555555555555, 0.028169014084507043, 0.0, 0.0, 0.0, 0.13513513513513514, 0.3333333333333333, 0.0, 0.0053475935828877, 0.0, 0.847457627118644, 1.0, 0.0, 0.0, 0.1, 0.1, 0.25, 0.26666666666666666, 0.3333333333333333, 0.06666666666666667, 0.0, 0.0, 0.0, 0.1, 0.1, 0.0, 0.0, 0.16666666666666666, 0.25, 0.16666666666666666, 0.2, 0.0, 0.0, 0.1, 0.1, 0.0, 0.0, 0.5833333333333334, 0.3333333333333333, 0.3333333333333333, 0.0, 0.0, 0.0, 0.0, 0.1, 0.0, 0.1, 1.0, 0.030303030303030304, 0.0, 0.0, 0.21428571428571427, 0.0, 0.1, 0.1, 0.0, 0.0, 0.0, 0.7051282051282052, 0.171875, 1.0, 0.1, 0.1, 0.0, 0.1, 0.0, 0.46153846153846156, 0.08333333333333333, 0.5, 0.0, 0.0, 0.1, 0.0, 0.0, 0.1, 0.0, 0.2857142857142857, 0.0, 0.25, 0.0, 0.0, 0.1, 0.0, 0.0, 0.1, 0.0, 0.1, 0.0, 0.1, 0.1, 0.0, 0.1, 0.0, 0.0, 0.1, 0.0, 0.0, 0.0, 0.0, 0.0, 0.1, 0.6666666666666666, 0.0, 0.0, 0.1, 0.0, 0.0, 0.0031847133757961785, 0.032520325203252036, 0.0, 0.0, 0.0, 0.1, 0.0, 0.0, 0.23529411764705882, 0.1875, 0.4375, 0.2857142857142857, 0.0, 0.0, 0.1, 0.1, 0.0, 0.0, 0.4, 0.4444444444444444, 0.0, 0.0, 0.1, 0.1, 0.1, 0.1, 0.0, 0.0, 0.0, 0.1, 0.1, 0.1, 0.1, 0.1, 0.1, 0.1, 0.0, 0.0, 0.0, 0.0, 0.0, 0.0, 0.0, 0.1, 0.1, 0.1, 0.1, 0.1, 0.0, 0.0, 0.0, 0.0, 0.5053763440860215, 0.0, 0.1, 0.1, 0.1, 0.0, 0.06666666666666667, 0.2, 0.2, 0.0, 0.1, 0.1, 0.1, 0.1, 0.1, 0.0, 0.5, 0.0, 0.0, 0.1, 0.1, 0.1, 0.1, 0.1, 0.1, 0.0, 0.1, 0.1, 0.0, 0.1, 0.1, 0.1, 0.1, 0.1, 0.1, 0.0, 0.0, 0.0, 0.0, 0.0, 0.0, 0.1, 0.1, 0.1, 0.1, 0.0, 0.6666666666666666, 0.006578947368421052, 0.0, 1.0, 0.23270440251572327, 0.0, 0.0, 0.1, 0.1, 0.1, 0.0, 0.0, 0.0, 0.1, 0.1, 0.1, 0.1, 0.1, 0.0, 0.0, 0.0, 0.0, 0.25, 0.3333333333333333, 0.0, 0.0, 0.0, 0.0, 0.0, 0.0, 0.0, 0.0, 0.0, 1.0, 0.0, 0.1, 0.1, 0.1, 0.1, 0.0, 0.0, 0.0, 0.0, 0.1, 0.0, 0.3333333333333333, 0.6666666666666666, 0.0, 0.1, 0.1, 0.1, 0.1, 0.0, 0.1, 0.1, 0.1, 0.3333333333333333, 0.5714285714285714, 0.0, 0.25, 0.0, 0.0, 0.1, 0.1, 0.1, 0.1, 0.5, 0.0, 0.0, 0.0, 0.0, 0.0, 0.0625, 0.17391304347826086, 0.6, 0.1, 0.1, 0.1, 0.1, 0.1, 0.0, 0.0, 0.0, 0.18888888888888888, 0.0, 0.0, 0.1, 0.1, 0.1, 0.1, 0.0, 0.0, 0.0, 0.0, 0.0, 0.5, 0.36363636363636365, 0.1, 0.0, 0.1, 0.0, 0.0, 0.0, 0.0, 1.0, 0.1, 0.0, 0.0, 0.1, 0.1, 0.0, 0.1, 0.1, 0.0, 0.0, 0.0, 0.7, 0.3333333333333333, 0.0, 0.0, 0.0, 0.5, 0.5, 0.42857142857142855, 0.16666666666666666, 0.0, 0.1, 0.0, 0.0, 0.0, 0.0, 0.034482758620689655, 0.0, 0.4696969696969697, 0.8181818181818182, 0.3333333333333333, 0.16666666666666666, 0.5, 0.1, 0.0, 0.0, 0.0, 0.0, 0.0, 0.0, 0.5666666666666667, 0.12582781456953643, 0.0, 0.0, 0.0, 0.0, 0.0, 0.0, 0.05555555555555555, 0.0, 0.0, 0.0, 0.1, 0.1, 0.1, 0.1, 0.1, 0.1, 0.1, 0.5, 0.4375, 0.29411764705882354, 0.0, 0.0, 0.1, 0.0, 1.0, 0.0, 0.0, 0.0, 0.4166666666666667, 0.5555555555555556, 0.05263157894736842, 0.08333333333333333, 0.0, 0.0, 1.0, 0.1, 0.25, 0.527363184079602, 0.3090909090909091, 0.5714285714285714, 0.1, 0.3333333333333333, 0.0, 0.1, 0.0, 0.0, 0.0, 0.023255813953488372, 0.5966386554621849, 0.04054054054054054, 0.015625, 0.2, 0.75, 0.0, 0.013513513513513514, 0.14516129032258066, 0.8, 0.0, 0.0625, 0.017857142857142856, 0.1, 0.0, 0.1, 0.1, 0.1, 0.1, 0.16666666666666666, 0.0, 0.136, 0.0, 0.0, 0.1, 0.1, 0.75, 0.1, 0.0, 0.0, 0.16666666666666666, 0.5, 0.3103448275862069, 0.12, 0.25, 0.0, 0.1, 0.1, 0.14285714285714285, 0.15789473684210525, 0.1891891891891892, 0.140625, 0.4, 0.0, 0.0, 0.1, 0.1, 0.1, 0.2222222222222222, 0.13636363636363635, 0.28205128205128205, 0.5782312925170068, 0.25287356321839083, 0.096, 0.16666666666666666, 0.3333333333333333, 0.0, 0.5, 0.16666666666666666, 0.0, 0.0, 0.0, 0.0, 0.0, 0.1, 0.1, 0.1, 0.0, 0.5, 0.09090909090909091, 0.2222222222222222, 0.14285714285714285, 0.0, 0.1, 0.1, 0.1, 1.0, 0.0, 0.0, 0.1, 0.1875, 0.12, 0.046511627906976744, 0.5, 0.1, 0.0, 0.1, 0.0, 0.0, 0.22727272727272727, 0.1111111111111111, 0.0, 0.0, 0.1, 0.1, 0.1, 0.1, 0.0, 0.2727272727272727, 0.3611111111111111, 0.3191489361702128, 0.16666666666666666, 0.2676056338028169, 0.0, 0.0, 0.0, 0.35135135135135137, 0.3333333333333333, 0.06666666666666667, 0.0, 0.0, 0.0, 0.0, 0.0, 0.0, 0.1, 0.1, 0.0, 0.06666666666666667, 0.0, 0.6, 0.2222222222222222, 0.0, 0.0, 0.1, 0.1, 0.0, 0.0, 0.0, 0.1875, 0.2222222222222222, 0.26666666666666666, 0.5714285714285714, 0.0, 0.1, 0.1, 0.0, 0.0, 0.08333333333333333, 0.0, 0.3333333333333333, 0.0, 0.0, 0.0, 0.0, 0.1, 0.6666666666666666, 0.1, 0.0, 0.030303030303030304, 0.2, 0.0, 0.7142857142857143, 0.0, 0.1, 0.1, 0.007434944237918215, 0.8181818181818182, 0.0, 0.00641025641025641, 0.015625, 0.0, 0.1, 0.1, 0.0, 0.1, 0.0, 0.07692307692307693, 0.041666666666666664, 0.2, 0.0, 0.0, 0.1, 0.0, 0.0, 0.1, 0.2222222222222222, 0.0, 0.4, 0.16666666666666666, 0.0, 0.0, 0.1, 0.0, 0.0, 0.1, 0.0, 0.1, 0.0, 0.1, 0.1, 0.0, 0.1, 0.0, 0.0, 0.1, 0.0, 0.0, 0.0, 0.0, 0.0, 0.1, 0.0, 0.0, 0.0, 0.1, 0.0, 0.0, 0.0, 0.0, 0.0, 0.0, 0.0, 0.1, 0.0, 0.0, 0.11764705882352941, 0.0625, 0.125, 0.2857142857142857, 0.0, 0.0, 0.1, 0.1, 0.0, 0.0, 0.1, 0.2222222222222222, 0.0, 0.0, 0.1, 0.1, 0.1, 0.1, 0.0, 0.0, 0.0, 0.1, 0.1, 0.1, 0.1, 0.1, 0.1, 0.1, 0.0, 0.0, 0.0, 0.0, 0.0, 0.0, 0.0, 0.1, 0.1, 0.1, 0.1, 0.1, 0.0, 0.0, 0.0, 0.0, 0.043010752688172046, 1.0, 0.1, 0.1, 0.1, 0.0, 0.06666666666666667, 0.1, 0.2, 0.5, 0.1, 0.1, 0.1, 0.1, 0.1, 0.0, 0.0, 0.0, 0.0, 0.1, 0.1, 0.1, 0.1, 0.1, 0.1, 0.0, 0.1, 0.1, 0.0, 0.1, 0.1, 0.1, 0.1, 0.1, 0.1, 0.0, 1.0, 0.0, 0.0, 0.0, 0.0, 0.1, 0.1, 0.1, 0.1, 0.0, 0.0, 0.0, 0.0, 0.0, 0.610062893081761, 0.6666666666666666, 0.0, 0.1, 0.1, 0.1, 0.0, 0.0, 0.0, 0.1, 0.1, 0.1, 0.1, 0.1, 1.0, 0.0, 0.0, 0.0, 0.0, 0.0, 0.0, 0.0, 0.0, 0.0, 0.0, 0.0, 0.0, 0.0, 0.0, 0.0, 0.0, 0.1, 0.1, 0.1, 0.1, 0.0, 0.0, 0.0, 0.0, 0.1, 0.0, 0.0, 0.0, 0.0, 0.1, 0.1, 0.1, 0.1, 0.0, 0.1, 0.1, 0.1, 0.0, 0.0, 0.0, 0.0, 0.0, 0.0, 0.1, 0.1, 0.1, 0.1, 0.25, 0.375, 0.22727272727272727, 0.0, 0.0, 0.0, 0.0, 0.13043478260869565, 0.4, 0.1, 0.1, 0.1, 0.1, 0.1, 0.0, 0.0, 0.0, 0.022222222222222223, 1.0, 0.0, 0.1, 0.1, 0.1, 0.1, 0.0, 0.0, 0.0, 0.0, 0.0, 0.0, 0.48484848484848486, 0.1, 0.0, 0.1, 0.0, 0.0, 0.0, 0.0, 0.0, 0.1, 0.0, 0.0, 0.1, 0.1, 0.0, 0.1, 0.1, 0.0, 0.0, 0.0, 0.2, 0.4, 0.3333333333333333, 0.0, 0.0, 0.0, 0.5, 0.42857142857142855, 0.16666666666666666, 1.0, 0.1, 1.0, 0.0, 0.0, 0.0, 0.0, 0.0, 0.0, 0.06493506493506493, 0.0, 0.16666666666666666, 0.25, 0.1, 1.0, 0.0, 0.0, 0.0, 0.0, 0.0, 0.06666666666666667, 0.6423841059602649, 0.0, 0.0, 0.0, 0.0, 0.0, 0.0, 0.0, 0.0, 1.0, 0.0, 0.1, 0.1, 0.1, 0.1, 0.1, 0.1, 0.1, 0.0, 0.125, 0.4117647058823529, 0.3333333333333333, 0.0, 0.1, 0.0, 0.0, 0.5, 0.0, 0.2, 0.25, 0.3333333333333333, 0.2631578947368421, 0.25, 0.5, 0.0, 0.0, 0.1, 0.0, 0.39800995024875624, 0.41818181818181815, 0.42857142857142855, 0.1, 0.0, 0.0, 0.1, 0.0, 0.0, 0.0, 0.0, 0.08403361344537816, 0.5405405405405406, 0.010416666666666666, 0.0, 0.0, 0.0, 0.0, 0.0, 0.0, 0.0, 0.0, 0.7142857142857143, 0.1, 0.0, 0.1, 0.1, 0.1, 0.1, 0.0, 0.09090909090909091, 0.8, 0.5294117647058824, 0.0, 0.1, 0.1, 0.0, 0.1, 0.0, 0.0, 0.0, 0.23076923076923078, 0.13793103448275862, 0.08, 0.75, 0.0, 0.1, 0.1, 0.0, 0.0, 0.16216216216216217, 0.7083333333333334, 0.2, 0.75, 0.0, 0.1, 0.1, 0.1, 0.0, 0.0, 0.02564102564102564, 0.14965986394557823, 0.22413793103448276, 0.016, 0.3333333333333333, 0.3333333333333333, 0.0, 0.0, 0.16666666666666666, 0.0, 0.0, 0.0, 0.9216417910447762, 0.02666666666666667, 0.1, 0.1, 0.1, 0.0, 0.0, 0.09090909090909091, 0.1111111111111111, 0.5, 0.5897435897435898, 0.1, 0.1, 0.1, 0.0, 1.0, 0.0, 0.0, 0.0, 0.08, 0.08139534883720931, 0.125, 0.1, 0.0, 0.1, 0.0, 0.09090909090909091, 0.09090909090909091, 0.2222222222222222, 0.2222222222222222, 0.11711711711711711, 0.1, 0.1, 0.1, 0.1, 0.0, 0.45454545454545453, 0.3611111111111111, 0.5531914893617021, 0.5925925925925926, 0.323943661971831, 0.022222222222222223, 0.0, 0.5, 0.05405405405405406, 0.0, 0.0, 0.0, 0.0, 0.0, 0.0, 0.025477707006369428, 0.0, 0.1, 0.1, 0.0, 0.06666666666666667, 0.2222222222222222, 0.06666666666666667, 0.4444444444444444, 0.0, 0.0, 0.1, 0.1, 1.0, 1.0, 0.0, 0.1875, 0.16666666666666666, 0.03333333333333333, 0.14285714285714285, 0.5652173913043478, 0.1, 0.1, 0.0, 1.0, 0.0, 0.16666666666666666, 0.3333333333333333, 0.5, 0.0, 0.024390243902439025, 0.0, 0.1, 0.3333333333333333, 0.1, 0.0, 0.3939393939393939, 0.06666666666666667, 0.0, 0.0, 0.1111111111111111, 0.1, 0.1, 0.0, 0.0, 0.003355704697986577, 0.0, 0.0, 0.0, 0.1, 0.1, 0.0, 0.1, 0.0, 0.0, 0.08333333333333333, 0.1, 0.5, 0.0, 0.1, 0.0, 0.0, 0.1, 0.1111111111111111, 0.0, 0.2, 0.08333333333333333, 0.3, 0.6666666666666666, 0.1, 0.0, 0.0, 0.1, 0.0, 0.1, 0.0, 0.1, 0.1, 0.0, 0.1, 0.0, 0.0, 0.1, 1.0, 0.0, 0.0, 0.4230769230769231, 0.25, 0.1, 0.0, 1.0, 0.0, 0.1, 0.0, 0.07692307692307693, 0.0031847133757961785, 0.016260162601626018, 0.0, 0.0, 0.0, 0.1, 0.0, 0.0, 0.0, 0.0625, 0.125, 0.2857142857142857, 0.0, 0.0, 0.1, 0.1, 0.0, 0.0, 0.0, 0.1111111111111111, 0.0, 0.0, 0.1, 0.1, 0.1, 0.1, 0.0, 0.0, 0.0, 0.1, 0.1, 0.1, 0.1, 0.1, 0.1, 0.1, 0.0, 0.0, 0.0, 0.0, 0.09090909090909091, 0.0, 0.0, 0.1, 0.1, 0.1, 0.1, 0.1, 0.0, 0.8709677419354839, 0.3333333333333333, 0.012987012987012988, 0.0, 0.0, 0.1, 0.1, 0.1, 0.0, 0.26666666666666666, 0.0, 0.2, 0.0, 0.1, 0.1, 0.1, 0.1, 0.1, 0.0, 0.0, 0.0, 0.0, 0.1, 0.1, 0.1, 0.1, 0.1, 0.1, 0.0, 0.1, 0.1, 0.0, 0.1, 0.1, 0.1, 0.1, 0.1, 0.1, 0.0, 0.0, 0.0, 0.0, 0.0, 0.0, 0.1, 0.1, 0.1, 0.1, 0.0, 0.0, 0.3684210526315789, 0.0, 0.0, 0.15723270440251572, 0.3333333333333333, 0.0, 0.1, 0.1, 0.1, 0.0, 0.0, 0.0, 0.1, 0.1, 0.1, 0.1, 0.1, 0.0, 0.25, 0.0, 0.0, 0.0, 0.0, 0.0, 0.0, 0.0, 0.0, 0.0, 0.0, 0.0, 0.0, 0.0, 0.0, 0.0, 0.1, 0.1, 0.1, 0.1, 1.0, 0.0, 0.0, 0.0, 0.1, 0.0, 0.0, 0.0, 0.0, 0.1, 0.1, 0.1, 0.1, 0.0, 0.1, 0.1, 0.1, 0.0, 0.0, 0.5, 0.0, 0.0, 0.0, 0.1, 0.1, 0.1, 0.1, 0.0, 0.5, 0.5454545454545454, 0.0, 0.0, 0.0, 0.0, 0.0, 0.0, 0.1, 0.1, 0.1, 0.1, 0.1, 0.0, 0.0, 0.0, 0.011111111111111112, 0.0, 0.0, 0.1, 0.1, 0.1, 0.1, 0.0, 0.0, 0.0, 0.0, 0.0, 0.0, 0.0, 0.1, 0.0, 0.1, 0.0, 0.0, 0.0, 0.0, 0.0, 0.1, 0.0, 0.0, 0.1, 0.1, 0.0, 0.1, 0.1, 0.0, 0.0, 0.0, 0.0, 0.06666666666666667, 0.2222222222222222, 0.0, 0.0, 0.0, 0.0, 0.14285714285714285, 0.3333333333333333, 0.0, 0.1, 0.0, 0.16666666666666666, 0.0, 0.0, 0.0, 0.0, 0.0, 0.0, 0.0, 0.0, 0.0, 0.1, 0.0, 0.0, 0.0, 0.0, 0.0, 0.0, 0.0, 0.17218543046357615, 0.01098901098901099, 0.0, 0.0, 0.0, 0.0, 0.0, 0.0, 0.0, 0.0, 0.0, 0.1, 0.1, 0.1, 0.1, 0.1, 0.1, 0.1, 0.0, 0.0, 0.11764705882352941, 0.1111111111111111, 0.0, 0.1, 0.0, 0.0, 0.5, 0.0, 0.2, 0.16666666666666666, 0.1111111111111111, 0.10526315789473684, 0.0, 0.5, 0.0, 0.0, 0.1, 0.0, 0.004975124378109453, 0.12727272727272726, 0.0, 0.1, 0.0, 1.0, 0.1, 0.0, 0.0, 0.0, 0.0, 0.008403361344537815, 0.25675675675675674, 0.005208333333333333, 0.0, 0.0, 0.0, 0.0, 0.0, 0.0, 0.0, 0.0, 0.017857142857142856, 0.1, 0.0, 0.1, 0.1, 0.1, 0.1, 0.0, 0.0, 0.024, 0.23529411764705882, 0.25, 0.1, 0.1, 0.0, 0.1, 1.0, 0.75, 0.0, 0.15384615384615385, 0.15517241379310345, 0.16, 0.0, 0.6666666666666666, 0.1, 0.1, 0.0, 0.0, 0.05405405405405406, 0.11979166666666667, 0.4, 0.25, 1.0, 0.1, 0.1, 0.1, 0.0, 0.0, 0.0, 0.0, 0.2471264367816092, 0.024, 0.3333333333333333, 0.0, 0.0, 0.0, 0.0, 0.005555555555555556, 0.0, 0.0, 0.07462686567164178, 0.9733333333333334, 0.1, 0.1, 0.1, 0.0, 0.0, 0.0, 0.0, 0.21428571428571427, 0.38461538461538464, 0.1, 0.1, 0.1, 0.0, 0.0, 0.75, 0.0, 0.0, 0.08, 0.2558139534883721, 0.125, 0.1, 0.0, 0.1, 0.0, 0.09090909090909091, 0.0, 0.1111111111111111, 0.7777777777777778, 0.7837837837837838, 0.1, 0.1, 0.1, 0.1, 0.0, 0.0, 0.027777777777777776, 0.031914893617021274, 0.18518518518518517, 0.29577464788732394, 0.15555555555555556, 0.5, 0.5, 0.35135135135135137, 0.0, 0.0, 0.0, 0.0, 0.0, 0.0, 0.9745222929936306, 0.875, 0.1, 0.1, 0.0, 0.0, 0.1111111111111111, 0.13333333333333333, 0.0, 1.0, 0.68, 0.1, 0.1, 0.0, 0.0, 0.0, 0.0625, 0.16666666666666666, 0.1, 0.0, 0.021739130434782608, 0.1, 0.1, 0.0, 0.0, 0.08333333333333333, 0.16666666666666666, 0.0, 0.5, 0.4444444444444444, 0.12195121951219512, 0.0, 0.1, 0.0, 0.1, 0.0, 0.5454545454545454, 0.4, 0.0, 0.0, 0.2222222222222222, 0.1, 0.1, 0.06319702602230483, 0.0, 0.06375838926174497, 0.0, 0.0, 0.0, 0.1, 0.1, 0.006172839506172839, 0.1, 0.0, 0.0, 0.125, 0.1, 0.5, 0.0, 0.1, 0.5454545454545454, 0.0, 0.1, 0.2222222222222222, 0.14285714285714285, 0.2, 0.25, 0.1, 0.0, 0.1, 0.0, 0.5882352941176471, 0.1, 0.0, 0.1, 1.0, 0.1, 0.1, 0.0, 0.1, 0.0, 0.0, 0.1, 0.0, 0.8235294117647058, 1.0, 0.5, 0.3333333333333333, 0.1, 0.0, 0.0, 0.0, 0.1, 0.0, 0.23076923076923078, 0.15286624203821655, 0.0, 0.0, 0.0, 0.0, 0.1, 0.0, 0.0, 0.0, 0.0625, 0.0, 0.14285714285714285, 0.0, 1.0, 0.1, 0.1, 0.0, 0.0, 0.0, 0.0, 0.5, 0.0, 0.1, 0.1, 0.1, 0.1, 0.8888888888888888, 0.2, 0.0, 0.1, 0.1, 0.1, 0.1, 0.1, 0.1, 0.1, 0.0, 0.0, 0.0, 0.2857142857142857, 0.0, 0.0, 0.0, 0.1, 0.1, 0.1, 0.1, 0.1, 0.0, 0.06451612903225806, 0.6666666666666666, 0.025974025974025976, 0.0, 0.0, 0.1, 0.1, 0.1, 0.0, 0.0, 0.1, 0.2, 0.0, 0.1, 0.1, 0.1, 0.1, 0.1, 0.0, 0.0, 0.0, 0.0, 0.1, 0.1, 0.1, 0.1, 0.1, 0.1, 0.023809523809523808, 0.1, 0.1, 0.0, 0.1, 0.1, 0.1, 0.1, 0.1, 0.1, 0.0, 0.0, 0.0, 0.0, 0.0, 0.0, 0.1, 0.1, 0.1, 0.1, 0.0, 0.0, 0.625, 1.0, 0.0, 0.0, 0.0, 0.0, 0.1, 0.1, 0.1, 0.0, 0.0, 0.0, 0.1, 0.1, 0.1, 0.1, 0.1, 0.0, 0.125, 0.0, 0.0, 0.0, 0.0, 0.0, 0.0, 0.0, 0.0, 0.14285714285714285, 0.0, 0.0, 0.0, 0.0, 0.0, 0.0, 0.1, 0.1, 0.1, 0.1, 0.0, 0.0, 0.0, 0.0, 0.1, 0.0, 0.0, 0.0, 0.0, 0.1, 0.1, 0.1, 0.1, 0.0, 0.1, 0.1, 0.1, 0.0, 0.0, 0.0, 0.0, 0.0, 0.0, 0.1, 0.1, 0.1, 0.1, 0.0, 0.125, 0.09090909090909091, 0.0, 0.0, 0.0, 0.0, 0.0, 0.0, 0.1, 0.1, 0.1, 0.1, 0.1, 0.0, 0.0, 0.0, 0.0, 0.0, 0.0, 0.1, 0.1, 0.1, 0.1, 0.0, 0.0, 0.0, 0.0, 0.0, 0.0, 0.0, 0.1, 0.0, 0.1, 0.0, 0.0, 0.0, 0.0, 0.0, 0.1, 0.0, 0.0, 0.1, 0.1, 0.0, 0.1, 0.1, 0.0, 0.0, 0.0, 0.0, 0.13333333333333333, 0.2222222222222222, 0.0, 0.0, 0.0, 0.0, 0.0, 0.0, 0.0, 0.1, 0.0, 0.16666666666666666, 0.0, 0.0, 0.0, 0.0, 0.0, 0.0, 0.0, 0.0, 0.25, 0.1, 0.0, 0.0, 0.0, 0.0, 0.0, 0.0, 0.0, 0.006622516556291391, 0.01098901098901099, 0.0, 0.0, 0.0, 0.0, 0.0, 0.0, 0.0, 0.0, 0.0, 0.1, 0.1, 0.1, 0.1, 0.1, 0.1, 0.1, 0.0, 0.0, 0.11764705882352941, 0.3333333333333333, 0.0, 0.1, 0.0, 0.0, 0.0, 1.0, 0.2, 0.0, 0.0, 0.3684210526315789, 0.0, 0.0, 0.0, 0.0, 0.1, 0.0, 0.0, 0.03636363636363636, 0.0, 0.1, 0.3333333333333333, 0.0, 0.1, 0.0, 0.0, 0.0, 0.0, 0.0, 0.013513513513513514, 0.0625, 0.2, 0.25, 0.0, 0.0, 0.0, 0.0, 0.0, 0.0, 0.0, 0.1, 0.0, 0.1, 0.1, 0.1, 0.1, 0.0, 0.09090909090909091, 0.016, 0.058823529411764705, 0.0, 0.1, 0.1, 0.0, 0.1, 0.0, 0.25, 0.08333333333333333, 0.038461538461538464, 0.10344827586206896, 0.04, 0.0, 0.0, 0.1, 0.1, 0.0, 0.0, 0.02702702702702703, 0.005208333333333333, 0.0, 0.0, 0.0, 0.1, 0.1, 0.1, 0.0, 0.0, 0.0, 0.006802721088435374, 0.04597701149425287, 0.304, 0.16666666666666666, 0.0, 0.0, 0.0, 0.0, 0.0, 0.0, 0.0, 0.0, 0.0, 0.1, 0.1, 0.1, 0.0, 0.0, 0.0, 0.1111111111111111, 0.14285714285714285, 0.01282051282051282, 0.1, 0.1, 0.1, 0.0, 0.0, 0.0, 0.1, 0.0625, 0.2, 0.4186046511627907, 0.0625, 0.1, 1.0, 0.1, 0.0, 0.0, 0.045454545454545456, 0.0, 0.0, 0.09009009009009009, 0.1, 0.1, 0.1, 0.1, 0.0, 0.0, 0.0, 0.0, 0.0, 0.056338028169014086, 0.6, 0.5, 0.0, 0.0, 0.1111111111111111, 0.0, 0.0, 0.0, 0.0, 0.0, 0.0, 0.125, 0.1, 0.1, 0.0, 0.0, 0.2222222222222222, 0.06666666666666667, 0.2222222222222222, 0.0, 0.32, 0.1, 0.1, 0.0, 0.0, 0.0, 0.125, 0.1111111111111111, 0.1, 0.14285714285714285, 0.21739130434782608, 0.1, 0.1, 0.0, 0.0, 0.0, 0.0, 0.0, 0.0, 0.5555555555555556, 0.7804878048780488, 0.0, 0.1, 0.0, 0.1, 0.0, 0.0, 0.3333333333333333, 1.0, 0.07142857142857142, 0.4444444444444444, 0.1, 0.1, 0.1449814126394052, 0.0, 0.825503355704698, 0.0, 0.0, 0.0, 0.1, 0.1, 0.9876543209876543, 0.1, 0.0, 0.0, 0.041666666666666664, 0.1, 0.0, 1.0, 0.1, 0.45454545454545453, 0.8125, 0.1, 0.0, 0.14285714285714285, 0.1, 0.08333333333333333, 0.0, 0.3333333333333333, 0.1, 0.0, 0.0, 0.1, 0.0, 0.1, 0.0, 0.1, 0.1, 1.0, 0.1, 0.6666666666666666, 0.7692307692307693, 0.1, 0.0, 0.11764705882352941, 0.0, 0.07692307692307693, 0.4166666666666667, 0.1, 0.0, 0.0, 0.0, 0.1, 0.07142857142857142, 0.38461538461538464, 0.8248407643312102, 0.0, 0.0, 0.0, 0.0, 0.1, 1.0, 0.33004926108374383, 0.0, 0.03125, 0.0, 0.0, 1.0, 0.0, 0.1, 0.1, 0.8666666666666667, 0.0, 0.0, 0.0, 0.5, 0.25, 0.1, 0.1, 0.1, 0.1, 0.0, 0.4, 0.0, 0.1, 0.1, 0.1, 0.1, 0.1, 0.1, 0.1, 0.2672413793103448, 0.0, 1.0, 0.7142857142857143, 0.45454545454545453, 0.25, 0.0, 0.1, 0.1, 0.1, 0.1, 0.1, 0.0, 0.0, 0.0, 0.0, 0.0, 0.0, 0.1, 0.1, 0.1, 0.08, 0.0, 0.1, 0.0, 0.5, 0.1, 0.1, 0.1, 0.1, 0.1, 0.0, 0.5, 1.0, 0.0, 0.1, 0.1, 0.1, 0.1, 0.1, 0.1, 0.9404761904761905, 0.1, 0.1, 0.0, 0.1, 0.1, 0.1, 0.1, 0.1, 0.1, 0.0011061946902654867, 0.0, 0.0, 0.0, 0.0, 0.0, 0.1, 0.1, 0.1, 0.1, 0.9809523809523809, 0.3333333333333333, 0.0, 0.0, 0.0, 0.0, 0.0, 1.0, 0.1, 0.1, 0.1, 0.0, 0.0, 0.0, 0.1, 0.1, 0.1, 0.1, 0.1, 0.0, 0.25, 0.0, 0.0, 0.0, 0.0, 0.0, 0.0, 0.0, 0.0, 0.0, 0.0, 0.0, 0.0, 0.0, 0.0, 0.0, 0.1, 0.1, 0.1, 0.1, 0.0, 0.0, 0.0, 0.0, 0.1, 0.0, 0.0, 0.0, 0.0, 0.1, 0.1, 0.1, 0.1, 0.0, 0.1, 0.1, 0.1, 0.0, 0.0, 0.0, 0.0, 0.0, 0.0, 0.1, 0.1, 0.1, 0.1, 0.0, 0.0, 0.09090909090909091, 0.8, 0.0, 0.0, 0.0, 0.0, 0.0, 0.1, 0.1, 0.1, 0.1, 0.1, 0.0, 0.0, 0.0, 0.0, 0.0, 0.0, 0.1, 0.1, 0.1, 0.1, 0.0, 0.0, 0.0, 0.0, 0.0, 0.0, 0.0, 0.1, 0.0, 0.1, 0.0, 0.0, 0.0, 0.0, 0.0, 0.1, 0.0, 0.0, 0.1, 0.1, 0.0, 0.1, 0.1, 0.0, 0.0, 0.0, 0.0, 0.0, 0.1111111111111111, 0.0, 0.0, 0.0, 0.0, 0.0, 0.0, 0.0, 0.1, 0.0, 0.6666666666666666, 0.0, 0.0, 0.0, 0.0, 0.0, 0.0, 0.0, 0.0, 0.0, 0.1, 0.0, 0.0, 0.0, 0.0, 0.0, 0.0, 0.0, 0.0, 0.7362637362637363, 0.5, 0.0, 0.0, 0.0, 0.0, 0.0, 0.0, 0.0, 0.0, 0.1, 0.1, 0.1, 0.1, 0.1, 0.1, 0.1, 0.0, 0.0, 0.058823529411764705, 0.2222222222222222, 0.0, 0.1, 0.0, 0.0, 0.0, 0.0, 0.0, 0.0, 0.0, 0.15789473684210525, 0.25, 0.0, 0.0, 0.0, 0.1, 0.0, 0.0, 0.0, 0.0, 0.1, 0.0, 0.0, 0.1, 0.0, 0.0, 0.0, 0.0, 0.0, 0.0, 0.6510416666666666, 0.0, 0.0, 0.0, 0.0, 0.0, 0.0, 0.0, 0.0, 0.0, 0.1, 0.0, 0.1, 0.1, 0.1, 0.1, 0.0, 0.0, 0.008, 0.17647058823529413, 0.75, 0.1, 0.1, 0.0, 0.1, 0.0, 0.0, 0.08333333333333333, 0.038461538461538464, 0.06896551724137931, 0.28, 0.0, 0.3333333333333333, 0.1, 0.1, 0.0, 0.0, 0.0, 0.0, 0.0, 0.0, 0.0, 0.1, 0.1, 0.1, 0.0, 0.0, 0.0, 0.006802721088435374, 0.022988505747126436, 0.2, 0.0, 0.3333333333333333, 0.0, 0.0, 0.0, 0.0, 0.0, 0.0, 0.0, 0.0, 0.1, 0.1, 0.1, 0.0, 0.0, 0.0, 0.0, 0.0, 0.01282051282051282, 0.1, 0.1, 0.1, 0.0, 0.0, 0.0, 0.0, 0.0, 0.2, 0.11627906976744186, 0.0625, 0.1, 0.0, 0.1, 0.0, 0.0, 0.0, 0.0, 0.0, 0.0, 0.1, 0.1, 0.1, 0.1, 0.0, 0.0, 0.0, 0.010638297872340425, 0.0, 0.0, 0.17777777777777778, 0.0, 0.0, 0.0, 0.0, 0.0, 0.0, 0.0, 0.0, 0.0, 0.0, 0.0, 0.1, 0.1, 0.0, 0.0, 0.0, 0.06666666666666667, 0.1111111111111111, 0.0, 0.0, 0.1, 0.1, 0.0, 0.0, 0.0, 0.125, 0.05555555555555555, 0.23333333333333334, 0.14285714285714285, 0.15217391304347827, 0.1, 0.1, 0.0, 0.0, 0.0, 0.0, 0.0, 0.0, 0.0, 0.07317073170731707, 1.0, 0.1, 0.0, 0.1, 0.0, 0.0, 0.0, 0.0, 0.0, 0.1111111111111111, 0.1, 0.1, 0.0037174721189591076, 0.0, 0.09395973154362416, 0.0, 0.0, 0.0, 0.1, 0.1, 0.0, 0.1, 0.0, 0.0, 0.0, 0.0, 0.0, 0.0, 0.1, 0.0, 0.1875, 0.1, 0.0, 0.0, 0.0, 0.08333333333333333, 0.4, 0.0, 0.1, 1.0, 0.4117647058823529, 0.1, 0.0, 0.1, 0.0, 0.1, 0.1, 0.0, 0.1, 0.3333333333333333, 0.23076923076923078, 0.1, 0.0, 0.0, 0.0, 0.0, 0.0, 0.1, 0.3333333333333333, 0.0, 1.0, 0.1, 0.5625, 0.3076923076923077, 0.01592356687898089, 0.0, 0.0, 0.0, 0.0, 0.1, 0.0, 0.6699507389162561, 0.0, 0.0, 0.0, 0.0, 0.0, 0.0, 0.1, 0.1, 0.13333333333333333, 1.0, 0.0, 0.0, 0.0, 0.25, 0.1, 0.1, 0.1, 0.1, 0.07407407407407407, 0.0, 0.0, 0.1, 0.1, 0.1, 0.1, 0.1, 0.1, 0.1, 0.7155172413793104, 0.9608938547486033, 0.0, 0.0, 0.45454545454545453, 0.75, 1.0, 0.1, 0.1, 0.1, 0.1, 0.1, 0.7391304347826086, 0.06451612903225806, 0.0, 0.012987012987012988, 0.0, 0.0, 0.1, 0.1, 0.1, 0.92, 0.0, 0.0, 0.0, 0.0, 0.1, 0.1, 0.1, 0.1, 0.1, 0.5434782608695652, 0.0, 0.0, 0.0, 0.1, 0.1, 0.1, 0.1, 0.1, 0.1, 0.011904761904761904, 0.1, 0.1, 0.0, 0.1, 0.1, 0.1, 0.1, 0.1, 0.1, 0.37389380530973454, 0.0, 0.0, 0.0, 0.09090909090909091, 0.0, 0.1, 0.1, 0.1, 0.1, 0.009523809523809525, 0.0, 0.0, 0.0, 0.0, 0.0, 0.0, 0.0, 0.1, 0.1, 0.1, 0.0, 0.0, 0.0, 0.1, 0.1, 0.1, 0.1, 0.1, 0.0, 0.375, 0.0, 0.0, 0.0, 0.0, 0.0, 0.0, 0.0, 0.0, 0.0, 0.0, 0.0, 0.0, 0.0, 0.0, 0.0, 0.1, 0.1, 0.1, 0.1, 0.0, 0.0, 0.0, 0.0, 0.1, 0.0, 0.0, 0.0, 0.0, 0.1, 0.1, 0.1, 0.1, 0.0, 0.1, 0.1, 0.1, 0.0, 0.0, 0.0, 0.25, 0.0, 0.0, 0.1, 0.1, 0.1, 0.1, 0.0, 0.0, 0.045454545454545456, 0.2, 0.0, 0.0, 0.0, 0.0, 0.0, 0.1, 0.1, 0.1, 0.1, 0.1, 0.0, 0.0, 0.0, 0.0, 0.0, 0.0, 0.1, 0.1, 0.1, 0.1, 0.0, 0.0, 0.0, 0.0, 0.0, 0.0, 0.0, 0.1, 0.0, 0.1, 0.0, 0.0, 0.0, 0.0, 0.0, 0.1, 0.0, 0.0, 0.1, 0.1, 0.0, 0.1, 0.1, 0.0, 0.0, 0.0, 0.0, 0.06666666666666667, 0.1111111111111111, 1.0, 0.0, 0.0, 0.0, 0.0, 0.0, 0.0, 0.1, 0.0, 0.0, 1.0, 0.0, 0.0, 0.0, 0.0, 0.0, 0.0, 0.0, 0.0, 0.1, 0.0, 0.0, 0.0, 0.0, 0.0, 0.0, 0.0, 0.0, 0.23076923076923078, 0.5, 0.0, 0.0, 0.0, 0.0, 0.0, 0.0, 0.0, 0.0, 0.1, 0.1, 0.1, 0.1, 0.1, 0.1, 0.1, 0.0, 0.0, 0.0, 0.0, 1.0, 0.1, 0.0, 0.0, 0.0, 0.0, 0.0, 0.0, 0.0, 0.05263157894736842, 0.4166666666666667, 0.0, 0.0, 0.0, 0.1, 0.0, 0.0, 0.0, 0.0, 0.1, 0.0, 0.0, 0.1, 0.0, 0.0, 0.0, 0.0, 0.0, 0.0, 0.234375, 0.4, 0.0, 0.0, 0.0, 0.0, 0.0, 0.0, 0.0, 0.0, 0.1, 0.0, 0.1, 0.1, 0.1, 0.1, 0.0, 0.0, 0.008, 0.0, 0.0, 0.1, 0.1, 0.0, 0.1, 0.0, 0.0, 0.0, 0.0, 0.034482758620689655, 0.16, 0.0, 0.0, 0.1, 0.1, 0.0, 0.0, 0.0, 0.0, 0.0, 0.0, 0.0, 0.1, 0.1, 0.1, 0.0, 0.0, 0.0, 0.0, 0.005747126436781609, 0.352, 0.0, 0.0, 0.0, 0.0, 0.0, 0.0, 0.0, 0.0, 0.0, 0.0, 0.1, 0.1, 0.1, 0.0, 0.0, 0.0, 0.0, 0.0, 0.0, 0.1, 0.1, 0.1, 0.0, 0.0, 0.0, 0.0, 0.0625, 0.04, 0.0, 0.0625, 0.1, 0.0, 0.1, 0.0, 0.0, 0.0, 0.0, 0.0, 0.0, 0.1, 0.1, 0.1, 0.1, 0.0, 0.0, 0.0, 0.0, 0.0, 0.014084507042253521, 0.044444444444444446, 0.0, 0.0, 0.0, 0.0, 0.0, 0.0, 0.0, 0.0, 0.0, 0.0, 0.0, 0.1, 0.1, 0.0, 0.0, 0.0, 0.0, 0.0, 0.0, 0.0, 0.1, 0.1, 0.0, 0.0, 0.0, 0.0, 0.05555555555555555, 0.03333333333333333, 0.0, 0.043478260869565216, 0.1, 0.1, 0.0, 0.0, 0.0, 0.0, 0.0, 0.0, 0.0, 0.0, 0.0, 0.1, 0.0, 0.1, 0.0, 0.0, 0.0, 0.0, 0.0, 0.1111111111111111, 0.1, 0.1, 0.0, 0.09090909090909091, 0.006711409395973154, 0.0, 0.0, 0.0, 0.1, 0.1, 0.006172839506172839, 0.1, 0.0, 0.0, 0.0, 0.0, 0.0, 0.0, 0.1, 0.0, 0.0, 0.1, 0.0, 0.0, 0.0, 0.0, 0.1, 0.0, 0.1, 0.0, 0.0, 0.1, 0.0, 0.1, 0.0, 0.1, 0.1, 0.0, 0.1, 0.0, 0.0, 0.1, 0.0, 0.0, 0.0, 0.0, 0.0, 0.1, 0.0, 0.0, 0.0, 0.1, 0.07142857142857142, 0.0, 0.0, 0.0, 0.0, 0.0, 1.0, 0.1, 0.0, 0.0, 0.0, 0.0, 0.0, 0.0, 0.0, 0.0, 0.1, 0.1, 0.0, 0.0, 0.0, 0.0, 0.0, 0.5, 0.1, 0.1, 0.1, 0.1, 0.037037037037037035, 0.4, 0.0, 0.1, 0.1, 0.1, 0.1, 0.1, 0.1, 0.1, 0.017241379310344827, 0.03910614525139665, 0.0, 0.0, 0.0, 0.0, 0.0, 0.1, 0.1, 0.1, 0.1, 0.1, 0.17391304347826086, 0.0, 0.0, 0.0, 0.0, 0.0, 0.1, 0.1, 0.1, 0.0, 0.0, 0.0, 0.0, 0.0, 0.1, 0.1, 0.1, 0.1, 0.1, 0.45652173913043476, 0.0, 0.0, 1.0, 0.1, 0.1, 0.1, 0.1, 0.1, 0.1, 0.023809523809523808, 0.1, 0.1, 1.0, 0.1, 0.1, 0.1, 0.1, 0.1, 0.1, 0.625, 0.0, 1.0, 1.0, 0.9090909090909091, 1.0, 0.1, 0.1, 0.1, 0.1, 0.009523809523809525, 0.0, 0.0, 0.0, 0.0, 0.0, 0.0, 0.0, 0.1, 0.1, 0.1 ;
}
probability ( acceleration_stdev | roll3, total_accel_sensor_2 ) {
    table 0.1875, 0.15384615384615385, 0.125, 0.0, 0.0, 0.0, 0.0, 1.0, 0.5, 0.0, 0.3157894736842105, 0.64, 0.13333333333333333, 0.0, 0.0, 0.0, 0.0, 0.08333333333333333, 0.0, 0.0, 0.2911392405063291, 0.7619047619047619, 0.07142857142857142, 0.0, 0.0, 0.0, 0.0, 0.125, 0.0, 0.25, 0.27522935779816515, 0.6923076923076923, 0.13846153846153847, 0.0, 0.004629629629629629, 0.0, 0.0, 0.0, 0.0, 0.2, 0.08791208791208792, 0.20146520146520147, 0.03636363636363636, 0.0017421602787456446, 0.0, 0.00816326530612245, 0.0, 0.0, 0.0625, 0.0, 0.5541666666666667, 0.7545454545454545, 0.07142857142857142, 0.010309278350515464, 0.0, 0.0, 0.022988505747126436, 0.0, 0.0, 0.16666666666666666, 0.354014598540146, 0.5, 0.10344827586206896, 0.0, 0.006289308176100629, 0.0037735849056603774, 0.0040650406504065045, 0.0, 0.0, 0.030927835051546393, 0.15734989648033126, 0.17293233082706766, 0.028455284552845527, 0.011152416356877323, 0.0, 0.0, 0.006920415224913495, 0.015625, 0.0, 0.001953125, 0.5907003444316877, 0.13924050632911392, 0.16039279869067102, 0.00881057268722467, 0.002890173410404624, 0.0, 0.012048192771084338, 0.0, 0.031914893617021274, 0.00410958904109589, 0.24879614767255218, 0.11224489795918367, 0.013888888888888888, 0.0196078431372549, 0.09302325581395349, 0.046153846153846156, 0.025943396226415096, 0.035256410256410256, 0.028688524590163935, 0.015015015015015015, 0.125, 0.3076923076923077, 0.125, 0.1111111111111111, 0.0, 0.0, 0.0, 0.0, 0.0, 0.0, 0.4473684210526316, 0.12, 0.3333333333333333, 0.07142857142857142, 0.0, 0.0, 0.23076923076923078, 0.4166666666666667, 0.0, 0.0, 0.5443037974683544, 0.1111111111111111, 0.5357142857142857, 0.0, 0.0, 0.0, 0.06451612903225806, 0.0, 0.0, 0.0, 0.5688073394495413, 0.02564102564102564, 0.5384615384615384, 0.10752688172043011, 0.0, 0.0, 0.013513513513513514, 0.0, 0.3333333333333333, 0.0, 0.1565934065934066, 0.014652014652014652, 0.5818181818181818, 0.02613240418118467, 0.010869565217391304, 0.004081632653061225, 0.0, 0.0, 0.0, 0.0, 0.275, 0.15454545454545454, 0.8452380952380952, 0.14432989690721648, 0.0, 0.00641025641025641, 0.04597701149425287, 0.0, 0.0, 0.0, 0.3722627737226277, 0.3942307692307692, 0.7586206896551724, 0.23076923076923078, 0.031446540880503145, 0.007547169811320755, 0.08943089430894309, 0.0, 0.0, 0.0, 0.33954451345755693, 0.39097744360902253, 0.2601626016260163, 0.09293680297397769, 0.0070921985815602835, 0.0, 0.01730103806228374, 0.0, 0.0, 0.0, 0.22445464982778415, 0.6075949367088608, 0.6710310965630114, 0.07048458149779736, 0.011560693641618497, 0.017241379310344827, 0.03614457831325301, 0.029166666666666667, 0.1595744680851064, 0.0, 0.3852327447833066, 0.5102040816326531, 0.027777777777777776, 0.1568627450980392, 0.011627906976744186, 0.0, 0.0, 0.003205128205128205, 0.028688524590163935, 0.015015015015015015, 0.25, 0.0, 0.125, 0.2222222222222222, 0.0, 0.0, 0.0, 0.0, 0.0, 0.0, 0.02631578947368421, 0.04, 0.06666666666666667, 0.6428571428571429, 0.05555555555555555, 0.0, 0.0, 0.0, 0.0, 0.0, 0.02531645569620253, 0.015873015873015872, 0.03571428571428571, 0.3333333333333333, 0.03636363636363636, 0.0, 0.08602150537634409, 0.0, 0.0, 0.0, 0.08256880733944955, 0.0, 0.015384615384615385, 0.43010752688172044, 0.08796296296296297, 0.0, 0.25675675675675674, 0.05263157894736842, 0.0, 0.2, 0.038461538461538464, 0.01098901098901099, 0.00909090909090909, 0.09233449477351917, 0.06884057971014493, 0.012244897959183673, 0.0, 0.023255813953488372, 0.25, 0.4, 0.12083333333333333, 0.0, 0.011904761904761904, 0.6391752577319587, 0.3153153153153153, 0.019230769230769232, 0.034482758620689655, 0.0, 0.08695652173913043, 0.0, 0.2518248175182482, 0.028846153846153848, 0.0, 0.5461538461538461, 0.10062893081761007, 0.0830188679245283, 0.24390243902439024, 0.018518518518518517, 0.1111111111111111, 0.0, 0.4865424430641822, 0.3082706766917293, 0.540650406504065, 0.26765799256505574, 0.04964539007092199, 0.02727272727272727, 0.2768166089965398, 0.25, 0.0, 0.0, 0.09988518943742825, 0.05786618444846293, 0.08183306055646482, 0.14977973568281938, 0.028901734104046242, 0.0603448275862069, 0.1566265060240964, 0.2375, 0.05319148936170213, 0.0013698630136986301, 0.0754414125200642, 0.14285714285714285, 0.0015432098765432098, 0.13725490196078433, 0.05813953488372093, 0.007692307692307693, 0.009433962264150943, 0.009615384615384616, 0.01639344262295082, 0.003003003003003003, 0.0, 0.0, 0.0, 0.1111111111111111, 0.16666666666666666, 0.14285714285714285, 0.0, 0.0, 0.0, 0.16666666666666666, 0.0, 0.0, 0.0, 0.0, 0.2222222222222222, 0.17391304347826086, 0.3076923076923077, 0.0, 0.0, 0.0, 0.0, 0.015873015873015872, 0.10714285714285714, 0.030303030303030304, 0.2727272727272727, 0.08928571428571429, 0.16129032258064516, 0.0, 0.0, 0.0, 0.0, 0.01282051282051282, 0.015384615384615385, 0.010752688172043012, 0.11574074074074074, 0.06557377049180328, 0.05405405405405406, 0.21052631578947367, 0.3333333333333333, 0.6, 0.005494505494505495, 0.003663003663003663, 0.0, 0.0, 0.19927536231884058, 0.07346938775510205, 0.20224719101123595, 0.23255813953488372, 0.1875, 0.0, 0.008333333333333333, 0.0, 0.011904761904761904, 0.010309278350515464, 0.5225225225225225, 0.28205128205128205, 0.04597701149425287, 0.058823529411764705, 0.2608695652173913, 0.0, 0.0036496350364963502, 0.009615384615384616, 0.0, 0.0, 0.2830188679245283, 0.2792452830188679, 0.1910569105691057, 0.2037037037037037, 0.1111111111111111, 0.0, 0.004140786749482402, 0.05263157894736842, 0.056910569105691054, 0.007434944237918215, 0.23404255319148937, 0.2545454545454545, 0.28027681660899656, 0.4479166666666667, 0.07462686567164178, 0.005859375, 0.05970149253731343, 0.12115732368896925, 0.041734860883797055, 0.022026431718061675, 0.05202312138728324, 0.2672413793103448, 0.2289156626506024, 0.4041666666666667, 0.02127659574468085, 0.0, 0.0, 0.04081632653061224, 0.0015432098765432098, 0.0196078431372549, 0.10465116279069768, 0.06923076923076923, 0.10613207547169812, 0.022435897435897436, 0.012295081967213115, 0.0, 0.0, 0.0, 0.0, 0.0, 0.4166666666666667, 0.42857142857142855, 0.5, 0.0, 0.5, 0.0, 0.0, 0.0, 0.06666666666666667, 0.07142857142857142, 0.3333333333333333, 0.43478260869565216, 0.15384615384615385, 0.16666666666666666, 1.0, 0.0, 0.012658227848101266, 0.0, 0.10714285714285714, 0.18181818181818182, 0.07272727272727272, 0.5535714285714286, 0.3333333333333333, 0.25, 0.0, 0.25, 0.027522935779816515, 0.0, 0.015384615384615385, 0.043010752688172046, 0.1527777777777778, 0.639344262295082, 0.22972972972972974, 0.05263157894736842, 0.0, 0.0, 0.0, 0.0, 0.00909090909090909, 0.3118466898954704, 0.5507246376811594, 0.24081632653061225, 0.3707865168539326, 0.32558139534883723, 0.1875, 0.2, 0.0, 0.0, 0.0, 0.061855670103092786, 0.10810810810810811, 0.6346153846153846, 0.20689655172413793, 0.3058823529411765, 0.0, 0.0, 0.0, 0.0, 0.05172413793103448, 0.07692307692307693, 0.13836477987421383, 0.49056603773584906, 0.1991869918699187, 0.2962962962962963, 0.0, 0.0, 0.0, 0.0, 0.032520325203252036, 0.040892193308550186, 0.10638297872340426, 0.4636363636363636, 0.1903114186851211, 0.19791666666666666, 0.029850746268656716, 0.0, 0.008036739380022962, 0.007233273056057866, 0.006546644844517185, 0.048458149779735685, 0.07225433526011561, 0.33620689655172414, 0.3253012048192771, 0.22916666666666666, 0.06382978723404255, 0.00410958904109589, 0.0, 0.0, 0.0, 0.058823529411764705, 0.08139534883720931, 0.6846153846153846, 0.6816037735849056, 0.2532051282051282, 0.00819672131147541, 0.003003003003003003, 0.0, 0.15384615384615385, 0.125, 0.0, 0.0, 0.2857142857142857, 0.5, 0.0, 0.0, 0.0, 0.02631578947368421, 0.12, 0.13333333333333333, 0.07142857142857142, 0.3888888888888889, 0.391304347826087, 0.23076923076923078, 0.08333333333333333, 0.0, 0.0, 0.02531645569620253, 0.015873015873015872, 0.07142857142857142, 0.30303030303030304, 0.6181818181818182, 0.35714285714285715, 0.26881720430107525, 0.125, 1.0, 0.0, 0.0, 0.01282051282051282, 0.09230769230769231, 0.3010752688172043, 0.6296296296296297, 0.29508196721311475, 0.3783783783783784, 0.21052631578947367, 0.0, 0.0, 0.008241758241758242, 0.02197802197802198, 0.16363636363636364, 0.3205574912891986, 0.10144927536231885, 0.636734693877551, 0.38202247191011235, 0.06976744186046512, 0.0625, 0.0, 0.0, 0.00909090909090909, 0.0, 0.030927835051546393, 0.018018018018018018, 0.03205128205128205, 0.6091954022988506, 0.3176470588235294, 0.0, 0.0, 0.0, 0.0, 0.034482758620689655, 0.05384615384615385, 0.27672955974842767, 0.11320754716981132, 0.2601626016260163, 0.09259259259259259, 0.0, 0.0, 0.010351966873706004, 0.022556390977443608, 0.024390243902439025, 0.05204460966542751, 0.1276595744680851, 0.17272727272727273, 0.20069204152249134, 0.041666666666666664, 0.0, 0.0, 0.008610792192881744, 0.0054249547920434, 0.004091653027823241, 0.05726872246696035, 0.05491329479768786, 0.12931034482758622, 0.21686746987951808, 0.0375, 0.010638297872340425, 0.0027397260273972603, 0.02247191011235955, 0.01020408163265306, 0.0015432098765432098, 0.11764705882352941, 0.06976744186046512, 0.038461538461538464, 0.15566037735849056, 0.5128205128205128, 0.028688524590163935, 0.003003003003003003, 0.0625, 0.0, 0.125, 0.2222222222222222, 0.16666666666666666, 0.14285714285714285, 0.0, 0.0, 0.0, 0.0, 0.0, 0.0, 0.13333333333333333, 0.07142857142857142, 0.0, 0.0, 0.0, 0.08333333333333333, 0.0, 0.0, 0.02531645569620253, 0.015873015873015872, 0.03571428571428571, 0.0, 0.0, 0.0, 0.08602150537634409, 0.375, 0.0, 0.0, 0.0, 0.02564102564102564, 0.015384615384615385, 0.03225806451612903, 0.0, 0.0, 0.06756756756756757, 0.42105263157894735, 0.0, 0.0, 0.5824175824175825, 0.03296703296703297, 0.02727272727272727, 0.2264808362369338, 0.057971014492753624, 0.024489795918367346, 0.0449438202247191, 0.27906976744186046, 0.0625, 0.0, 0.0, 0.0, 0.047619047619047616, 0.030927835051546393, 0.018018018018018018, 0.02564102564102564, 0.022988505747126436, 0.23529411764705882, 0.0, 0.0, 0.0072992700729927005, 0.019230769230769232, 0.034482758620689655, 0.06923076923076923, 0.14465408805031446, 0.018867924528301886, 0.012195121951219513, 0.3333333333333333, 0.05555555555555555, 0.0, 0.0, 0.007518796992481203, 0.028455284552845527, 0.11895910780669144, 0.2695035460992908, 0.06363636363636363, 0.020761245674740483, 0.036458333333333336, 0.0, 0.0, 0.0, 0.003616636528028933, 0.01309328968903437, 0.1277533039647577, 0.06069364161849711, 0.12931034482758622, 0.024096385542168676, 0.05416666666666667, 0.02127659574468085, 0.0, 0.09309791332263243, 0.0, 0.45524691358024694, 0.21568627450980393, 0.1511627906976744, 0.05384615384615385, 0.018867924528301886, 0.125, 0.6516393442622951, 0.0, 0.1875, 0.23076923076923078, 0.25, 0.1111111111111111, 0.25, 0.0, 0.0, 0.0, 0.0, 0.0, 0.07894736842105263, 0.08, 0.13333333333333333, 0.07142857142857142, 0.0, 0.0, 0.07692307692307693, 0.16666666666666666, 0.0, 0.0, 0.02531645569620253, 0.031746031746031744, 0.03571428571428571, 0.030303030303030304, 0.0, 0.0, 0.0, 0.125, 0.0, 0.0, 0.009174311926605505, 0.15384615384615385, 0.046153846153846156, 0.0, 0.0, 0.0, 0.0, 0.05263157894736842, 0.0, 0.0, 0.10164835164835165, 0.029304029304029304, 0.09090909090909091, 0.008710801393728223, 0.007246376811594203, 0.0, 0.0, 0.06976744186046512, 0.0625, 0.0, 0.008333333333333333, 0.02727272727272727, 0.011904761904761904, 0.05154639175257732, 0.018018018018018018, 0.0, 0.011494252873563218, 0.08235294117647059, 0.34782608695652173, 0.0, 0.0, 0.009615384615384616, 0.017241379310344827, 0.023076923076923078, 0.018867924528301886, 0.0037735849056603774, 0.0, 0.05555555555555555, 0.1111111111111111, 0.0, 0.0, 0.015037593984962405, 0.028455284552845527, 0.4052044609665427, 0.20567375886524822, 0.01818181818181818, 0.0034602076124567475, 0.010416666666666666, 0.08955223880597014, 0.0, 0.001148105625717566, 0.0108499095840868, 0.009819967266775777, 0.15859030837004406, 0.06358381502890173, 0.008620689655172414, 0.0, 0.008333333333333333, 0.11702127659574468, 0.08904109589041095, 0.12680577849117175, 0.11224489795918367, 0.4845679012345679, 0.19607843137254902, 0.10465116279069768, 0.03076923076923077, 0.0023584905660377358, 0.038461538461538464, 0.0860655737704918, 0.4144144144144144, 0.0625, 0.0, 0.0, 0.2222222222222222, 0.0, 0.0, 0.0, 0.0, 0.0, 0.0, 0.10526315789473684, 0.0, 0.0, 0.0, 0.0, 0.0, 0.0, 0.0, 0.0, 0.16666666666666666, 0.0379746835443038, 0.031746031746031744, 0.0, 0.0, 0.0, 0.0, 0.0, 0.0, 0.0, 0.0, 0.027522935779816515, 0.0641025641025641, 0.1076923076923077, 0.021505376344086023, 0.004629629629629629, 0.0, 0.0, 0.0, 0.3333333333333333, 0.0, 0.019230769230769232, 0.13186813186813187, 0.07272727272727272, 0.008710801393728223, 0.0036231884057971015, 0.0, 0.0, 0.0, 0.125, 0.2, 0.020833333333333332, 0.05454545454545454, 0.0, 0.020618556701030927, 0.0, 0.0, 0.0, 0.0, 0.30434782608695654, 0.3333333333333333, 0.0072992700729927005, 0.028846153846153848, 0.0, 0.0, 0.0, 0.0, 0.0, 0.0, 0.6111111111111112, 0.26804123711340205, 0.0, 0.015037593984962405, 0.0, 0.0037174721189591076, 0.0, 0.0, 0.0, 0.0, 0.8059701492537313, 0.142578125, 0.002296211251435132, 0.034358047016274866, 0.00900163666121113, 0.3436123348017621, 0.26878612716763006, 0.017241379310344827, 0.0, 0.0, 0.5212765957446809, 0.12054794520547946, 0.03691813804173355, 0.061224489795918366, 0.009259259259259259, 0.0392156862745098, 0.023255813953488372, 0.03076923076923077, 0.0, 0.0, 0.13934426229508196, 0.07507507507507508, 0.125, 0.15384615384615385, 0.125, 0.0, 0.0, 0.0, 0.0, 0.0, 0.0, 0.8333333333333334, 0.0, 0.0, 0.0, 0.0, 0.0, 0.0, 0.0, 0.0, 0.0, 0.8333333333333334, 0.012658227848101266, 0.0, 0.0, 0.12121212121212122, 0.0, 0.0, 0.0, 0.0, 0.0, 0.5, 0.009174311926605505, 0.01282051282051282, 0.015384615384615385, 0.053763440860215055, 0.004629629629629629, 0.0, 0.0, 0.0, 0.0, 0.0, 0.0, 0.5531135531135531, 0.00909090909090909, 0.003484320557491289, 0.0, 0.0, 0.0, 0.0, 0.0, 0.2, 0.0125, 0.0, 0.0, 0.0, 0.0, 0.0, 0.0, 0.0, 0.0, 0.5, 0.0036496350364963502, 0.009615384615384616, 0.0, 0.0, 0.0, 0.0, 0.0, 0.0, 0.0, 0.7010309278350515, 0.002070393374741201, 0.015037593984962405, 0.0, 0.0, 0.0, 0.0, 0.0034602076124567475, 0.0, 0.0, 0.849609375, 0.005166475315729047, 0.012658227848101266, 0.0024549918166939444, 0.013215859030837005, 0.38439306358381503, 0.034482758620689655, 0.0, 0.0, 0.0, 0.7780821917808219, 0.011235955056179775, 0.01020408163265306, 0.004629629629629629, 0.0392156862745098, 0.3023255813953488, 0.038461538461538464, 0.0, 0.0, 0.0, 0.47147147147147145 ;
}
probability ( classes | acceleration_stdev, roll3, total_accel_sensor_2 ) {
    table 0.0, 0.5, 0.0, 0.2, 0.2, 0.2, 0.2, 0.0, 0.0, 0.2, 0.4166666666666667, 0.875, 0.0, 0.2, 0.2, 0.2, 0.2, 0.0, 0.2, 0.2, 0.6956521739130435, 0.875, 0.0, 0.2, 0.2, 0.2, 0.2, 0.0, 0.2, 0.0, 0.26666666666666666, 0.6481481481481481, 0.0, 0.2, 0.0, 0.2, 0.2, 0.2, 0.2, 0.0, 0.125, 0.2909090909090909, 0.25, 0.0, 0.2, 0.0, 0.2, 0.2, 0.0, 0.2, 0.022556390977443608, 0.07228915662650602, 0.0, 0.0, 0.2, 0.2, 0.0, 0.2, 0.2, 1.0, 0.0, 0.0, 0.0, 0.2, 0.0, 0.0, 0.0, 0.2, 0.2, 0.6666666666666666, 0.013157894736842105, 0.0, 0.0, 0.0, 0.2, 0.2, 0.0, 0.0, 0.2, 1.0, 0.0, 0.0, 0.0, 0.0, 0.0, 0.2, 0.0, 0.2, 1.0, 1.0, 0.05161290322580645, 0.2727272727272727, 0.1111111111111111, 0.0, 0.0, 0.0, 0.0, 0.0, 0.0, 0.2, 0.5, 0.25, 0.0, 0.0, 0.2, 0.2, 0.2, 0.2, 0.2, 0.2, 0.7058823529411765, 0.6666666666666666, 0.0, 0.0, 0.2, 0.2, 0.0, 0.0, 0.2, 0.2, 0.9767441860465116, 0.8571428571428571, 0.0, 0.2, 0.2, 0.2, 0.0, 0.2, 0.2, 0.2, 0.9838709677419355, 1.0, 0.0, 0.0, 0.2, 0.2, 0.0, 0.2, 0.0, 0.2, 0.8771929824561403, 0.25, 0.0, 0.0, 0.0, 0.0, 0.2, 0.2, 0.2, 0.2, 0.2878787878787879, 0.0, 0.0, 0.0, 0.2, 0.0, 0.25, 0.2, 0.2, 0.2, 0.049019607843137254, 0.024390243902439025, 0.0, 0.0, 0.0, 0.0, 0.0, 0.2, 0.2, 0.2, 0.018292682926829267, 0.0, 0.0, 0.0, 0.0, 0.2, 0.0, 0.2, 0.2, 0.2, 0.005115089514066497, 0.0, 0.0, 0.0, 0.0, 0.0, 1.0, 1.0, 1.0, 0.2, 0.004166666666666667, 0.0, 0.0, 0.0, 0.0, 0.2, 0.2, 1.0, 1.0, 1.0, 0.0, 0.2, 0.0, 0.0, 0.2, 0.2, 0.2, 0.2, 0.2, 0.2, 0.0, 0.0, 0.0, 0.0, 0.0, 0.2, 0.2, 0.2, 0.2, 0.2, 0.5, 0.0, 0.0, 0.0, 0.0, 0.2, 0.0, 0.2, 0.2, 0.2, 1.0, 0.2, 0.0, 0.0, 0.0, 0.2, 0.0, 0.0, 0.2, 0.0, 0.5, 0.0, 0.0, 0.0, 0.0, 0.0, 0.2, 0.0, 0.25, 0.0, 0.27586206896551724, 0.2, 0.0, 0.0, 0.0, 0.0, 0.0, 0.2, 0.0, 0.2, 0.014492753623188406, 0.0, 0.2, 0.0, 0.0, 0.0, 0.0, 0.0, 0.0, 0.2, 0.0, 0.0, 0.0, 0.013888888888888888, 0.0, 0.0, 0.0, 0.020833333333333332, 0.2, 0.2, 0.0, 0.0, 0.0, 0.0, 0.0, 0.5714285714285714, 0.7692307692307693, 0.19298245614035087, 0.8, 0.0, 0.0, 0.0, 0.0, 0.42857142857142855, 0.4, 0.0, 0.0, 1.0, 1.0, 1.0, 0.2, 0.2, 0.2, 0.0, 0.0, 0.0, 0.2, 0.2, 0.2, 0.0, 0.2, 0.2, 0.2, 0.2, 0.0, 0.0, 0.0, 0.2, 0.2, 0.2, 0.2, 0.0, 0.0, 0.0, 0.0, 0.0, 0.0, 0.2, 0.2, 0.2, 0.2, 0.0, 0.0, 0.0, 0.0, 0.0, 0.0, 0.0, 0.0, 0.0, 0.0, 0.0, 0.2, 0.2, 0.0, 0.0, 0.0, 0.0, 0.0, 0.2, 0.0, 0.2, 0.0, 0.0, 0.0, 0.0, 0.0, 0.0, 0.0, 0.2, 0.0, 0.0, 0.2, 0.2, 0.0, 0.0, 0.02127659574468085, 0.0, 0.0, 0.2, 0.0, 0.0, 0.0, 0.0, 0.030303030303030304, 0.0, 0.0, 0.0, 0.0, 0.0, 0.0, 0.0, 0.0, 0.0, 0.05555555555555555, 0.41935483870967744, 0.6842105263157895, 0.030927835051546393, 0.0, 0.2, 0.2, 0.0, 0.0, 0.0, 0.4444444444444444, 0.3333333333333333, 0.06666666666666667, 0.8571428571428571, 0.3333333333333333, 0.2, 0.2, 0.2, 0.2, 0.2, 0.0, 0.0, 0.0, 0.2, 0.0, 0.2, 0.2, 0.2, 0.0, 1.0, 0.0, 0.0, 0.0, 0.0, 0.0, 0.2, 0.0, 0.2, 0.0, 0.16666666666666666, 0.0, 0.03225806451612903, 0.0, 0.0, 0.2, 0.0, 0.0, 0.2, 0.0, 0.0, 0.030303030303030304, 0.10256410256410256, 0.0, 0.0, 0.2, 0.2, 0.2, 0.2, 0.0, 0.0, 0.0, 0.0, 0.0, 0.0, 0.0, 0.0, 0.2, 0.2, 0.2, 0.0, 0.0, 0.09090909090909091, 0.05555555555555555, 0.0, 0.2, 0.2, 0.2, 0.2, 0.0, 0.0, 0.0, 0.007692307692307693, 0.0, 0.0, 0.2, 0.2, 0.2, 0.2, 0.0, 0.18181818181818182, 0.06666666666666667, 0.29411764705882354, 0.0, 0.0, 0.0, 0.2, 0.0, 0.0, 0.0, 0.18181818181818182, 0.36, 0.3076923076923077, 0.14814814814814814, 0.0, 0.0, 0.0, 0.2, 0.2, 0.2, 0.0, 0.0, 0.9325842696629213, 0.04152249134948097, 0.05063291139240506, 0.0, 0.0, 0.2, 0.5, 0.0, 0.2, 0.2, 0.5, 0.0, 0.2, 0.2, 0.2, 0.0, 0.3333333333333333, 0.0, 0.0, 0.0, 0.0, 0.0, 0.0, 0.2, 0.2, 0.0, 1.0, 0.0, 0.0, 0.0, 0.0, 0.0, 0.0, 0.0, 0.2, 0.2, 1.0, 0.0, 0.03571428571428571, 0.0, 0.0, 0.03571428571428571, 0.0, 0.2, 0.2, 0.0, 0.3333333333333333, 0.05555555555555555, 0.005434782608695652, 0.03571428571428571, 0.0, 0.029411764705882353, 0.0, 0.0, 0.2, 0.2, 0.0, 0.2, 0.0, 0.0, 0.0, 0.03773584905660377, 0.0, 0.2, 0.2, 0.2, 0.2, 0.0, 0.0, 0.0, 0.0, 0.0, 0.0, 0.2, 0.2, 0.0, 0.0, 0.0, 0.14285714285714285, 0.0, 0.0, 0.2413793103448276, 0.0, 0.2, 0.2, 0.0, 0.0, 0.0, 0.46153846153846156, 0.3684210526315789, 0.5333333333333333, 0.05555555555555555, 0.0, 0.0, 0.0, 0.0, 0.0, 1.0, 0.16666666666666666, 0.16666666666666666, 1.0, 0.8939393939393939, 0.0, 0.0, 0.0, 0.0, 0.2, 1.0, 0.0, 0.0, 0.0, 0.2, 0.2, 0.2, 0.2, 0.2, 0.2, 0.5, 0.0, 0.2, 0.2, 0.2, 0.0, 0.2, 0.2, 0.0, 0.0, 1.0, 0.2, 0.2, 0.2, 0.0, 0.0, 0.2, 0.2, 0.2, 0.5, 1.0, 0.3333333333333333, 0.2, 0.2, 0.0, 0.0, 0.2, 0.2, 0.0, 0.0, 0.0, 0.007692307692307693, 0.0625, 0.0, 0.0, 0.0, 0.0, 0.2, 0.2, 0.2, 0.0, 0.0, 0.0, 0.0, 0.5, 0.0, 0.2, 0.2, 0.0, 0.5, 0.5, 0.1111111111111111, 0.0, 0.0, 0.0, 0.0, 0.0, 0.2, 0.2, 1.0, 0.14285714285714285, 0.0, 0.0, 0.0, 0.0, 0.2857142857142857, 0.2, 0.2, 0.2, 0.5, 0.5625, 0.20689655172413793, 0.47619047619047616, 0.4, 0.0, 0.0, 0.0, 0.2, 0.0, 0.2, 0.0, 0.0, 0.3076923076923077, 0.42857142857142855, 0.875, 0.5897435897435898, 0.0, 0.2, 0.0, 0.3333333333333333, 0.5, 0.0, 0.3333333333333333, 0.2, 0.2, 0.2, 0.2, 0.2, 0.0, 1.0, 1.0, 0.0, 0.2, 0.2, 0.0, 0.0, 0.2, 0.2, 0.5, 1.0, 1.0, 1.0, 0.2, 0.2, 0.2, 0.0, 0.2, 0.2, 1.0, 0.08333333333333333, 0.0, 0.2, 0.2, 0.2, 0.2, 0.0, 0.2, 0.2, 0.05405405405405406, 0.125, 0.1, 0.0, 0.0, 0.2, 0.2, 0.0, 0.0, 0.2, 0.0, 0.0, 0.0, 0.0, 0.0, 0.2, 0.0, 0.0, 0.0, 0.2, 0.2, 0.0, 1.0, 0.0, 0.0, 0.0, 0.2, 0.0, 0.0, 0.2, 0.2, 0.5, 0.8571428571428571, 0.009174311926605505, 0.0, 0.0, 0.0, 0.0, 0.16666666666666666, 0.2, 0.0, 0.8333333333333334, 0.9166666666666666, 0.16666666666666666, 0.18181818181818182, 0.0, 0.2, 0.0, 0.0, 0.0, 0.0, 0.0, 0.0031847133757961785, 0.2, 0.1111111111111111, 0.5, 0.0, 0.9166666666666666, 0.7142857142857143, 0.0, 1.0, 0.2, 0.2, 0.0, 0.2, 0.2, 0.2, 0.2, 0.2, 0.2, 1.0, 0.2, 0.2, 0.2, 0.2, 0.2, 0.2, 0.2, 0.2, 0.0, 1.0, 1.0, 0.2, 0.2, 0.2, 0.2, 0.2, 0.2, 0.2, 0.2, 0.3333333333333333, 0.2, 0.0, 0.0, 0.0, 0.2, 0.2, 0.2, 0.0, 0.2, 0.14285714285714285, 0.0, 0.0, 0.0, 0.0, 0.2, 0.2, 0.2, 0.0, 0.0, 0.2, 0.5, 0.2, 0.0, 0.2, 0.2, 0.2, 0.2, 0.0, 0.0, 0.5, 0.3333333333333333, 0.2, 0.2, 0.2, 0.2, 0.2, 0.2, 0.0, 0.0, 0.2, 1.0, 0.2, 0.0, 0.2, 0.2, 0.2, 0.2, 0.0, 0.0, 1.0, 1.0, 1.0, 0.0641025641025641, 0.0, 0.0, 0.2, 0.2, 0.0, 0.0, 0.043478260869565216, 0.6666666666666666, 0.8333333333333334, 1.0, 1.0, 0.25, 0.2, 0.2, 0.4411764705882353, 0.28, 0.0, 0.0, 0.0, 0.2, 0.2, 0.2, 0.2, 0.2, 0.2, 0.0, 0.2, 0.2, 0.2, 0.2, 0.2, 0.2, 0.2, 0.2, 0.2, 0.0, 1.0, 0.2, 0.2, 0.0, 0.2, 0.2, 0.2, 0.2, 0.2, 0.5, 1.0, 1.0, 0.0, 0.0, 0.0, 0.2, 0.2, 0.2, 0.2, 0.2, 0.2, 0.0, 0.0, 0.0, 0.2, 0.2, 0.2, 0.2, 0.2, 0.0, 0.6666666666666666, 0.2, 0.2, 0.2, 0.2, 0.2, 0.2, 0.2, 0.2, 0.0, 1.0, 1.0, 0.2, 0.2, 0.2, 0.2, 0.2, 0.2, 0.2, 0.0, 0.0, 0.0, 0.2, 0.2, 0.2, 0.2, 0.0, 0.2, 0.2, 0.006896551724137931, 1.0, 1.0, 0.6666666666666666, 0.0, 0.0, 0.0, 0.2, 0.2, 0.2, 0.0, 0.14285714285714285, 1.0, 1.0, 1.0, 0.0, 0.0, 0.2, 0.2, 0.2, 0.267515923566879, 0.3333333333333333, 0.5, 1.0, 0.2, 0.2, 0.2, 0.2, 0.0, 0.0, 0.2, 0.0, 0.0, 0.0, 0.2, 0.2, 0.2, 0.2, 0.0, 0.2, 0.2, 0.0, 0.0, 0.0, 0.2, 0.2, 0.2, 0.2, 0.0, 0.2, 0.0, 0.0, 0.0, 0.0, 0.2, 0.0, 0.2, 0.2, 0.2, 0.2, 0.0, 0.21875, 0.0, 0.0, 1.0, 0.2, 0.0, 0.2, 0.2, 1.0, 0.2, 0.6766917293233082, 0.39759036144578314, 0.0, 0.0, 0.2, 0.2, 0.0, 0.2, 0.2, 0.0, 0.6185567010309279, 0.3269230769230769, 0.16666666666666666, 0.2, 0.0, 0.0, 0.0, 0.2, 0.2, 0.0, 0.5394736842105263, 0.21739130434782608, 0.2857142857142857, 1.0, 0.2, 0.2, 0.0, 0.0, 0.2, 0.0, 0.013605442176870748, 0.012987012987012988, 0.0, 1.0, 0.0, 0.2, 0.0, 0.2, 0.0, 0.0, 0.05806451612903226, 0.5454545454545454, 0.4444444444444444, 0.0, 1.0, 1.0, 1.0, 1.0, 0.8571428571428571, 0.4, 0.0, 0.0, 0.0, 0.0, 0.2, 0.2, 0.2, 0.2, 0.2, 0.2, 0.058823529411764705, 0.0, 0.0, 0.0, 0.2, 0.2, 0.0, 0.0, 0.2, 0.2, 0.0, 0.0, 0.0, 0.2, 0.2, 0.2, 0.0, 0.2, 0.2, 0.2, 0.0, 0.0, 0.0, 0.1, 0.2, 0.2, 0.0, 0.2, 0.0, 0.2, 0.0, 0.25, 0.03125, 0.13333333333333333, 0.0, 0.0, 0.2, 0.2, 0.2, 0.2, 0.09090909090909091, 0.0, 0.014084507042253521, 0.14285714285714285, 0.2, 0.0, 0.0, 0.2, 0.2, 0.2, 0.029411764705882353, 0.0, 0.0, 0.06666666666666667, 0.8, 0.0, 0.0, 0.2, 0.2, 0.2, 0.06707317073170732, 0.0, 0.0, 0.12, 1.0, 0.2, 0.0, 0.2, 0.2, 0.2, 0.08184143222506395, 0.0, 0.0012195121951219512, 0.3125, 0.0, 0.0, 0.0, 0.0, 0.0, 0.2, 0.09166666666666666, 0.16, 0.6666666666666666, 1.0, 0.0, 0.2, 0.2, 0.0, 0.0, 0.0, 0.0, 0.2, 0.0, 0.0, 0.2, 0.2, 0.2, 0.2, 0.2, 0.2, 0.0, 1.0, 0.0, 0.1111111111111111, 0.0, 0.2, 0.2, 0.2, 0.2, 0.2, 0.0, 0.0, 1.0, 0.0, 0.0, 0.2, 0.0, 0.2, 0.2, 0.2, 0.0, 0.2, 1.0, 0.025, 0.10526315789473684, 0.2, 0.0, 0.0, 0.2, 1.0, 0.21428571428571427, 0.6666666666666666, 1.0, 0.05660377358490566, 0.0, 0.0, 0.2, 1.0, 0.75, 0.5, 0.0, 0.2, 1.0, 0.016129032258064516, 0.08571428571428572, 0.0, 0.0, 0.2, 1.0, 0.2, 0.014492753623188406, 0.3333333333333333, 0.2, 0.014084507042253521, 0.0625, 0.0, 0.0, 0.0, 0.5, 0.2, 0.0, 0.0, 0.0, 0.0, 0.0, 0.3333333333333333, 0.0, 0.0, 0.2, 0.2, 0.0, 0.0, 0.0, 0.0, 0.4, 0.0, 0.0, 0.0, 0.0, 0.0, 0.0, 0.0, 0.0, 0.0, 0.4, 0.0, 0.0, 0.0, 0.0, 0.0, 0.2, 0.2, 0.2, 0.0, 0.0, 0.0, 0.2, 0.2, 0.2, 0.0, 0.2, 0.2, 0.2, 0.2, 0.0, 0.0, 0.0, 0.2, 0.2, 0.2, 0.2, 0.0, 0.3333333333333333, 1.0, 0.06666666666666667, 0.0, 0.0, 0.2, 0.2, 0.2, 0.2, 1.0, 1.0, 0.0, 0.0, 0.0, 0.0, 0.0, 0.0, 0.0, 1.0, 1.0, 0.2, 0.2, 0.01818181818181818, 0.05555555555555555, 0.2222222222222222, 0.8, 0.3333333333333333, 0.2, 1.0, 0.2, 0.0, 0.0, 0.0, 0.045454545454545456, 0.25, 0.6, 0.8333333333333334, 0.2, 0.0, 0.0, 0.2, 0.2, 0.022222222222222223, 0.02702702702702703, 0.0851063829787234, 0.45454545454545453, 1.0, 0.2, 0.0, 0.0, 0.0, 0.0, 0.0, 0.03571428571428571, 0.0, 0.023255813953488372, 0.6, 0.6666666666666666, 0.0, 0.0, 0.0, 0.0, 0.0, 0.12903225806451613, 0.0, 0.010309278350515464, 0.5, 0.2, 0.2, 0.0, 0.0, 0.0, 0.2222222222222222, 0.2222222222222222, 0.0, 0.0, 0.0, 0.2, 0.2, 0.2, 0.2, 0.2, 0.0, 0.0, 1.0, 0.2, 0.0, 0.2, 0.2, 0.2, 0.0, 0.0, 0.0, 0.0, 0.0, 0.0, 0.0, 0.2, 1.0, 0.2, 1.0, 0.3333333333333333, 0.5, 0.03225806451612903, 0.0, 0.0, 0.2, 0.0, 1.0, 0.2, 0.0, 0.5, 0.030303030303030304, 0.02564102564102564, 0.058823529411764705, 0.0, 0.2, 0.2, 0.2, 0.2, 0.0, 0.0, 0.03289473684210526, 0.15254237288135594, 0.2727272727272727, 0.35714285714285715, 0.0, 0.0, 0.2, 0.2, 0.2, 0.0, 0.0, 0.030303030303030304, 0.2777777777777778, 0.07692307692307693, 0.2, 0.2, 0.2, 0.2, 0.0, 0.0, 0.13636363636363635, 0.07692307692307693, 0.2653061224489796, 0.4375, 0.2, 0.2, 0.2, 0.2, 0.0, 0.0, 0.06666666666666667, 0.0, 0.09090909090909091, 0.13157894736842105, 1.0, 0.2, 0.0, 0.0, 0.0, 0.0, 0.0, 0.02564102564102564, 0.5925925925925926, 0.09090909090909091, 0.6666666666666666, 0.6666666666666666, 0.2, 0.2, 0.2, 0.0, 0.0, 0.011235955056179775, 0.02768166089965398, 0.012658227848101266, 1.0, 1.0, 0.2, 0.0, 1.0, 0.2, 0.2, 0.0, 0.0, 0.2, 0.2, 0.2, 1.0, 0.6666666666666666, 1.0, 0.0, 0.14285714285714285, 0.0, 0.3333333333333333, 0.0, 0.2, 0.2, 1.0, 0.0, 0.0, 0.1, 0.0, 0.1, 0.04, 0.0, 0.0, 0.2, 0.2, 0.0, 0.0, 0.0, 0.0, 0.05555555555555555, 0.0, 0.0, 0.2, 0.2, 0.0, 0.0, 0.05555555555555555, 0.02717391304347826, 0.07142857142857142, 0.02564102564102564, 0.14705882352941177, 0.0, 0.0, 0.2, 0.2, 0.0, 0.2, 1.0, 0.5, 0.6, 0.33962264150943394, 0.037037037037037035, 0.2, 0.2, 0.2, 0.2, 0.0, 0.14285714285714285, 0.13636363636363635, 0.1, 0.640625, 0.6, 0.2, 0.2, 0.0, 0.0, 0.0, 0.0, 0.2222222222222222, 0.42105263157894735, 0.1724137931034483, 0.75, 0.2, 0.2, 0.0, 0.0, 0.0, 0.0, 0.10526315789473684, 0.26666666666666666, 0.3333333333333333, 0.3333333333333333, 0.0, 0.0, 0.0, 0.0, 0.0, 0.0, 0.0, 0.0, 0.06060606060606061, 0.01875, 0.0, 1.0, 0.0, 0.2, 0.0, 1.0, 0.5, 1.0, 0.2, 0.2, 0.2, 0.2, 0.2, 0.2, 0.0, 1.0, 0.2, 0.2, 0.2, 0.0, 0.2, 0.2, 1.0, 1.0, 0.0, 0.2, 0.2, 0.2, 0.0, 0.3333333333333333, 0.2, 0.2, 0.2, 0.0, 0.0, 0.0, 0.2, 0.2, 0.0, 0.125, 0.2, 0.2, 0.0, 0.0, 0.6666666666666666, 0.023076923076923078, 0.25, 0.5, 0.0, 0.0, 0.0, 0.2, 0.2, 0.2, 1.0, 0.6666666666666666, 1.0, 1.0, 0.0, 0.3, 0.2, 0.2, 0.0, 0.0, 0.0, 0.5555555555555556, 0.21739130434782608, 1.0, 0.3333333333333333, 0.5555555555555556, 0.0, 0.2, 0.2, 0.0, 0.0, 0.09375, 0.05263157894736842, 1.0, 0.6666666666666666, 0.14285714285714285, 0.2, 0.2, 0.2, 0.0, 0.0, 0.0, 0.19047619047619047, 0.5333333333333333, 1.0, 0.8461538461538461, 0.0, 0.2, 0.0, 0.2, 0.0, 0.0, 0.0, 0.2857142857142857, 0.0, 0.41025641025641024, 0.0, 0.2, 0.3333333333333333, 0.6666666666666666, 0.5, 1.0, 0.6666666666666666, 0.2, 0.2, 0.2, 0.2, 0.2, 1.0, 0.0, 0.0, 0.0, 0.2, 0.2, 0.0, 0.0, 0.2, 0.2, 0.5, 0.0, 0.0, 0.0, 0.2, 0.2, 0.2, 0.0, 0.2, 0.2, 0.0, 0.0, 0.0, 0.2, 0.2, 0.2, 0.2, 0.0, 0.2, 0.2, 0.05405405405405406, 0.125, 0.7, 0.4, 1.0, 0.2, 0.2, 0.0, 0.0, 0.2, 1.0, 1.0, 1.0, 0.6, 1.0, 0.2, 0.0, 0.7142857142857143, 0.75, 0.2, 0.2, 1.0, 0.0, 1.0, 1.0, 1.0, 0.2, 0.3333333333333333, 0.5, 0.2, 0.2, 0.0, 0.14285714285714285, 0.009174311926605505, 0.0, 0.0, 0.0, 0.0, 0.0, 0.2, 0.0, 0.0, 0.0, 0.05555555555555555, 0.045454545454545456, 0.0, 0.2, 0.0, 0.5454545454545454, 0.0, 0.0, 0.0, 0.0, 0.0, 0.0, 0.5, 0.0, 0.0, 0.19047619047619047, 0.0, 0.0, 0.2, 0.2, 1.0, 0.2, 0.2, 0.2, 0.2, 0.2, 0.2, 0.0, 0.2, 0.2, 0.2, 0.2, 0.2, 0.2, 0.2, 0.2, 0.0, 0.0, 0.0, 0.2, 0.2, 0.2, 0.2, 0.2, 0.2, 0.2, 0.2, 0.0, 0.0, 0.0, 0.0, 0.0, 0.2, 0.2, 0.2, 0.0, 0.2, 0.7142857142857143, 0.1111111111111111, 0.25, 0.2, 0.0, 0.2, 0.2, 0.2, 0.0, 0.0, 0.8, 0.5, 0.2, 0.5, 0.2, 0.2, 0.2, 0.2, 0.2857142857142857, 0.5, 0.5, 0.6666666666666666, 0.2, 0.2, 0.2, 0.2, 0.2, 0.2, 0.09090909090909091, 0.038461538461538464, 0.2, 0.0, 0.2, 0.0, 0.2, 0.2, 0.2, 0.2, 0.0, 0.0, 0.0, 0.0, 0.0, 0.0, 0.0, 0.0, 0.2, 0.2, 0.22448979591836735, 0.03409090909090909, 0.0, 0.0, 0.0, 0.0, 0.0, 0.0, 0.2, 0.2, 0.38235294117647056, 0.0, 0.5, 0.5, 1.0, 0.2, 0.2, 0.2, 0.2, 0.2, 0.2, 0.0, 0.2, 0.2, 0.2, 0.2, 0.2, 0.2, 0.2, 0.2, 0.2, 0.0, 0.0, 0.2, 0.2, 0.0, 0.2, 0.2, 0.2, 0.2, 0.2, 0.0, 0.0, 0.0, 0.0, 0.0, 0.0, 0.2, 0.2, 0.2, 0.2, 0.2, 0.2, 0.006622516556291391, 0.0, 0.0, 0.2, 0.2, 0.2, 0.2, 0.2, 0.0, 0.3333333333333333, 0.2, 0.2, 0.2, 0.2, 0.2, 0.2, 0.2, 0.2, 0.3333333333333333, 0.0, 0.0, 0.2, 0.2, 0.2, 0.2, 0.2, 0.2, 0.2, 0.014705882352941176, 0.0, 0.0, 0.2, 0.2, 0.2, 0.2, 0.0, 0.2, 0.2, 0.0, 0.0, 0.0, 0.0, 0.0, 0.0, 0.0, 0.2, 0.2, 0.2, 0.05985915492957746, 0.0, 0.0, 0.0, 0.0, 0.0, 0.0, 0.2, 0.2, 0.2, 0.3057324840764331, 0.6666666666666666, 0.0, 0.0, 0.2, 0.2, 0.2, 0.2, 0.0, 0.0, 0.2, 0.5833333333333334, 0.125, 1.0, 0.2, 0.2, 0.2, 0.2, 0.0, 0.2, 0.2, 0.30434782608695654, 0.125, 1.0, 0.2, 0.2, 0.2, 0.2, 0.0, 0.2, 0.0, 0.7333333333333333, 0.35185185185185186, 1.0, 0.2, 0.0, 0.2, 0.2, 0.2, 0.2, 0.0, 0.65625, 0.7090909090909091, 0.75, 0.0, 0.2, 0.0, 0.2, 0.2, 0.0, 0.2, 0.3007518796992481, 0.5301204819277109, 1.0, 1.0, 0.2, 0.2, 0.0, 0.2, 0.2, 0.0, 0.35051546391752575, 0.6730769230769231, 0.8333333333333334, 0.2, 1.0, 0.0, 0.0, 0.2, 0.2, 0.3333333333333333, 0.2894736842105263, 0.7391304347826086, 0.7142857142857143, 0.0, 0.2, 0.2, 0.0, 0.0, 0.2, 0.0, 0.003887269193391642, 0.06493506493506493, 0.01020408163265306, 0.0, 0.0, 0.2, 0.0, 0.2, 0.0, 0.0, 0.0064516129032258064, 0.0, 0.0, 1.0, 0.0, 0.0, 0.0, 0.0, 0.0, 0.0, 0.5, 0.75, 1.0, 1.0, 0.2, 0.2, 0.2, 0.2, 0.2, 0.2, 0.23529411764705882, 0.3333333333333333, 1.0, 1.0, 0.2, 0.2, 0.0, 0.0, 0.2, 0.2, 0.023255813953488372, 0.14285714285714285, 0.9333333333333333, 0.2, 0.2, 0.2, 0.0, 0.2, 0.2, 0.2, 0.016129032258064516, 0.0, 1.0, 0.8, 0.2, 0.2, 0.0, 0.2, 0.0, 0.2, 0.12280701754385964, 0.5, 0.96875, 0.8666666666666667, 0.0, 0.0, 0.2, 0.2, 0.2, 0.2, 0.6212121212121212, 1.0, 0.9859154929577465, 0.8571428571428571, 0.2, 0.0, 0.0, 0.2, 0.2, 0.2, 0.9117647058823529, 0.975609756097561, 1.0, 0.9333333333333333, 0.2, 0.0, 0.0, 0.2, 0.2, 0.2, 0.8963414634146342, 1.0, 0.921875, 0.8, 0.0, 0.2, 0.0, 0.2, 0.2, 0.2, 0.21483375959079284, 0.1130952380952381, 0.020731707317073172, 0.4375, 0.0, 1.0, 0.0, 0.0, 0.0, 0.2, 0.0625, 0.18, 0.1111111111111111, 0.0, 0.0, 0.2, 0.2, 0.0, 0.0, 0.0, 1.0, 0.2, 0.0, 1.0, 0.2, 0.2, 0.2, 0.2, 0.2, 0.2, 1.0, 0.0, 0.0, 0.8888888888888888, 0.0, 0.2, 0.2, 0.2, 0.2, 0.2, 0.5, 1.0, 0.0, 0.9090909090909091, 1.0, 0.2, 0.0, 0.2, 0.2, 0.2, 0.0, 0.2, 0.0, 0.975, 0.7368421052631579, 0.2, 0.0, 0.0, 0.2, 0.0, 0.14285714285714285, 0.3333333333333333, 0.0, 0.9433962264150944, 0.7894736842105263, 0.0, 0.2, 0.0, 0.0, 0.0, 0.6896551724137931, 0.2, 0.0, 0.967741935483871, 0.5142857142857142, 0.0, 0.0, 0.2, 0.0, 0.2, 0.9420289855072463, 0.6666666666666666, 0.2, 0.9859154929577465, 0.875, 0.0, 0.0, 1.0, 0.0, 0.2, 0.9957446808510638, 0.21951219512195122, 0.03007518796992481, 0.7916666666666666, 1.0, 0.0, 0.025, 0.041666666666666664, 0.2, 0.2, 0.9942528735632183, 0.4375, 0.08, 0.8823529411764706, 0.6, 0.42857142857142855, 0.15384615384615385, 0.017543859649122806, 0.0, 1.0, 0.8085106382978723, 0.14285714285714285, 0.0, 0.5714285714285714, 0.2, 0.0, 0.5, 0.0, 0.0, 0.0, 0.2, 0.2, 0.2, 0.0, 1.0, 1.0, 0.2, 0.2, 0.2, 1.0, 0.2, 0.2, 0.2, 0.2, 0.5, 0.75, 0.0, 0.2, 0.2, 0.2, 0.2, 1.0, 0.0, 0.0, 0.8666666666666667, 0.2, 0.0, 0.2, 0.2, 0.2, 0.2, 0.0, 0.0, 0.0, 0.96, 0.75, 0.0, 0.0, 0.0, 0.0, 0.0, 0.0, 0.2, 0.2, 0.8181818181818182, 0.16666666666666666, 0.0, 0.0, 0.0, 0.2, 0.0, 0.2, 0.0, 0.0, 0.5862068965517241, 0.13636363636363635, 0.0, 0.0, 0.0, 0.2, 0.0, 1.0, 0.2, 0.2, 0.7111111111111111, 0.10810810810810811, 0.0425531914893617, 0.0, 0.0, 0.2, 0.0, 0.0, 0.0, 0.5, 0.9090909090909091, 0.5357142857142857, 0.037037037037037035, 0.0, 0.2, 0.0, 0.009615384615384616, 0.0, 0.0, 0.4, 0.8888888888888888, 0.3870967741935484, 0.05263157894736842, 0.0, 0.0, 0.2, 0.2, 0.0, 0.0, 1.0, 0.3333333333333333, 0.3333333333333333, 0.022222222222222223, 0.0, 0.6666666666666666, 0.2, 0.2, 0.2, 0.2, 0.2, 0.0, 0.6666666666666666, 0.0, 0.2, 0.0, 0.2, 0.2, 0.2, 1.0, 0.0, 0.0, 0.6, 0.0, 0.0, 0.0, 0.2, 0.0, 0.2, 0.0, 0.0, 0.0, 0.5161290322580645, 0.0, 0.0, 0.2, 0.0, 0.0, 0.2, 0.0, 0.0, 0.0, 0.6410256410256411, 0.0, 0.0, 0.2, 0.2, 0.2, 0.2, 0.0, 0.0, 0.0, 0.3559322033898305, 0.0, 0.0, 0.0, 0.0, 0.2, 0.2, 0.2, 0.0, 0.16666666666666666, 0.45454545454545453, 0.05555555555555555, 0.0, 0.2, 0.2, 0.2, 0.2, 0.3333333333333333, 0.1, 0.18181818181818182, 0.2230769230769231, 0.02040816326530612, 0.0, 0.2, 0.2, 0.2, 0.2, 0.5, 0.6363636363636364, 0.6, 0.45098039215686275, 0.01818181818181818, 0.05263157894736842, 0.0, 0.2, 0.0, 0.0, 0.125, 0.7272727272727273, 0.6, 0.5641025641025641, 0.0, 0.03636363636363636, 0.16666666666666666, 0.0, 0.2, 0.2, 0.2, 1.0, 1.0, 0.033707865168539325, 0.006920415224913495, 0.0, 0.0, 0.0, 0.2, 0.0, 0.0, 0.2, 0.2, 0.0, 0.0, 0.2, 0.2, 0.2, 0.0, 0.0, 0.0, 0.0, 0.0, 0.0, 0.0, 0.0, 0.2, 0.2, 0.0, 0.0, 0.0, 0.0, 0.0, 0.0, 0.24, 0.0, 0.0, 0.2, 0.2, 0.0, 0.0, 0.0, 0.0, 0.1111111111111111, 0.75, 0.0, 0.2, 0.2, 0.0, 0.0, 0.0, 0.0, 0.0, 0.00641025641025641, 0.6470588235294118, 0.0, 0.0, 0.2, 0.2, 0.0, 0.2, 0.0, 0.0, 0.0, 0.5471698113207547, 0.0, 0.2, 0.2, 0.2, 0.2, 0.5, 0.14285714285714285, 0.0, 0.06666666666666667, 0.21875, 0.0, 0.2, 0.2, 0.0, 0.0, 0.8333333333333334, 0.6428571428571429, 0.1111111111111111, 0.10526315789473684, 0.1724137931034483, 0.0, 0.2, 0.2, 0.0, 0.6666666666666666, 1.0, 0.5384615384615384, 0.2631578947368421, 0.13333333333333333, 0.4444444444444444, 0.0, 0.0, 0.0, 0.0, 0.0, 0.0, 0.8333333333333334, 0.3333333333333333, 0.0, 0.015151515151515152, 0.0, 0.0, 0.0, 0.0, 0.2, 0.0, 0.0, 0.0, 0.0, 0.2, 0.2, 0.2, 0.2, 0.2, 0.2, 0.0, 0.0, 0.2, 0.2, 0.2, 1.0, 0.2, 0.2, 0.0, 0.0, 0.0, 0.2, 0.2, 0.2, 0.125, 0.6666666666666666, 0.2, 0.2, 0.2, 0.0, 0.0, 0.0, 0.2, 0.2, 0.2, 0.625, 0.2, 0.2, 0.0, 0.0, 0.0, 0.0, 0.0, 0.0, 1.0, 0.9166666666666666, 0.0, 0.2, 0.2, 0.2, 0.0, 0.0, 0.0, 0.0, 0.5, 0.55, 0.2, 0.2, 0.5, 0.0, 0.0, 0.0, 0.0, 0.0, 0.6666666666666666, 0.3888888888888889, 1.0, 0.2, 0.2, 0.0, 0.7142857142857143, 0.0625, 0.0, 0.0, 0.0, 0.42857142857142855, 0.2, 0.2, 0.2, 0.5, 0.375, 0.10344827586206896, 0.14285714285714285, 0.06666666666666667, 0.0, 0.07692307692307693, 0.0, 0.2, 0.0, 0.2, 0.003389830508474576, 0.09090909090909091, 0.0, 0.14285714285714285, 0.0, 0.0, 0.0, 0.2, 0.0, 0.0, 0.0, 0.0, 0.0, 0.2, 0.2, 0.2, 0.2, 0.2, 0.0, 0.0, 0.0, 0.0, 0.2, 0.2, 0.0, 1.0, 0.2, 0.2, 0.0, 0.0, 0.0, 0.0, 0.2, 0.2, 0.2, 1.0, 0.2, 0.2, 0.0, 0.0, 0.0, 0.2, 0.2, 0.2, 0.2, 1.0, 0.2, 0.2, 0.0, 0.0, 0.0, 0.0, 0.0, 0.2, 0.2, 1.0, 1.0, 0.2, 0.0, 0.0, 0.0, 0.0, 0.0, 0.2, 0.0, 0.2857142857142857, 0.125, 0.2, 0.2, 0.0, 0.0, 0.0, 0.0, 0.0, 0.2, 0.6666666666666666, 0.5, 0.2, 0.2, 0.0, 0.0, 0.0, 0.0, 0.0, 0.0, 1.0, 0.8333333333333334, 0.2, 1.0, 0.0, 0.08333333333333333, 0.0, 0.0, 1.0, 0.2, 1.0, 0.45454545454545453, 0.0, 0.0, 0.0, 0.0, 0.0, 0.0, 0.0, 0.0, 0.0, 0.0, 0.0, 0.0, 0.2, 0.2, 0.0, 0.2, 0.2, 0.2, 0.2, 0.2, 0.2, 0.0, 0.2, 0.2, 0.2, 0.2, 0.2, 0.2, 0.2, 0.2, 1.0, 0.0, 0.0, 0.2, 0.2, 0.2, 0.2, 0.2, 0.2, 0.2, 0.2, 0.0, 0.0, 0.0, 0.0, 0.0, 0.2, 0.2, 0.2, 1.0, 0.2, 0.0, 0.0, 0.0, 0.0, 0.0, 0.2, 0.2, 0.2, 1.0, 1.0, 0.0, 0.0, 0.2, 0.0, 0.2, 0.2, 0.2, 0.2, 0.7142857142857143, 0.5, 0.0, 0.0, 0.2, 0.2, 0.2, 0.2, 0.2, 0.2, 0.9090909090909091, 0.9615384615384616, 0.2, 0.0, 0.2, 0.0, 0.2, 0.2, 0.2, 0.2, 1.0, 1.0, 0.0, 0.0, 0.0, 0.0, 0.0, 0.0, 0.2, 0.2, 0.7755102040816326, 0.7613636363636364, 0.043478260869565216, 0.0, 0.0, 0.0, 0.0, 0.0, 0.2, 0.2, 0.17647058823529413, 0.44, 0.0, 0.0, 0.0, 0.2, 0.2, 0.2, 0.2, 0.2, 0.2, 1.0, 0.2, 0.2, 0.2, 0.2, 0.2, 0.2, 0.2, 0.2, 0.2, 1.0, 0.0, 0.2, 0.2, 0.0, 0.2, 0.2, 0.2, 0.2, 0.2, 0.5, 0.0, 0.0, 0.0, 0.0, 0.0, 0.2, 0.2, 0.2, 0.2, 0.2, 0.2, 0.0, 0.0, 0.0, 0.2, 0.2, 0.2, 0.2, 0.2, 0.0, 0.0, 0.2, 0.2, 0.2, 0.2, 0.2, 0.2, 0.2, 0.2, 0.3333333333333333, 0.0, 0.0, 0.2, 0.2, 0.2, 0.2, 0.2, 0.2, 0.2, 0.9852941176470589, 0.0, 0.0, 0.2, 0.2, 0.2, 0.2, 0.0, 0.2, 0.2, 0.9908045977011494, 0.0, 0.0, 0.3333333333333333, 0.0, 0.0, 0.0, 0.2, 0.2, 0.2, 0.6126760563380281, 0.0, 0.0, 0.0, 0.0, 0.0, 0.0, 0.2, 0.2, 0.2, 0.2929936305732484, 0.0, 0.0, 0.0, 0.2, 0.2, 0.2, 0.2, 0.0, 0.0, 0.2, 0.0, 0.0, 0.0, 0.2, 0.2, 0.2, 0.2, 0.0, 0.2, 0.2, 0.0, 0.0, 0.0, 0.2, 0.2, 0.2, 0.2, 1.0, 0.2, 0.0, 0.0, 0.0, 0.0, 0.2, 1.0, 0.2, 0.2, 0.2, 0.2, 0.0, 0.0, 0.0, 0.0, 0.0, 0.2, 1.0, 0.2, 0.2, 0.0, 0.2, 0.0, 0.0, 0.0, 0.0, 0.2, 0.2, 1.0, 0.2, 0.2, 0.0, 0.030927835051546393, 0.0, 0.0, 0.2, 0.0, 1.0, 1.0, 0.2, 0.2, 0.0, 0.15789473684210525, 0.043478260869565216, 0.0, 0.0, 0.2, 0.2, 0.0, 0.0, 0.2, 0.0, 0.9825072886297376, 0.922077922077922, 0.9897959183673469, 0.0, 1.0, 0.2, 0.0, 0.2, 0.0, 0.0, 0.8838709677419355, 0.18181818181818182, 0.3333333333333333, 0.0, 0.0, 0.0, 0.0, 0.0, 0.0, 0.0, 0.0, 0.0, 0.0, 0.0, 0.2, 0.2, 0.2, 0.2, 0.2, 0.2, 0.0, 0.0, 0.0, 0.0, 0.2, 0.2, 0.0, 0.0, 0.2, 0.2, 0.0, 0.0, 0.06666666666666667, 0.2, 0.2, 0.2, 0.3333333333333333, 0.2, 0.2, 0.2, 0.0, 0.0, 0.0, 0.1, 0.2, 0.2, 1.0, 0.2, 1.0, 0.2, 0.0, 0.0, 0.0, 0.0, 1.0, 1.0, 0.2, 0.2, 0.2, 0.2, 0.0, 0.0, 0.0, 0.0, 0.2, 1.0, 0.75, 0.2, 0.2, 0.2, 0.00980392156862745, 0.0, 0.0, 0.0, 0.0, 1.0, 1.0, 0.2, 0.2, 0.2, 0.006097560975609756, 0.0, 0.0, 0.0, 0.0, 0.2, 1.0, 0.2, 0.2, 0.2, 0.0025575447570332483, 0.8869047619047619, 0.9768292682926829, 0.1875, 1.0, 0.0, 0.0, 0.0, 0.0, 0.2, 0.008333333333333333, 0.64, 0.2222222222222222, 0.0, 0.0, 0.2, 0.2, 0.0, 0.0, 0.0, 0.0, 0.2, 0.0, 0.0, 0.2, 0.2, 0.2, 0.2, 0.2, 0.2, 0.0, 0.0, 0.0, 0.0, 0.0, 0.2, 0.2, 0.2, 0.2, 0.2, 0.0, 0.0, 0.0, 0.09090909090909091, 0.0, 0.2, 0.625, 0.2, 0.2, 0.2, 0.0, 0.2, 0.0, 0.0, 0.15789473684210525, 0.2, 0.10526315789473684, 1.0, 0.2, 0.0, 0.14285714285714285, 0.0, 0.0, 0.0, 0.21052631578947367, 1.0, 0.2, 0.0, 0.0, 0.5, 0.034482758620689655, 0.2, 0.0, 0.0, 0.4, 1.0, 1.0, 0.2, 0.0, 0.2, 0.0, 0.0, 0.2, 0.0, 0.0625, 1.0, 1.0, 0.0, 0.5, 0.2, 0.0, 0.0, 0.0, 0.0, 0.0, 0.6666666666666666, 0.975, 0.9375, 0.2, 0.2, 0.0, 0.28125, 0.04, 0.029411764705882353, 0.0, 0.0, 0.07692307692307693, 0.7894736842105263, 0.2, 0.0, 0.19148936170212766, 0.8571428571428571, 1.0, 0.0, 0.0, 0.0, 0.5, 0.0, 0.0, 0.0, 0.2, 0.2, 0.2, 0.0, 0.0, 0.0, 0.2, 0.2, 0.2, 0.0, 0.2, 0.2, 0.2, 0.2, 0.5, 0.25, 1.0, 0.2, 0.2, 0.2, 0.2, 0.0, 0.6666666666666666, 0.0, 0.06666666666666667, 0.8, 1.0, 0.2, 0.2, 0.2, 0.2, 0.0, 0.0, 0.0, 0.04, 0.25, 0.75, 1.0, 1.0, 1.0, 0.0, 0.0, 0.2, 0.2, 0.0, 0.2777777777777778, 0.05555555555555555, 0.2, 0.3333333333333333, 0.2, 0.0, 0.2, 1.0, 1.0, 0.41379310344827586, 0.6818181818181818, 0.75, 0.4, 0.16666666666666666, 0.2, 0.0, 0.0, 0.2, 0.2, 0.26666666666666666, 0.8648648648648649, 0.851063829787234, 0.5454545454545454, 0.0, 0.2, 0.0, 0.0, 0.0, 0.5, 0.06060606060606061, 0.42857142857142855, 0.9629629629629629, 0.9767441860465116, 0.2, 0.3333333333333333, 0.0, 0.0, 0.058823529411764705, 0.0, 0.05555555555555555, 0.06451612903225806, 0.21052631578947367, 0.9587628865979382, 0.5, 0.2, 0.2, 1.0, 1.0, 0.0, 0.0, 0.0, 0.0, 0.14285714285714285, 0.0, 0.2, 0.2, 0.2, 0.2, 0.2, 0.8, 0.3333333333333333, 0.0, 0.2, 1.0, 0.2, 0.2, 0.2, 0.0, 0.0, 1.0, 0.4, 1.0, 1.0, 1.0, 0.2, 0.0, 0.2, 0.0, 0.5, 0.5, 0.41935483870967744, 1.0, 1.0, 0.2, 1.0, 0.0, 0.2, 1.0, 0.5, 0.06060606060606061, 0.1282051282051282, 0.9411764705882353, 1.0, 0.2, 0.2, 0.2, 0.2, 1.0, 0.0, 0.006578947368421052, 0.2542372881355932, 0.696969696969697, 0.6428571428571429, 1.0, 1.0, 0.2, 0.2, 0.2, 1.0, 0.8333333333333334, 0.26262626262626265, 0.6111111111111112, 0.9230769230769231, 0.2, 0.2, 0.2, 0.2, 0.6666666666666666, 0.9, 0.4090909090909091, 0.5, 0.7142857142857143, 0.5625, 0.2, 0.2, 0.2, 0.2, 0.0, 0.18181818181818182, 0.26666666666666666, 0.2549019607843137, 0.8909090909090909, 0.8157894736842105, 0.0, 0.2, 0.0, 0.0, 0.625, 0.0, 0.04, 0.10256410256410256, 0.25925925925925924, 0.8545454545454545, 0.16666666666666666, 0.3333333333333333, 0.2, 0.2, 0.2, 0.0, 0.0, 0.011235955056179775, 0.0, 0.0, 0.0, 0.0, 0.2, 0.0, 0.0, 0.2, 0.2, 0.5, 1.0, 0.2, 0.2, 0.2, 0.0, 0.0, 0.0, 1.0, 0.8571428571428571, 1.0, 0.6666666666666666, 1.0, 0.2, 0.2, 0.0, 0.0, 1.0, 0.8, 1.0, 0.9, 0.72, 1.0, 1.0, 0.2, 0.2, 0.0, 1.0, 0.5, 0.22058823529411764, 0.7777777777777778, 0.21428571428571427, 1.0, 0.2, 0.2, 0.0, 0.0, 0.1111111111111111, 0.02717391304347826, 0.10714285714285714, 0.0, 0.058823529411764705, 1.0, 1.0, 0.2, 0.2, 1.0, 0.2, 0.0, 0.5, 0.4, 0.07547169811320754, 0.9629629629629629, 0.2, 0.2, 0.2, 0.2, 0.5, 0.7142857142857143, 0.045454545454545456, 0.0, 0.140625, 0.4, 0.2, 0.2, 0.0, 0.0, 0.0, 0.21428571428571427, 0.5555555555555556, 0.47368421052631576, 0.41379310344827586, 0.25, 0.2, 0.2, 0.0, 0.3333333333333333, 0.0, 0.0, 0.2631578947368421, 0.06666666666666667, 0.16666666666666666, 0.6666666666666666, 0.0, 1.0, 0.0, 0.0, 0.0, 0.0, 0.5, 0.0, 0.030303030303030304, 0.0, 0.0, 0.0, 1.0, 0.2, 0.0, 0.0, 0.0, 0.0, 0.2, 0.2, 0.2, 0.2, 0.2, 0.2, 0.0, 0.0, 0.2, 0.2, 0.2, 0.0, 0.2, 0.2, 0.0, 0.0, 0.0, 0.2, 0.2, 0.2, 0.875, 0.0, 0.2, 0.2, 0.2, 0.0, 0.0, 0.3333333333333333, 0.2, 0.2, 0.8, 0.25, 0.2, 0.2, 0.0, 0.0, 0.0, 0.0, 0.0, 0.0, 0.0, 0.08333333333333333, 0.0, 0.2, 0.2, 0.2, 0.0, 0.3333333333333333, 0.0, 0.0, 0.0, 0.15, 0.2, 0.2, 0.5, 0.0, 0.0, 0.0, 0.043478260869565216, 0.0, 0.0, 0.05555555555555555, 0.0, 0.2, 0.2, 0.0, 0.14285714285714285, 0.03125, 0.02631578947368421, 0.0, 0.3333333333333333, 0.14285714285714285, 0.2, 0.2, 0.2, 0.0, 0.0, 0.6896551724137931, 0.19047619047619047, 0.0, 0.0, 0.07692307692307693, 0.0, 0.2, 0.017241379310344827, 0.2, 0.0, 0.9090909090909091, 0.6923076923076923, 0.14285714285714285, 0.125, 0.0, 0.0, 0.2, 0.6666666666666666, 0.0, 0.0, 0.0, 0.0, 0.2, 0.2, 0.2, 0.2, 0.2, 0.0, 0.0, 0.0, 0.0, 0.2, 0.2, 1.0, 0.0, 0.2, 0.2, 0.0, 0.0, 0.0, 0.0, 0.2, 0.2, 0.2, 0.0, 0.2, 0.2, 0.0, 0.9166666666666666, 1.0, 0.2, 0.2, 0.2, 0.2, 0.0, 0.2, 0.2, 0.0, 0.625, 0.0, 0.0, 0.0, 0.2, 0.2, 0.0, 0.0, 0.2, 0.0, 0.0, 0.0, 0.0, 0.0, 0.2, 0.0, 0.0, 0.125, 0.2, 0.2, 0.0, 0.0, 0.0, 0.0, 0.0, 0.2, 0.0, 0.0, 0.2, 0.2, 0.5, 0.0, 0.0, 0.06896551724137931, 0.0, 1.0, 0.0, 0.0, 0.2, 0.0, 0.0, 0.0, 0.5, 0.09090909090909091, 0.0, 0.2, 0.0, 0.0, 0.0, 0.0, 0.0, 0.0031847133757961785, 0.8, 0.8888888888888888, 0.0, 1.0, 0.08333333333333333, 0.0, 0.0, 0.0, 0.2, 0.2, 0.0, 0.2, 0.2, 0.2, 0.2, 0.2, 0.2, 0.0, 0.2, 0.2, 0.2, 0.2, 0.2, 0.2, 0.2, 0.2, 0.0, 0.0, 0.0, 0.2, 0.2, 0.2, 0.2, 0.2, 0.2, 0.2, 0.2, 0.3333333333333333, 0.8, 1.0, 1.0, 1.0, 0.2, 0.2, 0.2, 0.0, 0.2, 0.0, 0.08333333333333333, 0.375, 0.4, 1.0, 0.2, 0.2, 0.2, 0.0, 0.0, 0.0, 0.0, 0.2, 0.0, 0.2, 0.2, 0.2, 0.2, 0.0, 0.0, 0.0, 0.0, 0.2, 0.2, 0.2, 0.2, 0.2, 0.2, 0.0, 0.0, 0.2, 0.0, 0.2, 0.0, 0.2, 0.2, 0.2, 0.2, 0.0, 0.0, 0.0, 0.0, 0.0, 0.0, 0.0, 0.0, 0.2, 0.2, 0.0, 0.0, 0.0, 0.0, 0.16666666666666666, 0.0, 0.0, 0.0, 0.2, 0.2, 0.0, 0.0, 0.0, 0.5, 0.0, 0.2, 0.2, 0.2, 0.2, 0.2, 0.2, 0.0, 0.2, 0.2, 0.2, 0.2, 0.2, 0.2, 0.2, 0.2, 0.2, 0.0, 0.0, 0.2, 0.2, 1.0, 0.2, 0.2, 0.2, 0.2, 0.2, 0.0, 0.0, 0.0, 1.0, 1.0, 1.0, 0.2, 0.2, 0.2, 0.2, 0.2, 0.2, 0.0, 0.0, 1.0, 0.2, 0.2, 0.2, 0.2, 0.2, 1.0, 0.0, 0.2, 0.2, 0.2, 0.2, 0.2, 0.2, 0.2, 0.2, 0.3333333333333333, 0.0, 0.0, 0.2, 0.2, 0.2, 0.2, 0.2, 0.2, 0.2, 0.0, 0.0, 0.0, 0.2, 0.2, 0.2, 0.2, 0.0, 0.2, 0.2, 0.0022988505747126436, 0.0, 0.0, 0.0, 0.0, 0.0, 0.0, 0.2, 0.2, 0.2, 0.3274647887323944, 0.7142857142857143, 0.0, 0.0, 0.0, 0.0, 0.0, 0.2, 0.2, 0.2, 0.1337579617834395, 0.0, 0.0, 0.0, 0.2, 0.2, 0.2, 0.2, 1.0, 1.0, 0.2, 0.0, 0.0, 0.0, 0.2, 0.2, 0.2, 0.2, 1.0, 0.2, 0.2, 0.0, 0.0, 0.0, 0.2, 0.2, 0.2, 0.2, 0.0, 0.2, 1.0, 0.0, 0.0, 0.0, 0.2, 0.0, 0.2, 0.2, 0.2, 0.2, 1.0, 0.0, 0.0, 0.0, 0.0, 0.2, 0.0, 0.2, 0.2, 0.0, 0.2, 0.0, 0.0, 0.0, 0.0, 0.2, 0.2, 0.0, 0.2, 0.2, 0.0, 0.0, 0.0, 0.0, 0.2, 0.0, 0.0, 0.0, 0.2, 0.2, 0.0, 0.0, 0.0, 0.0, 0.0, 0.2, 0.2, 1.0, 1.0, 0.2, 0.0, 0.0, 0.0, 0.0, 0.0, 0.0, 0.2, 1.0, 0.2, 0.0, 0.0, 0.0, 0.0, 0.1111111111111111, 0.0, 0.0, 0.0, 0.0, 0.0, 0.14285714285714285, 0.4, 0.0, 0.0, 0.0, 0.0, 0.2, 0.2, 0.2, 0.2, 0.2, 0.2, 0.0, 0.0, 0.0, 0.0, 0.2, 0.2, 1.0, 1.0, 0.2, 0.2, 0.0, 0.0, 0.0, 0.2, 0.2, 0.2, 0.6666666666666666, 0.2, 0.2, 0.2, 0.0, 0.0, 0.0, 0.0, 0.2, 0.2, 0.0, 0.2, 0.0, 0.2, 0.0, 0.0, 0.0, 0.0, 0.0, 0.0, 0.2, 0.2, 0.2, 0.2, 0.0, 0.0, 0.0, 0.0, 0.2, 0.0, 0.0, 0.2, 0.2, 0.2, 0.0, 0.0, 0.0, 0.0, 0.0, 0.0, 0.0, 0.2, 0.2, 0.2, 0.012195121951219513, 0.0, 0.078125, 0.08, 0.0, 0.2, 0.0, 0.2, 0.2, 0.2, 0.6956521739130435, 0.0, 0.0012195121951219512, 0.0625, 0.0, 0.0, 0.0, 0.0, 0.0, 0.2, 0.8333333333333334, 0.02, 0.0, 0.0, 1.0, 0.2, 0.2, 0.0, 0.0, 0.0, 0.0, 0.2, 1.0, 0.0, 0.2, 0.2, 0.2, 0.2, 0.2, 0.2, 0.0, 0.0, 1.0, 0.0, 1.0, 0.2, 0.2, 0.2, 0.2, 0.2, 0.0, 0.0, 0.0, 0.0, 0.0, 0.2, 0.375, 0.2, 0.2, 0.2, 0.0, 0.2, 0.0, 0.0, 0.0, 0.2, 0.8947368421052632, 0.0, 0.2, 0.0, 0.0, 0.0, 0.0, 0.0, 0.0, 0.0, 0.2, 0.0, 0.0, 0.0, 0.0, 0.2, 0.0, 0.016129032258064516, 0.0, 0.0, 0.0, 0.2, 0.0, 0.2, 0.028985507246376812, 0.0, 0.2, 0.0, 0.0, 0.0, 0.0, 0.0, 0.0, 0.2, 0.00425531914893617, 0.7804878048780488, 0.9699248120300752, 0.19444444444444445, 0.0, 0.0, 0.0, 0.0, 0.2, 0.2, 0.005747126436781609, 0.28125, 0.88, 0.08823529411764706, 0.0, 0.0, 0.0, 0.0, 0.0, 0.0, 0.0, 0.0, 0.0, 0.0, 0.0, 1.0, 0.0, 0.0, 0.0, 0.0, 0.2, 0.2, 0.2, 1.0, 0.0, 0.0, 0.2, 0.2, 0.2, 0.0, 0.2, 0.2, 0.2, 0.2, 0.0, 0.0, 0.0, 0.2, 0.2, 0.2, 0.2, 0.0, 0.0, 0.0, 0.0, 0.0, 0.0, 0.2, 0.2, 0.2, 0.2, 0.0, 0.0, 1.0, 0.0, 0.0, 0.25, 0.0, 0.0, 0.0, 0.0, 0.0, 0.2, 0.2, 0.16363636363636364, 0.5, 0.7222222222222222, 0.0, 0.3333333333333333, 0.2, 0.0, 0.2, 0.0, 0.0, 0.0, 0.13636363636363635, 0.0, 0.0, 0.0, 0.2, 1.0, 0.0, 0.2, 0.2, 0.0, 0.0, 0.0, 0.0, 0.0, 0.2, 1.0, 1.0, 1.0, 0.0, 0.0, 0.0, 0.0, 0.0, 0.0, 0.0, 0.9903846153846154, 1.0, 0.9411764705882353, 0.6, 0.0, 0.0, 0.05263157894736842, 0.0, 0.0, 0.2, 0.2, 0.0, 0.0, 0.0, 0.0, 0.1111111111111111, 0.9111111111111111, 0.0, 0.0, 0.2, 0.2, 0.2, 0.2, 0.2, 0.2, 0.0, 0.0, 0.2, 0.0, 0.2, 0.2, 0.2, 0.0, 0.0, 0.0, 0.0, 0.0, 0.0, 0.0, 0.2, 0.0, 0.2, 0.0, 0.0, 0.0, 0.0, 0.0, 0.0, 0.2, 0.0, 0.0, 0.2, 0.0, 0.0, 0.8787878787878788, 0.10256410256410256, 0.0, 0.0, 0.2, 0.2, 0.2, 0.2, 0.0, 1.0, 0.9605263157894737, 0.23728813559322035, 0.030303030303030304, 0.0, 0.0, 0.0, 0.2, 0.2, 0.2, 0.0, 0.0, 0.16161616161616163, 0.0, 0.0, 0.2, 0.2, 0.2, 0.2, 0.0, 0.0, 0.2727272727272727, 0.19230769230769232, 0.0, 0.0, 0.2, 0.2, 0.2, 0.2, 0.5, 0.0, 0.0, 0.0, 0.0, 0.0, 0.0, 0.2, 1.0, 1.0, 0.25, 0.09090909090909091, 0.0, 0.0, 0.0, 0.01818181818181818, 0.0, 0.0, 0.2, 0.2, 0.2, 0.0, 0.0, 0.011235955056179775, 0.9238754325259516, 0.9367088607594937, 0.0, 0.0, 0.2, 0.5, 0.0, 0.2, 0.2, 0.0, 0.0, 0.2, 0.2, 0.2, 0.0, 0.0, 0.0, 0.0, 0.0, 0.0, 0.0, 0.0, 0.2, 0.2, 0.0, 0.0, 0.0, 0.1, 0.0, 0.0, 0.0, 0.0, 0.0, 0.2, 0.2, 0.0, 0.0, 0.4642857142857143, 0.7794117647058824, 0.05555555555555555, 0.0, 0.0, 0.2, 0.2, 1.0, 0.6666666666666666, 0.7777777777777778, 0.9402173913043478, 0.7857142857142857, 0.967948717948718, 0.11764705882352941, 0.0, 0.0, 0.2, 0.2, 0.0, 0.2, 0.0, 0.0, 0.0, 0.0, 0.0, 0.2, 0.2, 0.2, 0.2, 0.0, 0.0, 0.8181818181818182, 0.8333333333333334, 0.0, 0.0, 0.2, 0.2, 1.0, 1.0, 0.16666666666666666, 0.0, 0.1111111111111111, 0.0, 0.0, 0.0, 0.2, 0.2, 1.0, 0.0, 0.0, 0.0, 0.0, 0.0, 0.0, 0.0, 1.0, 0.0, 1.0, 1.0, 0.0, 0.0, 0.0, 0.0, 0.0, 0.98125, 1.0, 0.0, 0.0, 0.2, 0.0, 0.0, 0.5, 0.0, 0.2, 0.2, 0.2, 0.2, 0.2, 0.2, 0.5, 0.0, 0.2, 0.2, 0.2, 0.0, 0.2, 0.2, 0.0, 0.0, 0.0, 0.2, 0.2, 0.2, 0.0, 0.0, 0.2, 0.2, 0.2, 0.5, 0.0, 0.3333333333333333, 0.2, 0.2, 0.0, 0.0, 0.2, 0.2, 1.0, 1.0, 0.3333333333333333, 0.9692307692307692, 0.6875, 0.5, 0.0, 0.0, 1.0, 0.2, 0.2, 0.2, 0.0, 0.0, 0.0, 0.0, 0.0, 0.0, 0.2, 0.2, 0.0, 0.5, 0.5, 0.3333333333333333, 0.7391304347826086, 0.0, 0.0, 0.0, 0.0, 0.2, 0.2, 0.0, 0.0, 0.8125, 0.9210526315789473, 0.0, 0.0, 0.0, 0.2, 0.2, 0.2, 0.0, 0.0625, 0.0, 0.0, 0.0, 0.0, 0.0, 1.0, 0.2, 0.9827586206896551, 0.2, 0.9966101694915255, 0.0, 0.0, 0.0, 0.0, 0.0, 1.0, 0.2, 0.0, 0.0, 0.0, 0.0, 0.0, 0.2, 0.2, 0.2, 0.2, 0.2, 0.0, 0.0, 0.0, 1.0, 0.2, 0.2, 0.0, 0.0, 0.2, 0.2, 0.0, 0.0, 0.0, 0.0, 0.2, 0.2, 0.2, 0.0, 0.2, 0.2, 0.0, 0.0, 0.0, 0.2, 0.2, 0.2, 0.2, 0.0, 0.2, 0.2, 0.8918918918918919, 0.125, 0.2, 0.6, 0.0, 0.2, 0.2, 0.0, 0.0, 0.2, 0.0, 0.0, 0.0, 0.4, 0.0, 0.2, 1.0, 0.0, 0.0, 0.2, 0.2, 0.0, 0.0, 0.0, 0.0, 0.0, 0.2, 0.0, 0.0, 0.2, 0.2, 0.0, 0.0, 0.981651376146789, 0.9310344827586207, 1.0, 0.0, 0.0, 0.0, 0.2, 0.0, 0.16666666666666666, 0.0, 0.2777777777777778, 0.6818181818181818, 0.0, 0.2, 0.0, 0.0, 1.0, 1.0, 1.0, 0.9936305732484076, 0.0, 0.0, 0.0, 0.0, 0.0, 0.09523809523809523, 1.0, 0.0, 0.2, 0.2, 0.0, 0.2, 0.2, 0.2, 0.2, 0.2, 0.2, 0.0, 0.2, 0.2, 0.2, 0.2, 0.2, 0.2, 0.2, 0.2, 0.0, 0.0, 0.0, 0.2, 0.2, 0.2, 0.2, 0.2, 0.2, 0.2, 0.2, 0.3333333333333333, 0.0, 0.0, 0.0, 0.0, 0.2, 0.2, 0.2, 0.0, 0.2, 0.14285714285714285, 0.8055555555555556, 0.375, 0.4, 0.0, 0.2, 0.2, 0.2, 0.0, 0.0, 0.0, 0.0, 0.2, 0.5, 0.2, 0.2, 0.2, 0.2, 0.0, 0.0, 0.0, 0.0, 0.2, 0.2, 0.2, 0.2, 0.2, 0.2, 0.0, 0.0, 0.2, 0.0, 0.2, 1.0, 0.2, 0.2, 0.2, 0.2, 0.0, 0.0, 0.0, 0.0, 0.0, 0.9358974358974359, 1.0, 1.0, 0.2, 0.2, 0.0, 0.20454545454545456, 0.9130434782608695, 0.3333333333333333, 0.0, 0.0, 0.0, 0.75, 0.2, 0.2, 0.0, 0.28, 0.5, 0.0, 0.0, 0.2, 0.2, 0.2, 0.2, 0.2, 0.2, 0.0, 0.2, 0.2, 0.2, 0.2, 0.2, 0.2, 0.2, 0.2, 0.2, 0.0, 0.0, 0.2, 0.2, 0.0, 0.2, 0.2, 0.2, 0.2, 0.2, 0.0, 0.0, 0.0, 0.0, 0.0, 0.0, 0.2, 0.2, 0.2, 0.2, 0.2, 0.2, 0.9933774834437086, 1.0, 0.0, 0.2, 0.2, 0.2, 0.2, 0.2, 0.0, 0.0, 0.2, 0.2, 0.2, 0.2, 0.2, 0.2, 0.2, 0.2, 0.0, 0.0, 0.0, 0.2, 0.2, 0.2, 0.2, 0.2, 0.2, 0.2, 0.0, 1.0, 1.0, 0.2, 0.2, 0.2, 0.2, 1.0, 0.2, 0.2, 0.0, 0.0, 0.0, 0.0, 1.0, 1.0, 1.0, 0.2, 0.2, 0.2, 0.0, 0.14285714285714285, 0.0, 0.0, 0.0, 1.0, 1.0, 0.2, 0.2, 0.2, 0.0 ;
}
probability ( pitch1 | acceleration_stdev, classes, total_accel_sensor_2 ) {
